tree
version=v4
num_class=1
num_tree_per_iteration=1
label_index=0
max_feature_idx=91
objective=binary sigmoid:1
feature_names=ret_1 ret_2 ret_3 ret_6 ret_12 ret_24 ret_48 ret_96 dd_8 dd_24 dd_96 runup_24 runup_96 volr_20 volr_48 tsell tsell_ma8 close_pos body uwick lwick retstd_20 atr_14 dist_ema8 dist_ema21 ema_spread accel new_high_96 consec r_ret_1 r_cpos_1 r_body_1 r_uw_1 r_lw_1 r_volr_1 r_ts_1 r_ret_2 r_cpos_2 r_body_2 r_uw_2 r_lw_2 r_volr_2 r_ts_2 r_ret_3 r_cpos_3 r_body_3 r_uw_3 r_lw_3 r_volr_3 r_ts_3 r_ret_4 r_cpos_4 r_body_4 r_uw_4 r_lw_4 r_volr_4 r_ts_4 r_ret_5 r_cpos_5 r_body_5 r_uw_5 r_lw_5 r_volr_5 r_ts_5 r_ret_6 r_cpos_6 r_body_6 r_uw_6 r_lw_6 r_volr_6 r_ts_6 r_ret_7 r_cpos_7 r_body_7 r_uw_7 r_lw_7 r_volr_7 r_ts_7 r_ret_8 r_cpos_8 r_body_8 r_uw_8 r_lw_8 r_volr_8 r_ts_8 qv30_rank ret30_rank qv30_rank_pct ret30_rank_pct qv30 qv30_ratio body_break_8
feature_infos=[0.00019905449116697227:0.19389905712701072] [0.045000000000000151:0.16725559481743235] [0.0043562439496611649:0.22961768770152013] [0.0065737051792829071:0.24423592493297575] [-0.0031570639305447123:0.19330924787688275] [-0.03487072498323518:0.2720946416144745] [-0.23916312520431515:0.27824063299976709] [-0.54027977790741777:0.24993682082385638] [-0.097833333333333217:0] [-0.097833333333333217:0] [-0.62293762575452716:0] [0.048581904453790514:0.32134002191085731] [0.049961568024596614:4.864714086471408] [0.52951823561975786:56.511520084110195] [0.17296271036211391:112.73406551074264] [0.1036576615327609:0.7716224908994429] [0.33321112291744442:0.64642914693295728] [0.59999999999999998:1] [0:0.12860499893185226] [0:0.058760683760683663] [0:0.069084628670120968] [0.0028809085676095793:0.025046942938766623] [0.0024617270443097546:0.030015519279311311] [0.021011469671534666:0.1152731080489906] [0.021089725006046667:0.1193930608149838] [3.2517493344652593e-06:0.047524927034531483] [-0.060150511497820691:0.36070080334209953] [0:1] [-5:9] [-0.027514521553041904:0.10479611240228204] [0:1] [-0.027663151459575212:0.10456273764258561] [0:0.16024236173778519] [0:0.059137911002672308] [0.031958293048912595:55.883439190787122] [0.029523038021051717:0.96926334681204551] [-0.041353570539935269:0.11653645833333348] [0:1] [-0.041353570539935235:0.11581001951854268] [0:0.091663285089499141] [0:0.053924505692031117] [0.039726839045689986:52.33342029908497] [0.04924247490246636:0.94376021857047399] [-0.051015588096362863:0.072236727589207961] [0:1] [-0.052358490566037835:0.072236727589207961] [0:0.086547851562499986] [0:0.036665513663092314] [0.036021604360717926:45.868688536065299] [0.012339801905944525:0.92498230257283087] [-0.054265734265734222:0.099740259740259685] [0:1] [-0.054133445237096074:0.099740259740259712] [0:0.093814626809550689] [0:0.072786037491919753] [0.023959460941982907:51.582997525825625] [0.0075347336869638903:0.96224550035780476] [-0.053201850499147829:0.15397030342156226] [0:1] [-0.052625167499086259:0.15397030342156218] [0:0.09350910512791856] [0:0.06800408024481476] [0.030654534861748389:50.343056831943166] [0.015895844103014256:0.95109852333554379] [-0.05919513336452964:0.10513296227581947] [0:1] [-0.063031574041710281:0.10513296227581943] [0:0.094285714285714223] [0:0.070265611033073772] [0.026065015553001867:36.105270268976177] [0.025177394618469684:1] [-0.062578222778473136:0.11125126135216967] [0:1] [-0.06257822277847315:0.11153166792833717] [0:0.093823116518483907] [0:0.041998128217126736] [0.0095109055933790022:36.909491065382298] [0.016280810745304741:0.97714902565542305] [-0.033200069528941389:0.099152406844714491] [0:1] [-0.033200069528941334:0.098800959232613908] [0:0.087026222374899889] [0:0.07907797507444575] [0.016935939983050031:28.377418853825972] [0.041464188197591012:0.9822764078846381] [1:145] [1:127] [0.0058479532163742687:0.98639455782312924] [0.0058479532163742687:0.86394557823129248] [56120.337490005288:325370382.38629001] [1.9876162780462341:159.99766682034038] none
tree_sizes=3411 3443 3437 3424 3429 3450 3451 3451 3470 3450 3451 3466 3457 3449 3460 3452 3461 3449 3448 3455 3454 3451 3462 3452 3446 3469 3450 3460 3446 3470 3476 3454 3474 3462 3485 3474 3475 3478 3475 3471 3481 3457 3472 3476 3475 3460 3465 3463 3471 3453 3476 3473 3473 3477 3476 3481 3472 3476 3466 3481 3468 3477 3489 3475 3471 3478 3469 3447 3471 3475 3475 3500 3465 3473 3481 3474 3473 3470 3484 3471 3466 3498 3487 3500 3482 3490 3466 3470 3481 3472 3476 3491 3478 3480 3491 3480 3457 3483 3479 3467 3464 3487 3502 3485 3487 3478 3487 3475 3478 3501 3471 3482 3500 3494 3473 3483 3509 3478 3472 3493 3511 3489 3497 3497 3490 3492 3490 3486 3489 3495 3496 3483 3486 3487 3490 3481 3486 3496 3500 3478 3495 3497 3488 3494 3494 3478 3486 3504 3483 3484 3484 3503 3495 3507 3474 3511 3467 3490 3489 3498 3489 3490 3487 3502 3498 3492 3491 3488 3489 3510 3489 3486 3486 3483 3467 3486 3495 3491 3494 3496 3527 3492 3502 3497 3494 3505 3491 3492 3509 3490 3492 3486 3514 3493 3485 3489 3512 3499 3508 3504 3483 3503 3494 3504 3506 3481 3486 3492 3502 3490 3502 3503 3520 3499 3492 3490 3496 3494 3486 3505 3510 3492 3497 3496 3498 3483 3508 3514 3503 3485 3499 3519 3503 3498 3491 3488 3506 3506 3526 3527 3512 3487 3485 3516 3504 3485 3492 3498 3498 3489 3496 3485 3480 3509 3496 3491 3497 3516 3505 3484 3493 3492 3502 3500 3493 3502 3497 3487 3491 3475 3509 3489 3486 3488 3506 3500 3496 3485 3504 3504 3514 3477 3521 3487 3489 3510 3502 3485 3500 3494 3495 3503 3498 3500 3503 3510 3494 3513 3499 3491 3487 3504 3501 3505 3512 3512 3509 3507 3498 3499 3493 3495 3476 3515 3517 3486 3499 3500 3516 3501 3505 3493 3498 3495 3507 3519 3505 3506 3489 3521 3489 3502 3494 3493 3498 3493 3511 3502 3502 3507 3510 3478 3481 3491 3461 3484 3487 3482 3494 3501 3499 3510 3491 3500 3499 3504 3493 3511 3504 3496 3492 3512 3509 3502 3511 3500 3485 3510 3511 3471 3497 3500 3487 3500 3507 3512 3494 3487 3508 3508 3504 3498 3501 3507 3494 3526 3506 3507 3483 3495 3501 3518 3485 3501 3491 3518 3504 3492 3489 3510 3479 3494 3497 3490 3507 3492 3522 3501 3518 3512 3510 3506 3501 3498 3513 3508 3497 3494 3510 3490 3502 3506 3493 3509 3510 3500 3509 3505 3506 3496 3521 3520 3482 3503 3501 3495 3493 3488 3504 3504 3515 3497 3499 3505 3499 3534 3507 3509 3516 3504

Tree=0
num_leaves=31
num_cat=0
split_feature=21 22 49 83 4 81 12 12 90 20 63 9 21 89 71 69 10 84 82 75 29 49 61 39 69 63 75 52 60 12
split_gain=99.4768 36.7677 25.4895 23.6522 22.1148 24.7412 21.9025 21.3554 20.8279 18.4018 17.5727 15.9989 15.1414 13.976 13.8449 13.5332 13.2587 12.0741 12.0315 11.7312 15.6365 12.6671 11.1434 11.848 10.6663 9.99244 9.95059 9.83747 9.77601 9.20171
threshold=0.0061899751397239558 0.0059376312406962421 0.33861447580172688 2.1879800728873229 0.05120493075635358 0.00026979642653115961 0.10887621222473955 0.114648041491217 11.603288922006479 0.0048250198788135712 0.39841573220967913 -0.0016534632622449694 0.0045940647406752097 4866491.2091100002 0.0019053412119105497 0.57284570434403193 -0.0097038539430525077 0.578133133085171 0.0022106427205222843 0.0026677787044760174 0.0052821991384303111 0.55014784498691982 8.5742159602440984e-05 0.008620689655172379 0.53575321168657919 0.39748564923664831 0.0011099601386818367 -0.0014664136047056653 0.00073459307979098466 0.20299782468731256
decision_type=2 2 2 2 2 2 2 2 2 2 2 2 2 2 2 2 2 2 2 2 2 2 2 2 2 2 2 2 2 2
left_child=1 4 16 8 13 -6 17 10 9 11 26 22 -9 -1 18 -14 -2 -7 -5 20 -12 28 -4 25 -11 -24 -3 -17 -22 -29
right_child=2 7 3 14 5 6 -8 12 -10 24 19 -13 15 -15 -16 27 -18 -19 -20 -21 21 -23 23 -25 -26 -27 -28 29 -30 -31
leaf_value=-0.66663154319234919 -0.61509691915052667 -0.60391202365512531 -0.62339211641863645 -0.65084845832557037 -0.60813614989058862 -0.61854175501221065 -0.6627351143092004 -0.63850763309140357 -0.62819723152306972 -0.61442565946631456 -0.6240161978744404 -0.6252109256801387 -0.63101661469902071 -0.63054993832565842 -0.60552461690690229 -0.63420665147582755 -0.64648910169226492 -0.65162422232653239 -0.61988421011461581 -0.61776489696012638 -0.64003907569671581 -0.62669314232767959 -0.6134094486584083 -0.61851379411421847 -0.58695965364605385 -0.59337597851337198 -0.62937047409799984 -0.60841023590846433 -0.67126054439114791 -0.5838873816911555
leaf_weight=30.15268087387085 25.70091649889946 29.724412083625793 23.814920961856842 17.427590489387512 28.467081725597382 31.686108827590942 23.588970512151718 18.433416336774826 27.18477389216423 19.539728671312332 28.014604240655899 34.653631418943405 24.343099653720856 13.05171951651573 26.681572675704956 10.637545287609099 19.841764718294144 12.297398179769514 25.097420990467072 22.431742250919342 15.113902747631071 13.026549845933912 35.785113424062729 32.566278517246246 110.07020518183708 139.34213978052139 26.757273882627487 100.36412990093231 22.784309834241867 18.609027445316315
leaf_count=127 86 94 83 69 92 108 98 69 97 65 98 122 88 47 85 39 77 49 86 76 57 46 119 111 321 421 96 327 98 52
internal_value=-0.615589 -0.625743 -0.606794 -0.60481 -0.638648 -0.630603 -0.640595 -0.620318 -0.602135 -0.600393 -0.628431 -0.60541 -0.61306 -0.655975 -0.621646 -0.610019 -0.628642 -0.628071 -0.632674 -0.635985 -0.641484 -0.651181 -0.602564 -0.600318 -0.590711 -0.597169 -0.615335 -0.606211 -0.659639 -0.603777
internal_weight=1007.19 469.484 537.706 492.163 139.244 96.0396 67.5725 330.24 422.957 395.772 157.853 266.162 172.387 43.2044 69.2066 153.954 45.5427 43.9835 42.525 101.371 78.9394 50.9248 231.508 207.694 129.61 175.127 56.4817 129.611 37.8982 118.973
internal_count=3403 1661 1742 1579 521 347 255 1140 1339 1242 565 856 575 174 240 506 163 157 155 375 299 201 734 651 386 540 190 418 155 379
is_linear=0
shrinkage=1


Tree=1
num_leaves=31
num_cat=0
split_feature=21 22 49 83 4 73 12 90 31 82 62 20 22 9 21 89 6 69 10 72 6 21 49 65 26 63 88 69 88 49
split_gain=92.072 34.4891 23.5269 21.7153 20.9766 21.5057 19.8586 19.1584 17.4823 18.6379 18.4123 16.7459 14.9479 14.7207 14.0976 13.3879 13.0893 12.5322 12.4742 12.2985 18.1895 11.5645 11.1465 10.934 10.8374 10.066 9.62263 9.61255 9.60515 15.2294
threshold=0.0061899751397239558 0.0059376312406962421 0.33861447580172688 2.1879800728873229 0.05120493075635358 0.0032870408636795031 0.114648041491217 11.603288922006479 0.0053262088746160851 0.00066130277448319156 1.106236482454628 0.0048250198788135712 0.00755789414404182 -0.0016534632622449694 0.0045940647406752097 4866491.2091100002 0.066159683877961575 0.57284570434403193 -0.0097038539430525077 0.76564150357253336 0.12056141532346844 0.0044779804868337941 0.42108105217613495 0.91627725856697051 0.046250247900881176 0.44247161148728187 0.012384019630396443 0.53575321168657919 0.012384019630396443 0.42956278352423982
decision_type=2 2 2 2 2 2 2 2 2 2 2 2 2 2 2 2 2 2 2 2 2 2 2 2 2 2 2 2 2 2
left_child=1 4 18 7 15 16 8 11 10 -10 -3 13 -12 23 -8 -1 21 -16 -2 20 24 -6 -18 -4 -5 26 -11 -13 29 -19
right_child=2 6 3 19 5 -7 14 -9 9 25 12 27 -14 -15 17 -17 22 28 -20 -21 -22 -23 -24 -25 -26 -27 -28 -29 -30 -31
leaf_value=-0.030104622975318327 0.020141586484484251 0.042829014996982676 0.034106210276091405 -0.023336830481698281 0.0019409655485610798 -0.023459224187669468 -0.0025010964057827064 0.0075084271874756607 0.015569339587304004 0.016908948537299226 -0.0063293495872080441 0.020802454998534305 0.028985961636468154 0.010390907138155792 0.0047789891092105468 0.0052410801635800917 0.015396984394768838 0.0026203843553380766 -0.010293752486939327 0.032531500024091851 0.028173711004053973 0.033562411415980938 -0.01682291535420774 0.010059949211919789 0.0099026504559918804 -0.022250537325878245 -0.015277139609444188 0.046852153979397002 0.038227752706666999 0.030659828729906979
leaf_weight=29.862935334444046 25.863703697919846 18.778740912675858 213.07736471295357 17.078756093978885 16.447770610451698 17.266869843006134 18.418825462460518 27.249230623245239 37.258518755435944 15.663772344589235 25.931493103504181 19.66742542386055 15.820568338036535 34.767292752861977 24.379858732223511 13.073291271924971 16.10677395761013 27.683024182915688 19.776965096592903 20.020356237888336 17.560297340154648 27.614114925265312 18.754064366221428 20.718519523739815 14.834533691406248 30.840142160654068 13.892052739858626 111.68050548434258 56.049642279744148 47.008720606565475
leaf_count=127 86 55 662 70 60 71 69 97 128 53 98 65 50 122 88 47 55 100 77 62 56 86 75 72 52 126 55 321 170 148
internal_value=0.0196389 0.00987151 0.028052 0.0299436 -0.00264185 0.00516743 0.015104 0.0324881 0.0072797 -0.000638114 0.0196654 0.0341443 0.00776553 0.0293686 0.0220718 -0.0195882 0.0118554 0.0249842 0.00707489 0.0138321 0.00529505 0.0223553 -0.00190864 0.0320787 -0.00821304 -0.0108151 0.00177117 0.0433221 0.0286232 0.0206069
internal_weight=1013.15 470.851 542.295 496.654 139.126 96.1896 331.725 427.16 158.185 97.6545 60.5308 399.911 41.7521 268.563 173.54 42.9362 78.9227 155.121 45.6407 69.4939 49.4736 44.0619 34.8608 233.796 31.9133 60.396 29.5558 131.348 130.741 74.6917
internal_count=3403 1661 1742 1579 521 347 1140 1339 565 362 203 1242 148 856 575 174 276 506 163 240 178 146 130 734 122 234 108 386 418 248
is_linear=0
shrinkage=0.03


Tree=2
num_leaves=31
num_cat=0
split_feature=22 22 12 74 25 11 84 54 69 63 34 13 72 76 89 88 60 5 19 24 71 55 55 33 15 53 85 48 26 55
split_gain=84.3457 47.1595 22.2952 23.8981 22.322 16.8365 16.5438 16.3231 22.8457 15.3418 15.2842 14.7148 19.0428 14.6863 18.7651 21.2488 13.7836 23.3749 16.4583 13.0173 12.6622 15.0784 15.6592 12.559 12.5033 12.4127 11.7313 10.8492 11.0754 10.6339
threshold=0.010620783436287697 0.0059376312406962421 0.11066571985989961 0.0043319878336617402 0.0096703206561619143 0.062143188605755746 0.3739623449692886 0.00017029682841964477 0.43937686582628599 0.58586646590762836 3.1597677129443951 3.5281544082203649 0.85714285714286975 1.4207274862274761 1514832.954137001 0.0063898415809243844 0.0028419930920702925 0.1232336521460692 0.0054788747842451904 0.066494850443013079 0.0038176653994902447 1.4984672100265264 0.60428854743491323 0.0023842169019192565 0.44671447099271883 0.0055005077860528096 20.500000000000004 2.9042121944033394 0.053505126265915089 3.2042477838994494
decision_type=2 2 2 2 2 2 2 2 2 2 2 2 2 2 2 2 2 2 2 2 2 2 2 2 2 2 2 2 2 2
left_child=1 5 3 6 -4 29 -3 -8 -9 20 23 12 -2 14 -13 -16 17 18 -6 -18 21 22 -7 -10 -12 26 -15 -23 -29 -1
right_child=11 2 4 -5 16 9 7 8 10 -11 24 13 -14 25 15 -17 19 -19 -20 -21 -22 27 -24 -25 -26 -27 -28 28 -30 -31
leaf_value=-0.032845442014891438 0.045468051953956881 0.029227668818870942 0.032291995098778566 -0.025991389095362954 0.0075371727229169867 0.011754287951856592 0.027805813626784099 -0.025556629153768162 0.033101288889547387 0.023964838568045273 -0.018393141651469162 0.0097610647862904007 0.012970903980875279 0.016301732932188357 0.012225423234417009 0.049135869570628411 0.0076201259222553963 -0.016704581450238232 0.03043482270578704 0.034505716262401884 -0.024283811495895841 0.032506533228291938 -0.024836731135906089 0.00069239170186706565 0.0083625613237487822 0.029639309983318613 -0.017833504487123921 -0.0084173101817410344 0.02420729162521568 0.0013865562266889338
leaf_weight=18.747239917516712 109.34632880985737 40.422916501760483 127.53519240021706 13.782420128583906 82.492901533842087 16.199266508221626 28.269387751817703 18.958000555634499 28.402339234948158 25.987604424357414 21.780596241354942 26.693149790167809 21.317551761865616 17.436364859342575 20.652839049696922 56.145230337977409 24.816653817892075 22.109746128320694 42.564215466380119 53.578667730093002 15.606233000755308 16.455953165888786 23.810783699154854 16.792278453707695 44.384664982557297 19.983496308326721 14.975716412067412 23.144284933805466 12.994797661900519 13.211629405617712
leaf_count=81 314 128 396 57 290 56 90 78 88 85 87 92 72 58 70 157 87 87 133 164 65 51 98 61 157 62 59 89 42 49
internal_value=0.0189623 0.0134978 0.017611 0.00980307 0.0222347 -0.000553345 0.012516 0.00794529 0.00328185 0.00416531 0.00855561 0.0327321 0.0404417 0.0258395 0.0323632 0.039772 0.0163143 0.0106619 0.015687 0.0263962 -0.000938264 0.00342623 -0.0101675 0.0215992 -0.000726254 0.0122379 0.000410028 0.0137609 0.00396801 -0.0194459
internal_weight=1018.6 732.048 565.89 212.793 353.097 166.158 199.01 158.587 130.318 134.199 111.36 286.551 130.664 155.887 103.491 76.7981 225.562 147.167 125.057 78.3953 108.211 92.6051 40.0101 45.1946 66.1653 52.3956 32.4121 52.595 36.1391 31.9589
internal_count=3403 2519 1903 746 1157 616 689 561 471 486 393 884 386 498 319 227 761 510 423 251 401 336 154 149 244 179 117 182 131 130
is_linear=0
shrinkage=0.03


Tree=3
num_leaves=31
num_cat=0
split_feature=22 22 44 30 50 4 77 71 30 63 29 15 48 43 89 2 36 18 82 13 72 76 67 89 13 6 19 73 85 29
split_gain=78.3216 43.937 26.5855 34.8091 25.4959 20.5944 19.9359 18.2033 18.0965 18.8107 17.263 19.1547 15.4482 23.6866 14.9429 23.5742 14.5808 14.4307 15.5964 13.4256 17.4151 13.5682 17.458 17.3053 12.9118 12.701 12.1215 11.5565 11.5209 11.2404
threshold=0.0059376312406962421 0.010620783436287697 0.59999999999999909 0.29587542087542035 0.012942672439504201 0.05120493075635358 0.56031090838342346 0.0038670738329164016 0.83253588516746835 0.52303279882928533 0.0053772571879384676 0.53093764898293538 2.2451810009858213 0.01069702795639982 7010554.1770415017 0.062220156784023824 0.011536303927841553 0.019200537320233333 0.0012886597938144403 3.5281544082203649 0.85714285714286975 1.4207274862274761 0.0056355421547006901 1514832.954137001 5.5465718557538111 0.066159683877961575 0.0016374516193137264 0.00119399510383955 60.500000000000007 0.010684234984629783
decision_type=2 2 2 2 2 2 2 2 2 2 2 2 2 2 2 2 2 2 2 2 2 2 2 2 2 2 2 2 2 2
left_child=5 2 8 16 10 -1 -6 25 9 26 12 14 -5 -14 15 -12 -4 -17 -19 20 -3 23 -23 -21 -10 -7 -2 29 -26 -27
right_child=1 19 3 4 6 7 -8 -9 24 -11 11 -13 13 -15 -16 17 -18 18 -20 21 -22 22 -24 -25 28 27 -28 -29 -30 -31
leaf_value=-0.016898728257231696 0.0035342318634511965 0.043597617550643938 0.0475594643020626 0.035158890819137568 -0.029887758534251213 0.020548140787005852 0.010620568846985229 -0.021728758419014164 0.015341424417750542 -0.00037911382511756177 -0.0024725505299291279 0.033735085435083703 -0.016319177794503682 0.025179039550801065 -0.014780845195965278 0.0465128896052108 0.01042661915695234 -0.0086588721321286637 0.030769161418209765 0.0094642339090588914 0.012573418826170172 -0.0027870254628138288 0.031301262702945816 0.038227613430862915 0.031665527680752086 -0.027956507103479192 0.03091492311244572 0.015849456958282063 0.062610123613900892 0.0083976030405208575
leaf_weight=47.185152605175972 19.059546619653702 110.6810921728611 30.111598059535027 41.952762335538864 24.084249570965767 54.253470808267593 17.433298662304878 16.198895245790482 23.234006330370903 36.547590866684914 82.639413937926292 18.161327213048935 17.891884177923203 31.591707706451416 32.990300834178925 14.772905275225638 15.468242943286894 16.759653896093369 15.990215882658957 26.766026720404625 21.39376674592495 30.948653534054756 21.613005623221397 77.603663623332977 41.66273021697998 15.739740133285524 68.242630824446678 20.532979309558868 20.014047682285309 12.176633730530737
leaf_count=191 68 314 84 127 100 179 60 67 78 132 305 55 70 101 128 41 53 63 49 92 72 113 66 227 128 66 211 70 50 43
internal_value=0.0183152 0.0219591 0.0170117 0.0119597 0.00827861 -0.00053816 -0.0131719 0.00612654 0.0255237 0.0177304 0.0116159 0.00613672 0.0221169 0.0101234 0.00269328 0.00727884 0.0359258 0.023651 0.0112549 0.0315092 0.0388348 0.0249327 0.0118634 0.0311678 0.0362214 0.0108512 0.0251503 -0.0003916 0.0433581 -0.0125982
internal_weight=1023.7 857.614 568.608 359.848 314.268 166.087 41.5175 118.902 208.761 123.85 272.75 181.314 91.4364 49.4836 163.152 130.162 45.5798 47.5228 32.7499 289.006 132.075 156.931 52.5617 104.37 84.9108 102.703 87.3022 48.4494 61.6768 27.9164
internal_count=3403 2787 1903 1236 1099 616 160 425 667 411 939 641 298 171 586 458 137 153 112 884 386 498 179 319 256 358 279 179 178 109
is_linear=0
shrinkage=0.03


Tree=4
num_leaves=31
num_cat=0
split_feature=22 22 44 30 52 4 71 30 63 72 15 84 31 36 4 1 53 5 68 80 89 87 13 38 48 67 55 8 5 54
split_gain=73.2083 40.5954 24.707 32.4152 26.8163 19.4795 17.2436 16.8075 17.5335 15.8672 15.7595 21.1371 21.0992 13.4264 12.6761 13.1005 15.275 13.2041 12.7751 12.7569 12.3802 14.1762 11.9011 11.6355 11.4614 11.2733 16.6188 11.2197 10.7916 12.5806
threshold=0.0059376312406962421 0.010620783436287697 0.59999999999999909 0.29587542087542035 0.012409911797481138 0.05120493075635358 0.0038670738329164016 0.83253588516746835 0.52303279882928533 0.2857142857142807 0.53093764898293538 0.37242968274810467 0.0046031477460078017 0.011536303927841553 0.047366768205213468 0.076372387295131974 0.0045386225327304934 0.11100536425747555 0.0025287430794953981 0.0029942374545282795 7010554.1770415017 0.23194202898550728 5.5465718557538111 0.0055052346227182488 1.8018840326857066 0.0010321693063068619 1.5195553009333878 -0.0050119587431279857 0.060073798478097802 0.0010358223768033089
decision_type=2 2 2 2 2 2 2 2 2 2 2 2 2 2 2 2 2 2 2 2 2 2 2 2 2 2 2 2 2 2
left_child=5 2 7 13 10 25 28 8 -2 -6 11 24 -13 -4 -3 16 17 18 -16 -20 21 23 -9 -14 -5 26 -1 -10 29 -7
right_child=1 14 3 4 9 6 -8 22 27 -11 -12 12 20 -15 15 -17 -18 -19 19 -21 -22 -23 -24 -25 -26 -27 -28 -29 -30 -31
leaf_value=-0.024899822261164561 0.024256489966580391 0.050909543390319716 0.045675726290895086 0.04453101862486411 0.0098953961442178259 0.035765575039301209 -0.021284616838414362 0.014857819756103849 0.013346960159689111 -0.025373636893945804 0.032122392975412084 0.019479812987887354 0.029558242258338783 0.010123125533853966 0.019545382508601678 0.039725528621029391 0.033921891020415387 0.028047397299460541 0.0080663418576270678 -0.02826175853975289 -0.017844094611426064 -0.0063189432473593583 0.041694008985825759 3.4238850878160664e-06 0.012901159166817236 -0.036271763081715792 0.016044757575478776 -0.018533755866109662 0.0026464954626101364 0.001730766656067763
leaf_weight=16.692888915538791 87.889191582798958 25.818171694874763 30.48935641348362 18.177627578377724 16.72285108268261 23.097487449645996 16.084289163351059 23.334082216024399 21.12461069226265 29.40358766913414 28.414985820651054 58.107030734419823 22.923790872097015 15.513287559151648 36.443004727363586 67.425710111856461 78.614953249692917 49.239201441407204 21.924744993448257 11.77828800678253 31.088514223694801 60.90546190738678 62.355907216668129 23.101117312908173 26.04767669737339 15.032210469245909 15.197269707918165 15.419108927249907 63.555677697062492 16.35759899020195
leaf_count=71 279 68 84 51 58 69 67 78 71 120 86 190 71 53 117 193 233 151 74 48 123 228 178 84 88 67 53 61 230 59
internal_value=0.017708 0.021213 0.0164614 0.0115924 0.00803288 -0.000531715 0.00592902 0.024636 0.0171332 -0.0127072 0.0116599 0.00899566 0.00464216 0.0346078 0.0303532 0.0279879 0.0236335 0.0164114 0.00769231 -0.00550131 -0.00179362 0.00311477 0.0348918 0.0153418 0.027266 -0.0165019 -0.00559229 -0.000368368 0.0105027 0.0224194
internal_weight=1028.28 862.262 571.018 360.895 314.893 166.017 119.095 210.123 124.433 46.1264 268.766 240.351 196.126 46.0026 291.244 265.426 198 119.385 70.146 33.703 138.019 106.93 85.69 46.0249 44.2253 46.9224 31.8902 36.5437 103.011 39.4551
internal_count=3403 2787 1903 1236 1099 616 425 667 411 178 921 835 696 137 884 816 623 390 239 122 506 383 256 155 139 191 124 132 358 128
is_linear=0
shrinkage=0.03


Tree=5
num_leaves=31
num_cat=0
split_feature=10 6 49 49 88 55 55 44 45 88 51 26 67 23 84 56 73 61 6 79 81 23 68 68 74 19 59 7 61 60
split_gain=36.1124 34.3816 21.1048 19.9782 20.0346 20.6119 21.3147 19.8631 29.3834 20.5824 19.5506 21.4109 19.2852 20.6389 15.9426 15.7989 14.0346 13.535 15.5326 15.3335 13.1012 12.978 18.1917 12.3279 12.2122 11.6569 10.9472 10.6487 10.0889 10.0089
threshold=-0.0053017019589366434 0.10438230999671273 0.34958439222102194 0.56434988774733919 0.019802195887068667 1.3468360536779722 0.50077455340381805 0.62466931216929977 0.0085163715181332447 0.0064309346567411095 0.48351449275362074 0.064826585631660452 0.00039076675965193903 0.054227281999780115 0.46337150963157969 0.44902169530838659 -1.0000000180025095e-35 0.0028415396715138438 0.056323192015177222 0.58823529411763542 0.0023598008385744 0.041916610154019936 0.00082301305695132597 0.0018475446652250745 0.00163465495219616 0.013649679935870811 0.0027528306480108003 0.052090816806855685 0.0011641009298234719 0.0018923962480548011
decision_type=2 2 2 2 2 2 2 2 2 2 2 2 2 2 2 2 2 2 2 2 2 2 2 2 2 2 2 2 2 2
left_child=7 3 -3 4 5 6 -2 17 12 10 -10 -12 14 16 -9 -6 26 18 19 28 -19 22 -11 -5 -17 -20 -14 -23 -1 -4
right_child=1 2 29 23 15 -7 -8 8 9 21 11 -13 13 -15 -16 24 -18 20 25 -21 -22 27 -24 -25 -26 -27 -28 -29 -30 -31
leaf_value=-0.0064082716301336815 0.018445102821259649 -0.012961807174205097 0.015450714037045371 0.0075481853501784997 -0.034469906524991566 0.013266307027104286 -0.017927928671129186 0.043002936015068334 0.031417361474791933 -0.010270245203024057 -0.023441514145078633 0.021084192716704652 -0.0096974723984248733 0.017050053615143758 0.0035428068563620207 -0.018526401540234473 -0.020311602045873369 0.00040991356015631709 0.043143107940216897 0.033690707377510752 0.02781461791826836 0.047398513910965653 0.02786986993961043 0.040057823072668704 0.01541091818930912 0.015830286621421705 0.019702337907916315 0.025286131670601696 0.023763827198050237 0.033617247585794693
leaf_weight=22.350517138838768 18.519014969468117 12.613122344017027 53.59904833137989 24.798240169882774 20.737813323736191 109.71004721522331 48.435603260993958 19.746133476495743 19.171327456831932 14.486438378691672 20.885548084974289 14.960207134485243 22.180949196219444 47.432145535945892 16.665886789560318 17.572795391082764 37.730114161968231 29.27960567176342 99.531891018152237 36.782115399837494 32.004015907645226 47.598094388842583 37.736675545573235 17.845343753695488 16.649636417627335 19.964421525597572 19.718097060918808 48.716437458992004 15.13829645514488 69.937036901712418
leaf_count=82 61 49 178 87 89 373 190 56 57 55 83 47 85 154 59 70 149 103 280 110 97 130 118 51 55 65 64 151 47 208
internal_value=0.0171245 0.0101413 0.0223523 0.00396177 0.000416366 0.0053522 -0.0076243 0.0216844 0.01704 0.0246051 0.00852846 -0.00472654 0.00743636 0.00177622 0.0260668 -0.0150803 -0.00751667 0.0281834 0.0321092 0.0204249 0.0151482 0.0303674 0.0173014 0.0223378 -0.00207621 0.0389156 0.00440564 0.0369559 0.00636197 0.026107
internal_weight=1032.5 410.418 136.149 274.268 231.625 176.665 66.9546 622.079 367.028 203.555 55.0171 35.8458 163.473 127.061 36.412 54.9602 79.6292 255.051 193.767 74.2709 61.2836 148.538 52.2231 42.6436 34.2224 119.496 41.899 96.3145 37.4888 123.536
internal_count=3403 1411 435 976 838 624 251 1992 1208 641 187 130 567 452 115 214 298 784 584 239 200 454 173 138 125 345 149 281 129 386
is_linear=0
shrinkage=0.03


Tree=6
num_leaves=31
num_cat=0
split_feature=21 22 4 81 12 12 83 13 50 52 89 21 22 84 8 1 21 11 82 84 47 12 10 36 15 53 44 57 10 19
split_gain=67.173 25.9184 17.297 20.0713 18.0247 16.8845 16.8474 15.9901 14.8811 15.7524 14.693 13.9639 13.4544 13.0497 12.4281 14.8537 12.2064 11.9808 24.4017 12.6651 11.683 11.4917 12.9672 11.3616 13.7215 10.4648 14.1967 11.8808 12.1116 11.7352
threshold=0.0061899751397239558 0.0059376312406962421 0.048830785858580923 0.00026979642653115961 0.10887621222473955 0.114648041491217 2.1879800728873229 31.840847471097572 0.00094925497582631923 0.01473942825011814 2215210.2685350017 0.0057045419117221973 0.0083686282467892639 0.58221479382616581 -0.0047429755199342441 0.062677102771222307 0.0045940647406752097 0.099908306117744386 0.00088057246806086658 0.53251427394709117 0.0019469634127363413 0.14154869584243049 -0.0045318140379492214 0.0089547573347957838 0.44472167131974888 0.0063875589173922982 0.28425023359332385 -0.0026482975118097825 -0.0074170639815956943 0.0076918978888041055
decision_type=2 2 2 2 2 2 2 2 2 2 2 2 2 2 2 2 2 2 2 2 2 2 2 2 2 2 2 2 2 2
left_child=1 2 10 -4 13 8 7 25 11 12 -1 -3 23 -5 20 -16 -7 19 -19 -18 -8 -20 -23 24 -10 26 29 -28 -29 -2
right_child=6 5 3 4 -6 16 14 -9 9 -11 -12 -13 -14 -15 15 -17 17 18 21 -21 -22 22 -24 -25 -26 -27 27 28 -30 -31
leaf_value=-0.037245595750851603 0.044624081353427866 -0.02446179182069114 0.022414120710340983 0.014722296246071567 -0.025042524481118256 -0.0035906535186760774 0.013683462732995283 -0.0013961677406916023 -0.0070952461405590769 -0.012388772772816229 0.0020365554064326989 0.011038129864284261 -0.0076044689449725322 -0.018114123593489236 0.004824356183452885 0.041382235075924513 0.03842226967258229 -0.01577676558780048 0.00056523034979780922 0.012558662000413029 -0.019398426753963274 0.045135366352209869 0.011268379770637663 0.033242689764067225 0.023698303018840322 0.036653885712058576 0.033294965680981892 0.023375197666121682 0.0095598207920989508 0.01397130241983232
leaf_weight=18.550705671310425 48.738162651658058 22.852070078253746 32.066483467817307 35.480506166815758 24.979579731822014 18.64013583958149 17.036450132727623 18.720476150512695 21.698290959000587 20.681521326303482 14.360053062438963 15.123735219240187 17.78441496193409 13.456321716308592 23.611004754900932 16.171970009803772 52.207532167434692 18.810990020632744 16.415482804179192 28.763398423790932 17.470542281866074 22.0564985871315 20.68524581193924 34.360877975821495 28.041100829839706 85.62787538766861 62.077401682734489 156.55619257688522 96.010956808924675 17.520886704325676
leaf_count=84 133 93 104 120 105 69 56 68 81 80 54 51 67 54 82 45 151 72 58 96 68 60 69 104 89 244 182 485 323 56
internal_value=0.0165645 0.00824258 -0.00264278 0.00333159 -0.00531921 0.0127033 0.0236045 0.025647 0.00555028 0.0106053 -0.0209708 -0.0104791 0.0154215 0.00533644 0.00994023 0.0209548 0.0190362 0.0217015 0.0127989 0.0297589 -0.00321071 0.0221042 0.0299815 0.0203543 0.0105099 0.0267335 0.0243236 0.0214016 0.0182398 0.0371654
internal_weight=1036.56 477.015 138.894 105.983 73.9164 338.121 559.542 485.252 160.542 122.566 32.9108 37.9758 101.885 48.9368 74.29 39.783 177.579 158.939 77.9682 80.9709 34.507 59.1572 42.7417 84.1003 49.7394 466.531 380.904 314.645 252.567 66.259
internal_count=3403 1661 521 383 279 1140 1742 1491 565 421 138 144 341 174 251 127 575 506 259 247 124 187 129 274 170 1423 1179 990 808 189
is_linear=0
shrinkage=0.03


Tree=7
num_leaves=31
num_cat=0
split_feature=21 22 49 83 4 81 12 50 68 10 64 23 59 20 59 50 39 90 9 71 6 53 61 72 26 7 40 59 84 20
split_gain=62.6411 24.4 19.4997 17.1642 16.546 20.8586 18.1859 16.1835 19.6597 21.885 16.5216 15.2879 15.9523 15.231 14.8288 13.8847 13.3345 12.8776 13.543 12.098 16.0482 11.923 13.867 11.2973 11.1223 10.676 12.6647 10.617 10.6152 10.6093
threshold=0.0061899751397239558 0.0059376312406962421 0.33861447580172688 2.1879800728873229 0.05120493075635358 0.00026979642653115961 0.10887621222473955 0.014705882352941237 0.00081155134517385129 -0.002241525820254608 -0.00078053446026055118 0.039740375497784537 0.0018757167130877587 0.0048250198788135712 -0.0022926857659887746 -0.0015634343046511121 0.0038080890657023465 8.3364039392296672 -0.0016534632622449694 0.0019053412119105497 0.11980598790500242 0.00098619372017418896 0.0029107416235710616 0.74999999999999301 0.051066059821244132 0.053808057884144896 0.0015531583741494818 0.0019703862863303403 0.578133133085171 0.0035199277389651065
decision_type=2 2 2 2 2 2 2 2 2 2 2 2 2 2 2 2 2 2 2 2 2 2 2 2 2 2 2 2 2 2
left_child=1 4 25 13 16 -6 28 8 11 15 -9 -3 -13 14 -4 -10 -1 18 29 20 24 -15 -23 -14 -5 -2 -27 -19 -7 -16
right_child=2 7 3 19 5 6 -8 10 9 -11 -12 12 23 21 17 -17 -18 27 -20 -21 -22 22 -24 -25 -26 26 -28 -29 -30 -31
leaf_value=-0.029659153865314248 0.020126985611580713 -0.01694476274010084 0.03646349586803041 -0.028614682442954228 0.024574707923593727 0.015094353635550836 -0.025469143827646087 0.014120535133530631 -0.0016370776647410923 0.0011202208092549232 -0.02284896118515431 -0.0099763906427727932 0.0075586549568968341 0.016036685247330387 0.02723052568898502 0.027439955538216911 0.0048258553827276182 -0.01487559598327708 0.00094486314143772351 0.025186144422701149 0.022564161831214926 0.045289274775228837 0.019737415474490646 0.039130530667517621 0.0078221199669717325 0.0099503169814226557 -0.02845341361330915 0.01913300326277895 -0.015787351824259343 0.0064445020792594284
leaf_weight=27.16630907356739 19.311957374215126 23.83987745642662 55.988034084439278 15.543067157268526 29.200725793838501 32.316537573933601 23.060425594449043 18.898647546768188 16.13618940114975 45.546251907944679 20.874243676662445 21.824721068143845 26.484632149338722 29.032267898321152 159.4433975815773 149.51053938269615 14.668754324316977 16.501854628324512 25.554261147975922 27.774449184536934 16.145060524344444 86.976359128952026 30.353187710046768 15.973803102970122 12.007321134209631 15.39382626116276 12.158681258559225 12.927645534276961 12.305748447775839 27.304576367139816
leaf_count=119 61 93 159 64 92 108 98 63 58 162 84 82 91 92 479 462 55 63 90 85 50 231 93 45 41 52 50 41 49 91
internal_value=0.0160239 0.00798772 0.0227986 0.0244782 -0.00258665 0.00425367 -0.00496725 0.0123034 0.0146826 0.0196114 -0.00544738 0.00269736 0.0102733 0.0266808 0.022474 0.0246217 -0.0178991 0.0189613 0.0215167 0.0104384 0.000372154 0.0348196 0.0391206 0.0206627 -0.0132798 0.0040757 -0.00777561 0.000330409 0.00626602 0.0242919
internal_weight=1040.22 477.807 562.416 515.551 138.719 96.8834 67.6827 339.089 299.316 211.193 39.7729 88.123 64.2832 444.082 297.72 165.647 41.8351 241.732 212.302 71.4699 43.6954 146.362 117.33 42.4584 27.5504 46.8645 27.5525 29.4295 44.6223 186.748
internal_count=3403 1661 1742 1579 521 347 255 1140 993 682 147 311 218 1339 923 520 174 764 660 240 155 416 324 136 105 163 102 104 157 570
is_linear=0
shrinkage=0.03


Tree=8
num_leaves=31
num_cat=0
split_feature=21 21 56 49 51 44 10 78 83 12 55 67 67 45 20 10 6 42 8 18 59 74 53 31 8 1 53 46 73 64
split_gain=58.5412 20.8798 18.8452 18.1931 17.3389 16.2413 19.0329 19.6433 15.9424 14.5573 14.3606 14.2909 13.4528 13.3665 13.223 15.7677 16.2471 12.9811 15.5045 12.1946 13.3674 11.8268 12.0538 11.1471 10.8913 12.0794 10.6594 10.4945 10.4542 11.3407
threshold=0.0061899751397239558 0.004647460356162765 0.63265715172773362 0.33861447580172688 0.20000000000000553 0.96000000000000163 -0.0035574461517685614 0.0024328684275634065 2.1879800728873229 0.17505660233728584 1.4984672100265264 0.00060149711785766177 0.00097881575269920446 -1.0000000180025095e-35 0.0048250198788135712 -0.0079808821240298627 0.067228672337605336 0.40328198565366191 -0.011348672157766358 0.013428776662141515 -0.00046073626950737079 0.0011890606420927399 0.0027320754307281233 0.013051332975141633 -0.0047429755199342441 0.062268124168378687 0.0010983059189100099 0.0027134355508043914 0.0059642382849554648 -0.00030314151884075485
decision_type=2 2 2 2 2 2 2 2 2 2 2 2 2 2 2 2 2 2 2 2 2 2 2 2 2 2 2 2 2 2
left_child=1 10 4 -2 -3 6 7 9 11 21 -1 17 -12 -8 15 28 -17 -5 -19 -18 -21 22 27 -14 -10 -26 -16 -6 29 -13
right_child=3 2 -4 8 5 -7 13 -9 24 -11 12 14 23 -15 26 16 19 18 -20 20 -22 -23 -24 -25 25 -27 -28 -29 -30 -31
leaf_value=-0.01731626892505771 0.003950911336756205 -0.014096223091987917 -0.013160366120825847 -0.0068121553816318289 -0.0090683191619390022 0.033170981890948907 0.019215400521821788 0.031704825663482823 -0.0026333096759953876 0.035863888638243122 0.014627775163151634 0.020612877278656398 -0.017869284527482258 -0.0061394579845898724 0.017147573692885252 -0.011138917966775568 0.041505918212275603 -0.005352469240289497 0.027573528665992844 0.031414070026408225 0.0022143918820809391 0.015400228543352228 -0.028076337625558761 0.01495018855273313 0.0050658056387930953 0.038335916489139935 0.04162931079756179 0.021571731560714666 0.011641938621102223 0.041405116481716346
leaf_weight=39.045332983136177 46.901127889752388 17.950548708438873 24.365727588534355 19.074257910251617 21.431736782193184 37.77691613137722 23.937863454222679 59.91223032772541 32.69428126513958 15.753908589482306 47.721428021788597 44.717645391821861 29.297136515378952 65.213049322366714 24.069089591503143 17.484860777854919 16.470195472240448 15.806232884526251 55.862212061882019 20.201097145676613 39.640857324004173 56.838445991277695 12.072091802954672 11.512229263782499 22.308133244514465 16.614175409078598 93.991693288087845 15.748430445790289 25.517135709524155 73.610516503453255
leaf_count=157 163 69 94 68 81 114 77 178 117 44 163 138 117 241 75 65 44 56 166 58 135 187 50 39 77 46 251 50 82 201
internal_value=0.0155028 0.00773518 0.0114958 0.0220322 0.013404 0.0150836 0.0123368 0.0178554 0.0236477 0.0106435 -0.00262923 0.0257621 0.00408775 0.0009408 0.0285049 0.0240075 0.0139797 0.0146275 0.0203636 0.0198725 0.0127686 0.00630406 -0.00438449 -0.00834507 0.010125 0.0204468 0.037007 0.00434858 0.0302649 0.0340207
internal_weight=1043.54 478.577 351.001 564.964 326.635 308.685 270.908 181.757 518.062 121.845 127.576 446.446 88.5308 89.1509 355.703 237.642 93.797 90.7427 71.6684 76.3121 59.842 106.091 49.2523 40.8094 71.6166 38.9223 118.061 37.1802 143.845 118.328
internal_count=3403 1661 1185 1742 1091 1022 908 590 1579 412 476 1339 319 318 1049 723 302 290 222 237 193 368 181 156 240 123 326 131 421 339
is_linear=0
shrinkage=0.03


Tree=9
num_leaves=31
num_cat=0
split_feature=22 22 44 52 29 72 15 4 71 41 89 2 21 80 33 59 64 4 24 34 41 53 52 51 6 60 68 28 54 87
split_gain=55.3702 31.0949 19.6729 27.1148 28.7826 22.4665 17.005 16.4169 15.7467 15.5 13.5605 20.6368 14.167 13.4032 18.7189 14.5603 18.8769 12.0191 11.9733 13.7655 13.3866 12.1138 11.3218 11.2999 10.9358 13.0257 10.7751 10.7647 10.7657 10.667
threshold=0.010620783436287697 0.0059376312406962421 0.59999999999999909 0.012409911797481138 0.0053772571879384676 0.26586345381525722 0.53093764898293538 0.05120493075635358 0.0038670738329164016 8.1971887106300301 7010554.1770415017 0.062220156784023824 0.0068439032994218217 0.00021849189987943114 0.00091294745529590308 0.0059263250319285549 -0.0010351075849377442 0.047366768205213468 0.06779954926212263 2.0390696412946512 1.2887244489201948 0.0035798303635667735 0.0035637111502873917 0.65954545454545177 0.066159683877961575 0.00090334236675693104 0.00051848749645796511 4.5000000000000009 0.0015060083934015339 0.1242033045102099
decision_type=2 2 2 2 2 2 2 2 2 2 2 2 2 2 2 2 2 2 2 2 2 2 2 2 2 2 2 2 2 2
left_child=1 7 13 4 9 -5 10 29 24 -4 11 27 -13 15 -15 16 -3 -2 21 20 -20 -19 -23 -18 -9 -26 -16 28 -6 -1
right_child=17 2 3 5 6 -7 -8 8 -10 -11 -12 12 -14 14 26 -17 23 18 19 -21 -22 22 -24 -25 25 -27 -28 -29 -30 -31
leaf_value=0.0039854794978448852 0.045338539115154099 0.022333158054342935 0.028205763040685793 0.015666490620094693 -0.0079414846363308495 -0.023946529307724774 0.030466731155666713 0.018262282187106103 -0.021049887982532871 0.00057700579248977477 -0.014873630111702696 0.033276090394378573 0.00029309034642137507 0.040944740457620733 -0.0065316970290290261 0.026349603377737507 0.003881522501972694 0.001753498923367764 0.032772001021123244 0.032695411743023435 0.0010028432384346056 0.0033743420905656993 0.035382588905731052 -0.0293961321979219 -0.015516348873560447 0.014327291242662681 0.022326354630599725 -0.013788800730523845 0.020844605840998384 -0.025564608719728731
leaf_weight=15.929930761456488 26.614348247647285 23.163593932986259 107.7296155244112 18.280758202075958 20.7852773219347 34.297732055187225 19.17427222430706 55.200221657752991 15.983455717563627 22.028017565608025 32.671965137124062 30.25131219625473 18.467234462499619 52.71298947930336 13.687074601650236 36.85348542034626 19.156376406550407 40.597353354096413 17.578025177121162 140.07087655365467 30.923568919301033 15.68918454647064 27.518153503537178 14.951318860054014 25.067398473620415 23.631228014826775 54.582831591367722 40.122178077697754 22.543345853686333 30.321769371628761
leaf_count=59 68 71 323 60 78 138 56 179 67 77 126 88 64 144 49 111 65 137 49 398 104 52 76 60 99 80 167 154 72 132
internal_value=0.0150114 0.010599 0.0138595 0.00954478 0.0128805 -0.0101043 0.00515248 -0.000841818 0.00503187 0.0235954 0.00187802 0.00617898 0.0212781 0.0210523 0.0276545 0.0121672 0.00245985 0.0259005 0.0236846 0.0279143 0.0133586 0.0137383 0.0244234 -0.0115262 0.00936597 -0.00104068 0.0165195 -0.00292761 0.00729445 -0.0156437
internal_weight=1046.58 747.593 581.459 366.352 313.773 52.5785 184.016 166.134 119.882 129.758 164.841 132.169 48.7185 215.108 120.983 94.1248 57.2713 298.992 272.377 188.572 48.5016 83.8047 43.2073 34.1077 103.899 48.6986 68.2699 83.4508 43.3286 46.2517
internal_count=3403 2519 1903 1236 1038 198 638 616 425 400 582 456 152 667 360 307 196 884 816 551 153 265 128 125 358 179 216 304 150 191
is_linear=0
shrinkage=0.03


Tree=10
num_leaves=31
num_cat=0
split_feature=21 68 10 12 79 4 49 83 86 14 73 26 90 89 18 65 14 45 71 6 26 6 6 10 26 19 83 16 65 73
split_gain=51.7533 20.0891 32.7298 17.5711 20.2397 19.9009 16.6683 14.8412 13.5087 16.7579 13.579 17.7217 13.2396 11.9916 16.2498 11.9811 12.3334 11.7979 11.1406 14.8912 10.4653 10.3264 12.4919 10.2066 10.1136 9.9602 9.88502 9.7047 9.20666 10.296
threshold=0.0061899751397239558 0.00082301305695132597 -0.0022878953107960394 0.15924575595305915 0.6315789473684229 0.060761189578133264 0.33861447580172688 2.1879800728873229 10.500000000000002 6.5343327620456888 0.00043677677625740145 0.0550913425511056 11.603288922006479 2003715.2015347995 0.0169629537955619 0.91982142857142424 4.8858896384490427 0.0024532408655110077 0.0019053412119105497 0.11980598790500242 0.051066059821244132 0.050261283603802338 0.07572540925081718 -0.015053041467749216 0.044736178022597668 0.0053497839278798453 1.0047031275008897 0.47904822950545306 0.032795698924722901 0.0014718588293962632
decision_type=2 2 2 2 2 2 2 2 2 2 2 2 2 2 2 2 2 2 2 2 2 2 2 2 2 2 2 2 2 2
left_child=1 8 3 4 13 -6 23 12 9 21 26 27 15 14 -3 28 -17 -4 19 20 -9 -1 -23 -2 -19 -15 -11 -12 -8 -30
right_child=6 2 17 -5 5 -7 7 18 -10 10 11 -13 -14 25 -16 16 -18 24 -20 -21 -22 22 -24 -25 -26 -27 -28 -29 29 -31
leaf_value=-0.0019692051567425156 0.019120693359483396 0.024390635541131554 0.012565844556942964 0.033235889923204177 0.035959041418732955 0.0058675858191100938 0.0033828970312755001 -0.028469732260765213 -0.026521254653946887 -0.029992201849216457 0.0049018637137901904 0.022445318350800953 0.0039647794406669143 -0.0173922091991154 -0.0080678974775613144 -0.010352114017524222 0.022453931132881428 0.00034254105399579381 0.023255114371901336 0.02084932056808628 0.0068826220461648069 0.038519783758832818 0.004734892507011452 -0.0081001238296264221 -0.025110487222270671 0.011296222900969138 -0.0012354720194344244 -0.028567985330088023 0.032799799997528696 0.02195505552308688
leaf_weight=23.904709190130234 19.328943490982056 36.075054839253426 22.132955029606819 48.375189885497093 47.598032712936401 34.418182268738747 14.713674455881117 15.504076868295671 14.828170388936995 24.536662548780441 15.046739906072618 23.476164266467094 28.113445118069649 29.598990142345428 20.591194495558739 16.051446914672852 22.871761485934258 27.594922736287117 28.129414483904839 16.341104760766029 12.107079878449438 19.441993683576584 19.401185616850853 27.77492755651474 26.511164858937263 14.944100499153135 18.393544122576714 13.148227408528326 203.04918645322323 165.28283932805061
leaf_count=87 60 113 74 139 140 118 49 64 63 103 53 74 97 115 77 57 69 100 85 50 41 56 68 103 109 50 66 56 571 496
internal_value=0.0145374 0.00723759 0.0118033 0.0173787 0.0128785 0.0237714 0.0206458 0.0221832 -0.000967428 0.00174334 -0.00619517 0.00414799 0.024212 0.00376167 0.012723 0.0255359 0.00908038 -0.00514501 0.00920362 -0.000410058 -0.0135504 0.0135334 0.0227033 0.0033937 -0.0125796 -0.00769549 -0.0182748 -0.0115646 0.0271521 0.0280783
internal_weight=1049.29 480.017 307.84 231.601 183.226 82.0162 569.268 522.164 172.177 157.349 94.6013 51.6711 450.082 101.209 56.6662 421.969 38.9232 76.239 72.0817 43.9523 27.6112 62.7479 38.8432 47.1039 54.1061 44.5431 42.9302 28.195 383.046 368.332
internal_count=3403 1661 1035 752 613 258 1742 1579 626 563 352 183 1339 355 190 1242 126 283 240 155 105 211 124 163 209 165 169 109 1116 1067
is_linear=0
shrinkage=0.03


Tree=11
num_leaves=31
num_cat=0
split_feature=21 68 50 52 20 17 55 59 61 13 54 43 67 53 86 14 61 73 26 26 21 67 41 26 65 9 54 60 79 63
split_gain=48.3857 18.891 19.1248 19.1722 16.6272 16.4303 19.1031 14.4717 14.3004 16.2526 13.708 14.8651 13.5962 13.0949 12.8986 15.8346 19.0606 12.8965 16.7219 11.9024 12.8126 11.1661 10.9765 14.3471 12.8919 12.5689 15.5047 11.4956 10.7724 10.1886
threshold=0.0061899751397239558 0.00082301305695132597 0.014705882352941237 -0.00019819444010730949 0.0048250198788135712 0.88059701492537767 1.369402147145252 -0.0022926857659887746 0.0028415396715138438 4.3727379663706616 0.0021905411297579746 -0.0026307138655317082 0.002264453595855954 0.0008068493331024703 10.500000000000002 6.5343327620456888 0.0021689817748762694 0.00043677677625740145 0.0550913425511056 0.070280343543631621 0.0077527858520816282 0.0011558021884362805 3.4392212460350775 0.067314621804218003 0.46514917695473285 -0.0089753498529137037 0.00054875708011963671 0.0012533946650998332 0.66666666666667995 0.45227354265059455
decision_type=2 2 2 2 2 2 2 2 2 2 2 2 2 2 2 2 2 2 2 2 2 2 2 2 2 2 2 2 2 2
left_child=1 14 3 28 7 -5 29 -2 13 -10 11 -9 19 -6 15 16 -1 -17 -19 20 -12 -8 23 25 -24 -13 -27 -25 -3 -7
right_child=4 2 -4 5 8 6 21 10 9 -11 12 22 -14 -15 -16 17 -18 18 -20 -21 -22 -23 24 27 -26 26 -28 -29 -30 -31
leaf_value=0.022628976389556309 0.028124484127968061 -0.016306232531008436 -0.010687928896195457 0.023597223565530203 0.010124141230619142 -0.027978061299880955 0.02751757690702698 0.025576423375585928 0.024656012431566281 -0.0096593126652905585 0.013563313344952159 0.034087381499783312 0.029436948537930094 0.036944373685508528 -0.02602293905932922 -0.017861774415575161 -0.013663672620465302 -0.011303470752525354 0.021712359123764475 0.02794397606090724 -0.019419355499672851 0.0018054055178909915 -0.028260394019098307 -0.023114025958082325 0.0063354033099314771 0.024797942151997945 -0.007197603921011095 0.0075323673784586835 0.011520238590322859 0.0067984429538884752
leaf_weight=46.689183980226517 74.581829935312271 25.104581490159035 30.232185482978821 143.80442048609257 21.37219762802124 15.325143635272982 32.954331338405609 32.761979058384895 35.778580754995346 17.185766249895096 23.63169527053833 21.938138827681541 70.876594424247742 109.73921355605125 14.699016928672789 42.700474441051483 16.256154134869576 28.096062988042831 23.60609345138073 18.767607942223549 16.074964329600334 27.42734369635582 16.590742141008377 17.256939500570297 19.025636970996857 22.828923463821411 28.730489984154701 24.107923403382301 21.380068272352219 12.340184867382048
leaf_count=148 216 98 115 446 69 64 101 96 104 61 75 61 205 296 63 169 63 109 74 54 60 97 66 67 63 68 103 78 71 43
internal_value=0.0140742 0.00701665 0.0114346 0.0138965 0.0199668 0.0173971 0.0069714 0.0162782 0.0274668 0.0135751 0.0132909 0.00787607 0.020725 0.0327903 -0.000947263 0.00169245 0.013124 -0.00604393 0.00401806 0.00954085 -8.04055e-05 0.0162706 0.00373745 0.0082324 -0.0104257 0.0160337 0.00736603 -0.00572931 -0.0035605 -0.0130534
internal_weight=1051.86 480.615 308.568 278.336 571.249 231.851 88.047 387.173 184.076 52.9643 312.592 183.241 129.351 131.111 172.047 157.348 62.9453 94.4026 51.7022 58.4743 39.7067 60.3817 150.479 114.862 35.6164 73.4976 51.5594 41.3649 46.4846 27.6653
internal_count=3403 1661 1035 920 1742 751 305 1212 530 165 996 602 394 365 626 563 211 352 183 189 135 198 506 377 129 232 171 145 169 107
is_linear=0
shrinkage=0.03


Tree=12
num_leaves=31
num_cat=0
split_feature=22 22 89 44 82 4 71 18 44 78 13 72 2 59 61 54 22 21 84 84 67 55 15 74 6 60 4 88 88 47
split_gain=47.0777 26.4211 17.4883 18.6953 18.4312 15.3113 14.8687 14.3541 13.4689 14.2341 11.7061 15.0763 11.5003 12.6881 11.492 11.1958 11.1411 11.0904 10.6851 10.4438 10.3644 14.625 10.072 10.0304 9.90545 12.075 9.73419 24.697 15.4262 14.866
threshold=0.0059376312406962421 0.010620783436287697 2003715.2015347995 0.75000000000000711 0.0034878233263079422 0.05120493075635358 0.0038670738329164016 0.01265275122013239 0.95733152236735541 0.0015980886782790418 3.5281544082203649 0.85714285714286975 0.076383462097747837 -0.00018448501605922068 0.0012718538797385943 0.0011496072442464321 0.011481461191592967 0.005916806156094195 0.5270451072578477 0.52558804205194043 0.0010321693063068619 1.5195553009333878 0.46002501423413289 0.0045384797557988122 0.066159683877961575 0.00090334236675693104 0.049169999189992993 0.023645343148674464 0.0098479532163742705 0.0016663495727540151
decision_type=2 2 2 2 2 2 2 2 2 2 2 2 2 2 2 2 2 2 2 2 2 2 2 2 2 2 2 2 2 2
left_child=5 2 4 7 26 20 24 -4 9 17 11 -3 13 -12 -6 -9 -15 -5 -17 -18 21 -1 -11 -14 -7 -26 -2 28 29 -28
right_child=1 10 3 8 14 6 -8 15 -10 22 12 -13 23 16 -16 18 19 -19 -20 -21 -22 -23 -24 -25 25 -27 27 -29 -30 -31
leaf_value=-0.023474935288456338 0.030875193876100104 0.034425212739105621 -0.0009990891570385717 -0.027048707158559875 0.015481460923323824 0.017248023867988255 -0.020780877053037036 0.0074403410124488116 0.015865351517449444 0.019085831052065811 0.024788412345339263 0.0068287510826263147 0.034602477650220967 0.017910497977154476 -0.015552873156727856 0.035098673480322723 0.0044764748482242411 -0.0018204739373364118 0.0085217870589156721 -0.026298208381437115 -0.034723096842623404 0.015097879729949333 -0.0089423518298748662 0.0074574436723055396 -0.015103995312489734 0.013631974448145061 0.021606586924018477 -0.014350989691374187 0.030922764702185843 -0.0013126771266212204
leaf_weight=16.214525252580646 63.343872711062431 116.03901079297066 40.015480741858482 31.357715845108032 17.776250809431076 55.591840147972107 15.892570421099661 43.199911564588547 31.052433952689171 24.300121575593948 35.601438194513321 22.32390958070755 46.818631872534752 24.227877050638199 21.518557876348495 46.794950008392334 25.387281879782677 30.180319711565971 21.082872107625008 13.817814618349074 14.451841145753859 15.31887975335121 18.936873838305473 18.107397183775902 24.917157039046288 23.762061238288879 62.785771384835243 19.104431137442589 72.71392248570919 41.611729457974434
leaf_count=71 186 314 139 128 56 179 67 142 100 76 103 72 127 74 81 131 83 106 69 53 67 53 69 58 99 80 192 72 211 145
internal_value=0.0136293 0.0163657 0.0125726 0.00720588 0.0176429 -0.00101822 0.00463438 0.0143943 -0.000883302 -0.00605134 0.0235843 0.0301335 0.0177611 0.010971 -0.00144367 0.0198593 0.00269547 -0.0151227 0.0273241 -0.00712003 -0.0153665 -0.00495346 0.00695746 0.027481 0.00882627 -0.00109254 0.0205213 0.016901 0.0203946 0.0126183
internal_weight=1054.25 888.099 585.775 286.921 298.855 166.149 120.164 151.093 135.827 104.775 302.323 138.363 163.96 99.0344 39.2948 111.078 63.433 61.538 67.8778 39.2051 45.9852 31.5334 43.237 64.926 104.271 48.6792 259.56 196.216 177.111 104.398
internal_count=3403 2787 1903 960 943 616 425 481 479 379 884 386 498 313 137 342 210 234 200 136 191 124 145 185 358 179 806 620 548 337
is_linear=0
shrinkage=0.03


Tree=13
num_leaves=31
num_cat=0
split_feature=22 22 74 12 5 13 11 69 4 71 10 47 58 6 21 88 30 43 53 88 20 4 3 51 10 87 34 41 47 39
split_gain=44.2362 24.7634 16.724 16.5155 17.2738 17.7983 15.1293 20.8758 14.5504 14.1059 13.9981 14.3021 25.789 14.998 13.4326 12.1436 11.8224 12.536 11.342 15.8686 11.327 11.3183 11.3257 11.6864 11.2004 10.0667 9.74994 12.7429 9.31574 14.8866
threshold=0.0059376312406962421 0.010620783436287697 0.0068089863307848972 0.11066571985989961 0.082815651664182047 10.145877344365486 0.12667185065261435 1.5134552153019376 0.05120493075635358 0.0038670738329164016 -0.0068163158120378422 0.0013836044547181549 0.81250000000000144 0.025670734012844813 0.004631189654486295 0.012779683161848769 0.31249999999999639 -0.0017885290420618925 0.00078067059723146515 0.0078432578740157497 0.0029000060246361027 0.047366768205213468 0.050381006608891783 0.93333333333333746 -0.0053988679798000474 0.1242033045102099 1.9937976139148832 1.2887244489201948 0.0024911771885329872 0.0042132735975655066
decision_type=2 2 2 2 2 2 2 2 2 2 2 2 2 2 2 2 2 2 2 2 2 2 2 2 2 2 2 2 2 2
left_child=8 2 3 4 5 10 14 24 25 -10 11 13 -13 -2 -5 -12 -16 -18 19 -19 -17 -3 -23 26 -8 -1 27 -24 -20 -30
right_child=1 21 -4 6 -6 -7 7 -9 9 -11 15 12 -14 -15 16 20 17 18 28 -21 -22 22 23 -25 -26 -27 -28 -29 29 -31
leaf_value=0.0039796832928369035 0.0004309091688151326 0.041378724275960142 -0.017164727431874045 -0.0037619290872134615 -0.023930849854864471 0.027214298866407777 0.0039515886616016812 0.021335075606626674 0.0085534425161542076 -0.020358806917001846 0.0075930477644631277 -0.024282654129355659 0.016547652847089651 0.034279783234182425 0.037741138842301028 -0.030731113363441087 0.032057570885467658 -0.014529566271862018 0.023991545449593366 0.020345165603748872 0.0038204055143183733 0.0011953432230329814 0.032082559937923152 0.0016780649880571994 -0.029568680091594766 -0.024807447986571602 0.028364056984758336 0.0035430729102917365 -0.006267896005590164 0.027915835320783844
leaf_weight=15.905188843607901 18.267067939043045 27.046590432524681 15.350031048059462 19.715587064623833 13.829414069652556 36.052768588066101 17.550019383430481 28.701144650578499 104.46941518783569 15.778589844703673 28.207737967371941 21.169766947627068 32.883287191390991 31.445628970861435 35.326183244585991 21.3614771515131 50.459068387746811 23.761135891079903 100.27651911973953 19.589342549443245 12.8249324709177 24.617281556129456 19.955901443958282 22.235041692852974 15.51103565096855 29.815209716558456 168.53028863668442 40.893778577446938 28.051332503557205 16.760198086500168
leaf_count=59 63 68 58 72 55 107 58 87 358 67 96 84 104 89 95 89 140 88 302 60 44 81 54 73 63 132 475 133 100 49
internal_value=0.0132024 0.0158475 0.0121784 0.0130232 0.0063965 0.00868465 0.0169899 0.00336385 -0.00100774 0.00448866 0.00438831 0.0110608 0.000260701 0.0223396 0.0198109 -0.00670741 0.0215206 0.0188286 0.0149868 0.00143197 -0.0182745 0.0228241 0.0207229 0.022609 -0.0125645 -0.0150459 0.0246059 0.0136258 0.0189622 0.00716379
internal_weight=1056.34 890.373 587.094 571.744 216.042 202.213 355.702 61.7622 165.968 120.248 166.16 103.766 54.0531 49.7127 293.939 62.3941 274.224 238.898 188.439 43.3505 34.1864 303.279 276.232 251.615 33.0611 45.7204 229.38 60.8497 145.088 44.8115
internal_count=3403 2787 1903 1845 731 676 1114 208 616 425 569 340 188 152 906 229 834 739 599 148 133 884 816 735 121 191 662 187 451 149
is_linear=0
shrinkage=0.03


Tree=14
num_leaves=31
num_cat=0
split_feature=22 22 89 75 51 30 74 43 36 4 88 71 40 47 13 72 76 67 57 23 22 14 13 40 36 36 18 25 88 84
split_gain=41.5693 23.2176 16.2767 18.3287 16.0851 15.3756 16.6947 17.8821 14.6261 13.7825 13.7288 13.3786 11.8055 11.3742 10.9467 14.1214 11.0928 15.5987 15.5253 17.0816 10.2158 10.1887 16.1868 14.1294 12.3706 15.6861 11.8962 14.743 11.4387 15.9683
threshold=0.0059376312406962421 0.010620783436287697 6756950.3124650056 0.0020088459808346349 0.78571428571428437 0.31249999999999639 0.005340771645868778 -0.0021414467941204825 0.011536303927841553 0.05120493075635358 0.054342667299477933 0.0038670738329164016 0.0015311634310064375 0.0028484538466389928 3.5281544082203649 0.85714285714286975 1.4207274862274761 0.0056355421547006901 -0.00025765425947504855 0.070515541299615139 0.011623270273391781 2.8287520077300821 2.1680779330507978 0.0016127174502678814 0.004745839453999535 -0.00046282097630595537 0.020473324665826093 0.0091951631620730296 0.0098479532163742705 0.42845345702903043
decision_type=2 2 2 2 2 2 2 2 2 2 2 2 2 2 2 2 2 2 2 2 2 2 2 2 2 2 2 2 2 2
left_child=9 2 5 4 -4 8 7 13 -2 -1 21 -11 -5 -7 15 -3 18 -18 -16 20 -20 22 -9 28 25 -25 27 -26 29 -23
right_child=1 14 3 12 -6 6 -8 10 -10 11 -12 -13 -14 -15 16 -17 17 -19 19 -21 -22 23 -24 24 26 -27 -28 -29 -30 -31
leaf_value=-0.014703811711800832 0.038479807219787089 0.032527914323622016 0.0046956784844388267 -0.00420126607131134 -0.021357487693228382 0.03712351942505366 -0.011596969444859724 0.0027173222555177518 0.0038938604036655271 0.0082833772788147488 -0.013626941157476528 -0.019946284865857852 0.026929223475035593 0.008207724178648174 0.036125227735965514 0.00596621807752704 -0.0080424071606601845 0.023270137214284066 0.018019719636772041 0.034125821352100072 -0.0090019127750071062 0.026081760047373077 0.040085476850672687 -0.0068390927190155092 0.020826951357156256 0.021413174663267195 -0.026569901844594946 -0.01445200956327107 0.026711382541991888 -0.0029262758485903723
leaf_weight=45.457974061369896 39.661424025893211 116.82516285777092 51.989423528313637 15.435339778661726 33.517432123422623 41.559275105595589 23.24265356361866 17.324806109070778 15.615767136216162 104.70080921053886 17.802776470780373 15.664868444204329 32.142637431621552 18.940828204154968 41.457203760743141 22.435288265347481 32.309682101011276 22.734151840209961 19.587342604994774 20.507385820150375 28.300888240337372 25.930304452776909 25.456111684441566 26.958683028817177 17.919539749622345 45.437726870179176 17.54184153676033 20.966078847646713 57.674387231469154 43.058492198586464
leaf_count=191 105 314 175 55 131 111 85 59 52 358 69 67 94 61 109 72 113 66 58 54 98 76 69 96 55 139 69 79 172 151
internal_value=0.0127933 0.0153513 0.0118005 0.00252536 -0.0057715 0.01449 0.012323 0.0138528 0.0291864 -0.000991032 0.0108634 0.00434349 0.0170677 0.0286232 0.0220958 0.0283938 0.0165003 0.00525271 0.0219415 0.0125621 0.00232985 0.0124062 0.0257499 0.00998915 0.00291593 0.0109917 -0.00746682 0.00202901 0.0170259 0.0084044
internal_weight=1058.16 892.333 588.176 133.085 85.5069 455.091 399.814 376.571 55.2772 165.824 316.071 120.366 47.578 60.5001 304.157 139.26 164.897 55.0438 109.853 68.3956 47.8882 298.268 42.7809 255.487 128.824 72.3964 56.4275 38.8856 126.663 68.9888
internal_count=3403 2787 1903 455 306 1448 1291 1206 157 616 1034 425 149 172 884 386 498 179 319 210 156 965 128 837 438 235 203 134 399 227
is_linear=0
shrinkage=0.03


Tree=15
num_leaves=31
num_cat=0
split_feature=22 22 12 74 25 10 88 74 47 88 81 68 2 18 15 70 83 78 53 47 76 13 39 85 85 2 12 8 22 84
split_gain=39.102 21.8103 15.6362 20.1094 15.773 14.0599 18.5467 15.1753 17.9605 12.3829 14.8782 19.2996 12.2141 12.4758 13.0106 17.0116 11.8358 11.4291 10.5353 15.2647 13.7444 13.1923 11.5052 11.5 10.0888 9.58595 9.55657 9.36713 9.13851 8.95926
threshold=0.0059376312406962421 0.010620783436287697 0.11066571985989961 0.0043319878336617402 0.0096703206561619143 -0.0068163158120378422 0.012779683161848769 0.0013395286557023366 0.001439887794488952 0.029008372249568769 0.00071684587813614672 0.0016247253115117782 0.082245645921195112 0.009691642016356623 0.43007025899073315 0.45773977179721859 2.0102503556578335 0.0023739812258795072 0.0045386225327304934 0.0011406845755590987 1.1322222625301375 3.4277090989509165 0.005714285714285677 20.500000000000004 30.500000000000004 0.058270805677524636 0.15637052177537039 -0.017459061092610025 0.0093965385386661753 0.51828371897283143
decision_type=2 2 2 2 2 2 2 2 2 2 2 2 2 2 2 2 2 2 2 2 2 2 2 2 2 2 2 2 2 2
left_child=9 2 3 5 27 7 -7 8 -2 10 -1 -12 13 16 15 -15 -6 -8 20 -20 -3 -22 -21 -23 -17 26 -16 -4 29 -29
right_child=1 18 4 -5 12 6 17 -9 -10 -11 11 -13 -14 14 25 24 -18 -19 19 22 21 23 -24 -25 -26 -27 -28 28 -30 -31
leaf_value=0.012133727637949385 0.016909374119816533 0.02298208880060601 -0.00035990093555857144 -0.027454272569416009 -0.014653352141882552 0.011449088350210711 -0.02744436171117234 0.022944377977904433 -0.01612108462266186 -0.017709338306710055 -0.016813387608460292 0.019928904995359393 -0.01428054325476402 -0.017250482578751086 -0.00099099424242854754 -0.0013311985012459031 0.017944718155212151 0.0055961365123404468 0.0060505043757016303 0.041690497678603944 0.021205189784573555 0.0090287959810660054 0.019035685560907512 -0.020959448803140806 0.027813419387693987 0.029012518338166728 0.023655789204195848 0.037834745412764291 0.007901350617553364 0.018062413491507459
leaf_weight=72.061746224761009 30.60817115008831 111.94849598407745 13.424636691808699 13.997597619891165 25.685160309076309 41.878231897950172 26.078043073415756 69.020285189151764 25.176556289196014 30.196334525942802 47.949260026216507 15.478156536817549 15.235267281532286 20.373499289155006 28.073205947875977 18.793829321861267 13.753046602010725 13.295111358165739 23.588392034173012 60.329803600907326 28.005546063184738 23.830250531435013 38.235888481140137 18.903961136937141 22.266170501708984 64.298828259110451 26.252983585000038 56.217238023877144 22.595989793539047 42.145157843828201
leaf_count=247 95 321 45 57 96 138 107 209 95 125 193 51 56 76 97 65 43 45 74 152 80 75 111 71 64 185 79 150 72 129
internal_value=0.012405 0.0148808 0.0114417 0.00504813 0.0152055 0.00749873 -0.00219365 0.0137438 0.00196018 -0.000972216 0.00296132 -0.00751208 0.010367 0.0121913 0.0155078 0.00411913 -0.00296819 -0.0165564 0.0214098 0.0283462 0.016515 0.0059301 0.0334555 -0.00458082 0.0150312 0.0212397 0.0113365 0.0233812 0.0259791 0.0298917
internal_weight=1059.7 894.011 589.169 220.054 369.115 206.056 81.2514 124.805 55.7847 165.685 135.489 63.4274 234.732 219.497 180.059 61.4335 39.4382 39.3732 304.842 122.154 182.688 70.7398 98.5657 42.7342 41.06 118.625 54.3262 134.383 120.958 98.3624
internal_count=3403 2787 1903 746 1157 689 290 399 190 616 491 244 761 705 566 205 139 152 884 337 547 226 263 146 129 361 176 396 351 279
is_linear=0
shrinkage=0.03


Tree=16
num_leaves=31
num_cat=0
split_feature=20 88 87 13 75 44 52 76 81 74 39 82 24 67 18 30 53 56 58 6 83 71 15 19 38 36 44 72 18 38
split_gain=26.9408 30.7728 28.3526 19.1399 18.8085 18.3319 15.0992 14.2713 20.9439 20.6411 18.2314 13.626 13.474 13.3222 13.2882 13.277 14.0798 14.9178 12.9289 15.0436 20.1172 13.2594 12.0881 11.9562 12.0062 13.4533 11.81 12.1477 11.7809 11.5221
threshold=0.0048250198788135712 0.036167429692609554 0.61569230769230787 3.5702131265533708 0.0018957345971563394 0.96000000000000163 0.019544036675997443 1.8425180768933795 0.0010239344700578308 0.00076436813743306642 0.0027322404371585129 0.00096692335980255717 0.062459568215925916 0.0021055344166844127 0.0053196883246950776 0.1999999999999971 0.0028729283171052777 0.50908317601191466 0.70396452790819475 0.050261283603802338 0.82195662914092216 -0.0032450898390364298 0.47499147658022534 0.0063851547534382316 0.012960371776082025 0.0073140255477227587 0.59381823144104928 0.74999999999999301 0.035146816512196997 0.0064534534346029097
decision_type=2 2 2 2 2 2 2 2 2 2 2 2 2 2 2 2 2 2 2 2 2 2 2 2 2 2 2 2 2 2
left_child=1 3 4 5 -3 11 15 9 -9 10 12 -1 -2 -10 -11 -5 18 22 19 20 -17 -21 -18 24 25 -20 -13 -28 -25 -19
right_child=7 2 -4 6 -6 -7 -8 8 13 14 -12 26 -14 -15 -16 16 17 29 23 21 -22 -23 -24 28 -26 -27 27 -29 -30 -31
leaf_value=0.0019034151015841401 -0.026598183418736234 -0.02641801384993266 0.025597038384226452 0.028701096680942575 0.009168677317380634 0.047852893546845847 -0.016371596460213019 -0.018154558364533859 0.03618580255687006 0.0066710869657791369 0.022276217605857632 0.034729491457404414 0.012716958210269426 0.0022435172786008247 0.032637182389115157 0.013465576789674388 0.02659370443483814 -0.013796577033698625 -0.0055262896491026859 -0.0078120450841395817 -0.024870280813508106 0.018423944461861266 0.0028106111856578356 0.019428650024594631 0.012253413023998329 -0.033242293484389368 0.020883387015063395 -0.0067476276241471489 -0.010528190541350246 0.017001328538607186
leaf_weight=44.131068125367165 15.30461496114731 47.832968071103096 15.868719622492788 28.108625784516335 17.108828097581863 17.262190565466881 19.761540859937668 18.994675248861313 18.212307155132294 21.693333119153976 36.19413797557354 38.991065874695778 12.693431258201597 22.038129925727844 136.73524537682533 23.947565078735352 84.252151742577553 22.519434779882431 58.083685860037804 19.118707448244095 21.574596419930458 117.90630362927914 25.409291252493858 33.455507591366768 19.101792901754379 20.205297470092773 52.445819661021233 18.327304288744926 16.1716488301754 17.730044633150101
leaf_count=148 61 199 48 80 57 43 74 72 48 69 108 104 39 73 375 78 246 82 210 68 86 367 85 103 63 84 157 64 58 54
internal_value=0.0120259 0.00911044 -0.0082586 0.0111377 -0.0170489 0.0198259 0.00825359 0.0199657 0.00659937 0.0234324 0.00872317 0.0161086 -0.00911445 0.0185875 0.0292092 0.0092728 0.00801935 0.0155878 0.0045034 0.00979294 -0.00498521 0.0147036 0.021232 -0.00210772 -0.00816601 -0.0133293 0.0216836 0.0137393 0.00963714 -6.73925e-05
internal_weight=1061.18 779.314 80.8105 698.504 64.9418 171.157 527.346 281.866 59.2451 222.621 64.1922 153.895 27.998 40.2504 158.429 507.585 479.476 149.911 329.565 182.547 45.5222 137.025 109.661 147.018 97.3908 78.289 109.764 70.7731 49.6272 40.2495
internal_count=3403 2558 304 2254 256 516 1738 845 193 652 208 473 100 121 444 1664 1584 467 1117 599 164 435 331 518 357 294 325 221 161 136
is_linear=0
shrinkage=0.03


Tree=17
num_leaves=31
num_cat=0
split_feature=22 22 44 30 52 77 30 29 82 15 84 61 55 55 20 40 36 61 4 24 76 13 53 88 52 70 70 53 13 69
split_gain=35.5225 19.5101 15.0733 23.5996 19.4047 22.4708 14.0827 13.258 14.5268 14.2205 17.1259 13.8119 13.2175 22.5252 11.2777 12.0435 10.9308 10.575 10.5444 10.6574 12.0504 14.3739 13.8882 13.663 10.6367 11.246 10.8294 10.3142 9.42689 9.34365
threshold=0.0059376312406962421 0.010620783436287697 0.59999999999999909 0.29587542087542035 0.012409911797481138 0.55894057196909919 0.83253588516746835 0.0053772571879384676 0.0014687807930548265 0.53093764898293538 0.37242968274810467 0.0016235413662854762 1.4984672100265264 0.4338470002419737 0.0022619318053909146 0.0009581627756668898 0.011536303927841553 0.0007021052023606615 0.047366768205213468 0.06779954926212263 1.4207274862274761 3.1076837199462779 0.0045386225327304934 0.0063898415809243844 0.0035238157127370682 0.49944410506278386 0.50744220910870885 0.00098619372017418896 5.5465718557538111 1.6413132472221095
decision_type=2 2 2 2 2 2 2 2 2 2 2 2 2 2 2 2 2 2 2 2 2 2 2 2 2 2 2 2 2 2
left_child=12 2 6 16 7 -6 -2 8 11 10 -9 -5 13 -1 15 -14 -4 -15 -3 24 23 -22 -23 -21 26 -26 -20 -16 -8 -12
right_child=1 18 3 4 5 -7 28 9 -10 -11 29 -13 14 17 27 -17 -18 -19 19 20 21 22 -24 -25 25 -27 -28 -29 -30 -31
leaf_value=0.015212437219452609 0.010406595993953651 0.037889285702467149 0.035883228487423528 -0.0084439629168262652 -0.030899361110762399 0.0098579042208172107 0.009122383271645244 0.018598151940634265 0.028010964720803198 0.025504015126833063 -0.010193048556324455 0.023354294606489537 0.014075485320120242 -0.033782948598511012 0.034447032481487616 -0.013249442988041276 0.0051490389567789251 -0.0065458363677523314 0.010395040543171105 0.010148362075680135 0.030055501149440597 -0.012568364357096231 0.018831833285809653 0.033657042399425283 0.0012095086470562551 0.02909142497033735 -0.022032756735321658 0.0033433404417422918 0.031896514765349451 0.0072121139365559535
leaf_weight=20.255516782402992 129.74201883375645 27.287190079689026 31.962381094694138 29.1966722458601 26.253287464380264 20.058847278356552 24.305845201015472 31.496342435479164 45.059437662363052 19.135590299963951 96.897470146417618 18.384993478655815 22.436772242188454 25.81775626540184 17.110420912504196 33.841599449515343 16.111829832196236 26.024907797574997 19.397125214338303 32.227524548768997 23.035808429121971 25.780010104179382 21.340836763381958 90.641362279653549 22.700724944472313 29.107956007122993 14.43703933060169 20.235104978084564 65.393594801425934 36.951957449316978
leaf_count=68 411 68 84 104 111 67 78 97 130 55 357 54 75 114 51 135 53 100 60 98 61 92 62 238 73 79 53 73 178 124
internal_value=0.0116593 0.0140123 0.0107643 0.00702015 0.00402585 -0.0135691 0.0169823 0.00704245 0.0161751 0.00233198 -0.000622488 0.00428896 -0.00109071 -0.0105894 0.00629252 -0.00224649 0.0261999 -0.020861 0.0201751 0.0181829 0.0220907 0.011681 0.00184039 0.0277522 0.00907229 0.0173736 -0.00389933 0.0186206 0.026059 -0.00535255
internal_weight=1062.63 896.906 590.95 371.509 323.435 46.3121 219.441 277.122 92.6411 184.481 165.346 47.5817 165.722 72.0982 93.6239 56.2784 48.0742 51.8427 305.956 278.668 193.026 70.1567 47.1208 122.869 85.6428 51.8087 33.8342 37.3455 89.6994 133.849
internal_count=3403 2787 1903 1236 1099 178 667 921 288 633 578 158 616 282 334 210 137 214 884 816 551 215 154 336 265 152 113 124 256 481
is_linear=0
shrinkage=0.03


Tree=18
num_leaves=31
num_cat=0
split_feature=22 22 89 52 82 45 19 79 9 4 63 73 11 12 81 82 89 4 1 53 5 20 72 76 7 36 34 11 88 86
split_gain=33.4036 18.3692 14.6872 19.9236 16.1969 15.9714 14.0486 13.2798 13.0533 12.4913 12.5001 13.5775 11.5993 11.1654 10.6785 17.8065 10.2924 9.95876 10.1968 11.5469 11.3973 11.6684 12.1306 10.2165 9.78421 12.3203 9.64453 9.54461 11.099 13.1782
threshold=0.0059376312406962421 0.010620783436287697 2003715.2015347995 0.01152628552630584 0.0034878233263079422 -0.0030611197160846796 0.0053065415218710886 0.84000000000000818 -0.0048289582191583516 0.05120493075635358 0.58586646590762836 0.0032870408636795031 0.085202649709039915 0.1151061300221058 0.00073651323703204541 0.0007981841355712186 1990788.4934399996 0.047366768205213468 0.076372387295131974 0.0045386225327304934 0.11100536425747555 0.0072365730752032122 0.74390082644628353 1.1322222625301375 0.050027785049199587 0.0051246152935238163 2.1206075570393437 0.069672393164910265 0.023834319526627224 1.5000000000000002
decision_type=2 2 2 2 2 2 2 2 2 2 2 2 2 2 2 2 2 2 2 2 2 2 2 2 2 2 2 2 2 2
left_child=9 2 4 5 27 -4 8 -6 -7 16 11 14 -5 -10 -11 -16 -1 -3 19 20 21 22 23 -19 -15 -26 -21 -2 29 -29
right_child=1 17 3 12 7 6 -8 -9 13 10 -12 -13 -14 24 15 -17 -18 18 -20 26 -22 -23 -24 -25 25 -27 -28 28 -30 -31
leaf_value=-0.027713401402013893 0.030048720387024108 0.036768467776998354 0.030535794223382453 0.0032679723740135563 -0.015190449598060964 -0.020922617524311484 0.016496554757803414 0.019209344488100161 -0.0065948327944991168 0.014059854705147057 0.022437940012505327 -0.02543594983798951 -0.022982059100453082 0.031998734127764897 -0.027552503486511629 0.011368722649231644 0.0003422329222352589 0.026875247846024415 0.027473041689216285 0.0075704613022683741 0.018573046312312144 -0.021233762232182218 -0.013626539350684258 -0.0029037353629577764 0.021935009059606356 -0.0076669929310502274 0.029776484090762688 0.009966222206857174 -0.006132969422399541 0.025863467328906393
leaf_weight=22.382906809449196 46.587446793913841 27.335587784647942 26.606674119830132 29.352269977331161 25.622827857732773 19.693865492939949 76.20257830619812 13.951298683881758 45.744067296385765 42.783208250999451 24.063396751880646 14.934556290507315 28.380538940429688 15.224985390901564 18.023435354232788 20.724391773343086 22.654530704021454 24.423832029104233 71.174694627523422 27.982318460941315 51.697183206677437 15.439789369702337 16.957003742456436 16.476173833012581 20.377508208155632 27.451693519949913 54.872973874211311 112.56676498055458 19.68030472099781 84.182965695858002
leaf_count=103 134 68 72 102 95 76 234 42 165 139 75 66 111 41 75 70 88 67 193 86 151 56 60 56 61 98 147 359 70 243
internal_value=0.0113158 0.0135942 0.0104442 0.00555027 0.0150517 0.0094773 0.00647109 -0.00272259 0.000363747 -0.00105592 0.00400199 -0.000959214 -0.00997356 0.00452497 0.00402601 -0.00719912 -0.0141865 0.01957 0.0176354 0.014037 0.00807272 0.000370088 0.00665217 0.015303 0.0125468 0.00531907 0.0226321 0.0177264 0.0148232 0.01696
internal_weight=1063.55 897.985 591.626 289.034 302.592 231.301 204.695 39.5741 128.492 165.566 120.529 96.4656 57.7328 108.798 81.531 38.7478 45.0374 306.36 279.024 207.849 124.994 73.2968 57.857 40.9 63.0542 47.8292 82.8553 263.017 216.43 196.75
internal_count=3403 2787 1903 960 943 747 675 137 441 616 425 350 213 365 284 145 191 884 816 623 390 239 183 123 200 159 233 806 672 602
is_linear=0
shrinkage=0.03


Tree=19
num_leaves=31
num_cat=0
split_feature=21 22 79 70 13 69 76 85 75 46 46 55 77 47 55 10 30 74 46 20 16 48 40 20 15 53 76 47 68 13
split_gain=32.4565 18.6463 16.8785 23.339 18.1726 18.1586 13.5214 14.0667 13.1619 18.1759 13.2362 12.4237 14.7893 12.3076 11.3119 11.0608 15.9536 11.2601 12.028 11.7806 11.0554 10.5322 10.1343 9.80144 9.76788 9.26154 12.1177 11.886 10.5976 9.35972
threshold=0.004647460356162765 0.010620783436287697 0.40000000000001151 0.73347187687190263 2.2404069772076931 2.6904513374584296 4.0104194889959235 47.500000000000007 0.001945177954085572 0.0004818116396220358 0.0028393726857634635 1.4984672100265264 0.52146614182259021 0.0007066899994541421 2.9626313809480931 -0.0036638426468935665 0.76666666666667116 0.00079583440882598862 0.00080666851758652428 0.0017211726620244446 0.48096179819797319 3.2093342884400777 0.011580658747020757 0.0017506303155543064 0.34574870529007445 0.0045386225327304934 1.1322222625301375 0.0011406845755590987 0.0019899735974953908 3.4277090989509165
decision_type=2 2 2 2 2 2 2 2 2 2 2 2 2 2 2 2 2 2 2 2 2 2 2 2 2 2 2 2 2 2
left_child=11 2 5 4 14 8 7 15 9 -2 13 21 23 -11 -4 17 -17 19 -19 -6 -10 -1 24 -13 -3 26 28 -27 -26 -28
right_child=1 22 3 -5 6 -7 -8 -9 20 10 -12 12 -14 -15 -16 16 -18 18 -20 -21 -22 -23 -24 -25 25 27 29 -29 -30 -31
leaf_value=-0.002902926171895815 0.016165927797658797 -0.0052536256719156035 -0.023438466444022914 -0.017545194057097892 0.020493159299805396 0.024113101068119903 -0.0055230638722667267 0.026976835147157114 -0.0096032464557056097 -0.0021010250876691188 0.0014565643610860658 -0.020103753891366268 0.016381534130027093 -0.029267363742339413 0.01109394177694979 0.016690464291443226 -0.012058963387735801 0.0061232080407398531 0.029273688921081384 -0.0083957263376898544 0.019758553118422697 -0.033945986331735643 -0.0029827292544522526 0.0056944276006047467 0.032925077626839862 0.0075574242253645856 0.019338968276804293 0.03336317549642466 0.013162184343416254 -0.0031994369204446636
leaf_weight=22.354130178689957 26.72197113931179 12.151618942618368 15.424267053604128 19.117680758237839 22.436181709170341 30.022055834531784 21.687379211187363 115.66808752715588 14.499741822481154 24.06471212208271 47.07463426887989 25.351137727499008 39.19514362514019 39.388385340571404 15.019489020109175 35.332171753048897 30.584968641400337 28.476327165961266 79.841439411044121 24.777188718318939 40.161464795470238 16.16778364777565 17.337045773863792 24.374454095959663 49.566355288028717 21.332467958331108 26.495545908808708 86.30751433968544 54.996397137641907 38.541966468095779
leaf_count=85 84 41 61 73 68 88 76 335 52 85 160 103 130 160 48 112 112 93 226 88 122 72 56 86 130 65 75 224 163 130
internal_value=0.0109764 0.0129051 0.00989781 0.0135048 0.0151117 0.00319942 0.0169954 0.0184681 -0.000287222 -0.00524449 -0.0106161 -0.00318485 0.00302644 -0.0193435 -0.00676817 0.0138221 0.00338869 0.0181448 0.0234089 0.00560743 0.0119058 -0.0169642 0.0189808 -0.0077268 0.020308 0.021458 0.0167213 0.0284801 0.0229726 0.00628548
internal_weight=1064.47 937.027 630.298 408.365 389.248 221.933 358.804 337.116 191.911 137.25 110.528 127.443 88.9207 63.4531 30.4438 221.448 65.9171 155.531 108.318 47.2134 54.6612 38.5219 306.729 49.7256 289.392 277.24 169.6 107.64 104.563 65.0375
internal_count=3403 2927 2043 1292 1219 751 1110 1034 663 489 405 476 319 245 109 699 224 475 319 156 174 157 884 189 828 787 498 289 293 205
is_linear=0
shrinkage=0.03


Tree=20
num_leaves=31
num_cat=0
split_feature=21 22 56 68 88 69 73 18 30 44 6 10 47 44 47 90 55 77 81 40 62 85 40 81 89 73 33 30 48 54
split_gain=30.574 17.5876 15.844 14.1714 18.78 15.8409 14.919 14.5241 12.7945 12.4716 14.0298 12.5157 26.3981 18.3458 13.1894 13.3901 11.8191 13.9252 11.254 11.2217 11.1342 10.8276 10.7752 12.3167 13.7972 10.6648 15.4641 14.443 10.1485 9.74008
threshold=0.004647460356162765 0.010620783436287697 0.71157540000141661 0.00081155134517385129 0.048717948717948725 0.30391005642118646 0.0076226045146262607 0.0061136345939211299 0.30470885729907182 0.12550268096515294 0.12701179337336257 -0.006098981695868754 0.00061218294657316367 0.96153846153846056 0.0012658611304671159 4.8346146804396293 1.4984672100265264 0.52146614182259021 0.0020495074141407984 0.0018653767578619943 2.2587209021876702 47.500000000000007 0.0029389621059849498 0.00037719286181424008 962496.59270050109 0.00049730943478359328 0.00336400027891167 0.77580127425708889 3.2093342884400777 0.0016707440837575324
decision_type=2 2 2 2 2 2 2 2 2 2 2 2 2 2 2 2 2 2 2 2 2 2 2 2 2 2 2 2 2 2
left_child=16 2 3 4 5 -2 18 20 -9 -10 11 12 -11 14 21 -16 28 -18 22 -12 -5 -13 23 -7 -25 27 -27 -14 -1 -20
right_child=1 -3 -4 7 -6 6 -8 8 9 10 19 13 25 -15 15 -17 17 -19 29 -21 -22 -23 -24 24 -26 26 -28 -29 -30 -31
leaf_value=-0.0028253229983255285 0.028708179455966272 0.018410616949169605 -0.014534401996805335 -0.020277779938633202 -0.026480566705705928 0.013896814959425852 0.030465140228988868 0.030642891094933882 0.032331503246214567 0.035472575160711534 0.041661409017776749 -0.028796258132544182 0.00015872011696260849 0.029842317891028494 -0.0067410516310674367 0.020553515430988767 -0.0075298282825723888 0.015849486887246623 0.00014144160030879921 0.0089937146563963712 0.011674374053297763 0.0024283666993487377 0.018262801120015968 0.0091101267934053393 -0.023006857759735176 -0.016731059333440712 0.01508977464971145 0.030318148682918839 -0.033387456158427496 -0.029089549768530253
leaf_weight=22.334329038858414 23.34635616838932 307.04238373041153 21.933063581585884 17.576849281787872 14.827356666326521 27.604525685310364 14.24844831228256 43.271052896976471 26.906683877110481 37.804868951439857 21.216664865612984 23.335716277360916 27.887760475277901 15.44145682454109 35.754535719752312 26.515092268586159 49.607748061418533 39.360117256641388 22.458426460623741 18.315004512667656 17.831270635128021 16.027332320809364 35.431928217411041 18.377997025847435 28.699244946241379 29.727914318442345 22.305442348122597 27.356058239936829 15.981388226151465 16.8575119972229
leaf_count=85 67 884 82 69 64 87 39 118 71 102 54 94 95 44 127 81 189 130 77 58 57 54 109 59 113 110 68 77 72 67
internal_value=0.010644 0.0125129 0.0095943 0.0105078 0.00395551 0.00662314 0.0031645 0.0137201 0.015462 0.0132897 0.0113896 0.00874083 0.0145678 0.00139641 -0.003418 0.0051592 -0.00311073 0.00293443 0.000193333 0.0276884 -0.00442303 -0.0165799 0.00512313 -0.00142457 -0.0106087 0.00668655 -0.00303661 0.0156308 -0.0165966 -0.0131934
internal_weight=1065.38 938.101 631.059 609.125 201.852 187.024 163.678 407.274 371.866 328.595 301.688 262.156 145.082 117.074 101.633 62.2696 127.284 88.9679 149.43 39.5317 35.4081 39.363 110.114 74.6818 47.0772 107.277 52.0334 55.2438 38.3157 39.3159
internal_count=3403 2927 2043 1961 682 618 551 1279 1153 1035 964 852 452 400 356 208 476 319 512 112 126 148 368 259 172 350 178 172 157 144
is_linear=0
shrinkage=0.03


Tree=21
num_leaves=31
num_cat=0
split_feature=21 20 88 61 6 20 10 14 88 70 55 83 62 6 12 15 29 55 77 58 84 16 61 48 90 18 11 12 84 5
split_gain=28.8137 16.9044 18.3004 15.9324 13.2434 13.109 16.9944 13.9311 14.117 15.2019 14.5671 12.5692 15.8696 11.9491 11.5612 12.7332 11.5245 11.2511 13.1042 10.4632 10.0426 9.95382 11.4765 9.78316 9.61635 10.0504 15.7706 12.7995 12.6931 12.3168
threshold=0.004647460356162765 0.0048250198788135712 0.054342667299477933 0.0028415396715138438 0.057300012550377206 0.0030943793686763654 -0.0025950378469873909 4.5440514323459293 0.0061539044156631072 0.37013581918250754 1.4588242908651641 1.7669842374740583 2.8957962526077576 0.018497855665332911 0.19554662990381758 0.44934913396544934 0.018634118150007154 1.4984672100265264 0.52146614182259021 0.62141687141687307 0.57354662978695681 0.49824408213208071 0.00082881725682295399 3.2093342884400777 11.603288922006479 0.031116361058051375 0.088615439205873461 0.15924575595305915 0.38835107841518862 0.082815651664182047
decision_type=2 2 2 2 2 2 2 2 2 2 2 2 2 2 2 2 2 2 2 2 2 2 2 2 2 2 2 2 2 2
left_child=17 2 5 19 -4 7 14 11 -9 10 -10 12 20 -11 15 -7 -5 23 -19 21 -2 22 -3 -1 25 27 -27 28 -15 -30
right_child=1 3 4 16 -6 6 -8 8 9 13 -12 -13 -14 24 -16 -17 -18 18 -20 -21 -22 -23 -24 -25 -26 26 -28 -29 29 -31
leaf_value=-0.0027497474870095033 0.032828682708364178 0.005496340222381658 -0.022140765277372847 0.012528201807357081 0.0087422383926166226 0.013273664739387087 -0.024284565147149294 0.025245829208535787 -0.023048799679391333 -0.012416330248688561 0.0096039692962167772 0.0017293565070319009 -0.0007158703309751342 0.020704108456982884 0.023534062331551947 -0.01174569763501202 -0.015526614014665501 -0.0073284461324023154 0.015338367500548218 0.029545987544595271 0.0084785279892107355 0.0013050800131065498 0.032866978585893408 -0.032847431146995058 -0.0078027203339886986 0.040472455352028008 0.012911251512794743 0.019977236994038049 0.0031294946959584675 -0.023911024250483165
leaf_weight=22.314995020627975 89.802426725625992 23.848571062088013 25.423807382583618 54.027933791279793 21.425245881080627 33.087726429104805 17.160512208938599 43.712172597646713 25.035534530878067 18.334561318159103 20.98370087146759 27.305889323353767 19.446930170059204 20.358490183949471 24.476903051137924 36.281942382454872 15.385717839002607 49.498458564281464 39.515783980488777 103.73255042731762 20.310078531503677 31.819464698433876 34.055619031190872 15.792551234364508 19.694783240556717 25.104087963700294 71.42848989367485 48.836781144142151 47.918454170227051 19.925542816519737
leaf_count=85 242 76 106 165 70 102 66 126 97 66 67 90 64 60 68 129 54 189 130 284 65 104 89 72 72 65 216 143 163 78
internal_value=0.0103276 0.0121395 0.00957902 0.0186024 -0.00823752 0.0109275 0.00153883 0.0129251 0.00959273 0.007294 -0.00838001 0.0203835 0.024229 0.00999159 0.00666903 0.00022551 0.00604909 -0.00303527 0.00284989 0.0229986 0.0285687 0.0149498 0.0221539 -0.0162388 0.0116983 0.0133949 0.0207548 0.00798658 0.00105174 -0.0052695
internal_weight=1066.05 938.924 676.054 262.87 46.8491 629.205 111.007 518.198 361.333 317.62 46.0192 156.865 129.559 271.601 93.8466 69.3697 69.4137 127.122 89.0142 193.456 110.113 89.7237 57.9042 38.1075 253.267 233.572 96.5326 137.039 88.2025 67.844
internal_count=3403 2927 2155 772 176 1979 365 1614 1153 1027 164 461 371 863 299 231 219 476 319 553 307 269 165 157 797 725 281 444 301 241
is_linear=0
shrinkage=0.03


Tree=22
num_leaves=31
num_cat=0
split_feature=22 22 74 89 50 46 47 69 31 10 25 76 4 20 4 6 4 79 49 10 53 89 4 1 13 47 72 85 53 59
split_gain=27.4315 14.4478 14.2287 13.9147 12.3636 17.9411 11.9741 19.2623 19.7799 17.7103 12.4317 13.5319 11.9355 11.547 11.4968 11.5505 11.1646 10.3009 11.8339 10.2352 10.1114 9.90716 9.54206 9.96847 9.63989 13.0016 12.3078 9.38439 14.5876 10.6261
threshold=0.0059376312406962421 0.010620783436287697 0.0068089863307848972 6756950.3124650056 0.014705882352941237 0.0046781252346745784 0.0016181225958851301 1.5373623231391971 0.0046031477460078017 -0.0054853018850987692 0.0059160071129655831 1.7327425053900474 0.082401160299402379 0.0042133212891750605 0.05120493075635358 0.064938768509374759 0.070020409312900003 0.62500000000001976 0.46291621129180366 -0.0044569901444300722 0.00060341260041234734 1990788.4934399996 0.047366768205213468 0.098614595214983072 3.5281544082203649 0.0068100915321439642 0.79393800229621381 20.500000000000004 0.0055687909275373487 0.0050146179185233597
decision_type=2 2 2 2 2 2 2 2 2 2 2 2 2 2 2 2 2 2 2 2 2 2 2 2 2 2 2 2 2 2
left_child=14 2 3 6 5 17 9 8 -8 20 -11 16 13 -10 21 -16 -12 18 -5 -19 -2 -1 -3 24 26 27 -24 -26 29 -29
right_child=1 22 -4 4 -6 -7 7 -9 12 10 11 -13 -14 -15 15 -17 -18 19 -20 -21 -22 -23 23 -25 25 -27 -28 28 -30 -31
leaf_value=-0.027254044665147793 0.009410188289997205 0.034086773353341315 -0.017676475803816042 -0.024637075823319012 -0.02231165236508062 0.027280273184423155 0.014279263207115426 0.018819165268468902 -0.01045226152197698 0.025538635026828425 0.0057783482409573027 0.018683088313358617 -0.032686953752707408 0.01894116597029686 0.012984013176524077 -0.005317343445983628 -0.022168206394977866 0.024646452312659523 0.0027037705615170324 -0.0051188884725290327 0.027716953879672206 0.00036717963127976525 0.025426452686504036 0.034535064748227054 0.019425828085403888 -0.012675479456797556 0.0018098588906510533 0.0041946876129503744 0.025448555651755994 -0.026729202119189017
leaf_weight=22.077690660953522 39.066467583179474 27.358711048960686 15.374041110277174 23.324951350688934 15.207538053393362 23.368131622672081 49.591509655117989 75.772935122251511 48.730114951729774 20.958933606743813 23.71646985411644 21.895143389701843 14.101408481597899 13.816329777240751 58.528823465108871 62.027437433600426 24.510746479034424 19.5466697961092 31.77327287197113 18.989097908139229 114.04822151362896 22.608624026179314 87.755806267261505 21.63798987865448 67.494211241602898 20.915877044200897 25.916981741786003 27.182127222418785 15.959758430719374 13.429993301630018
leaf_count=103 123 68 58 92 61 66 152 229 179 60 78 66 57 41 190 235 94 55 107 67 318 88 236 54 192 72 82 86 43 51
internal_value=0.0100184 0.0120741 0.00928506 0.0100601 0.00148359 0.00489941 0.0125834 0.00707477 -0.000158157 0.0170459 0.00637806 0.000101745 -0.00962481 -0.00357362 -0.0012062 0.00363467 -0.00874221 -0.00113986 -0.00932809 0.0104502 0.0232276 -0.0138623 0.0173625 0.0155001 0.013655 0.00834484 0.0201663 0.0120335 0.00285168 -0.00680608
internal_weight=1066.69 901.443 593.792 578.418 132.21 117.002 446.208 202.012 126.239 244.196 91.0813 70.1224 76.6479 62.5464 165.243 120.556 48.2272 93.634 55.0982 38.5358 153.115 44.6863 307.651 280.293 258.655 144.982 113.673 124.066 56.5719 40.6121
internal_count=3403 2787 1903 1845 448 387 1397 658 429 739 298 238 277 220 616 425 172 321 199 122 441 191 884 816 762 444 318 372 180 137
is_linear=0
shrinkage=0.03


Tree=23
num_leaves=31
num_cat=0
split_feature=21 56 20 88 61 13 20 10 65 73 29 65 32 6 89 55 77 17 16 48 7 65 40 55 18 21 9 66 7 48
split_gain=26.0829 16.2836 15.1301 16.8725 15.9507 14.1162 13.4419 15.0129 14.2809 16.5709 10.9852 10.9401 11.6699 10.7935 12.3565 10.667 12.2761 10.226 10.1674 10.0036 9.96994 15.5031 12.6053 9.96915 17.5439 11.6904 10.161 9.63095 9.43661 9.38392
threshold=0.004647460356162765 0.71157540000141661 0.0048250198788135712 0.054342667299477933 0.0028415396715138438 3.0255418697339533 0.0030943793686763654 -0.0025950378469873909 0.1578947368421155 0.00119399510383955 0.018634118150007154 0.58333333333333415 0.00060041094450208918 0.12830228191844209 1721182.8226321514 1.4984672100265264 0.52146614182259021 0.82608695652173447 0.46668319720347246 0.89997829523992445 0.020280392137878359 0.87499999999999611 0.0021206923622402235 2.075179279092096 0.014255502554757497 0.0063622184677429609 -0.0064214321944747179 0.00030422058344541276 0.097388020143892376 3.2093342884400777
decision_type=2 2 2 2 2 2 2 2 2 2 2 2 2 2 2 2 2 2 2 2 2 2 2 2 2 2 2 2 2 2
left_child=15 2 3 6 23 -5 8 13 9 28 -6 19 -13 14 -8 29 27 -14 -19 -10 -20 22 -22 24 26 -26 -4 -17 -2 -1
right_child=1 -3 4 5 10 -7 7 -9 11 -11 -12 12 17 -15 -16 16 -18 18 20 -21 21 -23 -24 -25 25 -27 -28 -29 -30 -31
leaf_value=-0.0027283510179973128 -0.02286265776241541 -0.011539194152777014 -0.013118960431590977 -0.024841073802568569 0.012065671698998182 0.0072990934311418241 0.014221427979641333 -0.023304540759407029 0.0065229787937344371 0.014657719200099917 -0.015392968837289724 -0.0083111424888455653 0.020510150786520062 0.025702742715929226 -0.0099814086085680334 0.0053398100655555648 0.014766561819146897 -0.010549746267206941 0.02746391446672606 0.023420397996301485 0.009980704766589691 0.022595921691506156 -0.022832256333167395 0.031676545554468208 0.0047553369227003569 0.033493165089444367 0.013589475514906621 -0.020317958280207275 0.0067092829065346733 -0.032319087474583584
leaf_weight=22.285635560750961 24.851014286279678 25.477005302906036 19.366905450820923 20.752017095685005 52.961488649249077 25.285880565643311 32.236970946192741 16.629927217960358 41.239586368203163 38.740895643830299 15.362728774547575 25.31962825357914 85.254165589809418 18.045693084597588 40.627019673585892 25.928745165467262 39.65777251124382 22.970630973577499 22.648358389735222 164.98207633197308 18.870030477643013 24.221552684903145 19.643352195620537 71.396282568573952 17.717912092804909 51.221801519393921 30.205971390008926 23.452559158205986 14.050817444920538 15.57427281141281
leaf_count=85 96 93 67 88 161 85 98 64 131 118 54 89 248 49 142 93 130 82 62 479 60 71 74 190 58 132 91 96 45 72
internal_value=0.00972263 0.0114432 0.0121072 0.00963433 0.0182702 -0.00761945 0.0109564 0.00130079 0.0130083 0.00114226 0.0056294 0.0151598 0.0103322 0.00620657 0.000820433 -0.00300322 0.00271457 0.0128304 0.00652571 0.0201364 0.0112558 0.00473672 -0.00705616 0.0227119 0.0168753 0.0264497 0.00305104 -0.00716233 -0.0123759 -0.0159118
internal_weight=1066.98 940.08 914.603 656.37 258.233 46.0379 610.332 107.54 502.792 77.6427 68.3242 425.149 218.928 90.9097 72.864 126.899 89.0391 193.608 108.354 206.222 85.3833 62.7349 38.5134 189.909 118.513 68.9397 49.5729 49.3813 38.9018 37.8599
internal_count=3403 2927 2834 2081 753 173 1908 353 1555 259 215 1296 686 289 240 476 319 597 349 610 267 205 134 538 348 190 158 189 141 157
is_linear=0
shrinkage=0.03


Tree=24
num_leaves=31
num_cat=0
split_feature=22 12 65 49 46 33 34 82 71 80 76 89 55 55 61 76 20 73 81 51 65 56 77 77 69 79 90 52 53 51
split_gain=24.823 14.3333 15.9376 14.2849 17.968 14.1038 14.0725 17.2726 16.5405 14.5223 15.0025 11.7182 11.5089 20.0361 9.88146 9.76975 9.68661 12.1186 11.925 9.576 17.3291 13.0592 11.992 11.8826 11.454 10.2702 9.51305 9.40221 9.31483 8.57948
threshold=0.0059376312406962421 0.11794529506185526 0.13487525987525148 0.33861447580172688 0.0013348907429903743 0.0023604859563459706 3.8745266244189001 0.0028604120033301618 -0.0024101670671183846 -0.0043553664254766897 0.3400363896360824 4472580.2742949938 1.4984672100265264 0.4338470002419737 0.0007021052023606615 3.7492698253623278 0.0022619318053909146 0.0019981804583220479 0.0013170025251481065 0.78345815695214094 0.59999999999999232 0.40884063843049723 0.54312396972607979 0.33000206482463268 0.7881555526330869 0.7836829366680117 4.7359320594395831 0.0011092328329313044 0.00098619372017418896 0.84615384615384126
decision_type=2 2 2 2 2 2 2 2 2 2 2 2 2 2 2 2 2 2 2 2 2 2 2 2 2 2 2 2 2 2
left_child=12 2 5 4 -3 -2 9 8 -8 -4 -11 27 13 -1 -15 19 17 18 -14 23 25 22 -22 -5 -23 29 -6 -10 -18 -21
right_child=1 3 6 15 26 -7 7 -9 11 10 -12 -13 16 14 -16 -17 28 -19 -20 20 21 24 -24 -25 -26 -27 -28 -29 -30 -31
leaf_value=0.014025201970517692 0.0024374515843918853 0.01887999970484381 -0.0081039165177758908 -0.0024218298776904818 -0.031210148774265072 -0.031277200895570581 -0.014525848680355577 -0.0247121134260367 0.0014679674093732082 -0.01024414095791024 0.022455368438796808 -0.0053686316386604739 0.016740634601222007 -0.032744898928820862 -0.0062000135114006413 0.00011916171967706868 0.03182161670489398 -0.023444478167688017 -0.016535075593068126 0.007396619294601752 -0.027770139743276405 0.027494620413633659 0.007599590008876847 0.021371710101511697 -0.00029036589501411642 0.0029347165542114623 0.0030408025831446168 0.028407796555441529 0.0024999648403109739 0.029400241087669296
leaf_weight=20.350173875689507 29.616133570671082 20.076378479599953 19.73987939953804 19.784082502126694 15.314979434013368 15.677324265241621 24.515238165855408 17.530239105224609 16.981874391436577 13.057643651962278 110.88642279803753 21.517889484763145 28.33439838886261 25.113764047622681 25.773943871259689 35.036466717720032 17.406846016645432 15.326113417744635 12.393185451626776 23.247862726449966 18.962185680866241 19.046454682946205 13.473453655838965 290.25722274184227 36.416361704468727 28.636204332113266 12.051205605268477 36.858162418007851 20.345582276582718 63.7142184227705
leaf_count=68 100 60 69 65 61 63 91 68 57 48 324 76 94 114 100 115 51 66 50 72 73 52 42 823 118 92 39 104 73 175
internal_value=0.00943041 0.011383 0.00605204 0.014094 -0.00163572 -0.0100613 0.00890262 0.00115316 0.00608918 0.0151319 0.0189025 0.0129978 -0.00125432 -0.0101938 -0.0200432 0.0154554 0.00560552 -0.00234915 0.006315 0.0164972 0.0112491 0.0011455 -0.0134898 0.0198476 0.00987612 0.0187815 -0.0169473 0.0202675 0.0169404 0.0238165
internal_weight=1067.44 902.398 306.381 596.017 47.4426 45.2935 261.087 117.403 99.8732 143.684 123.944 75.3579 165.044 71.2379 50.8877 548.575 93.8061 56.0537 40.7276 513.538 203.497 87.8985 32.4356 310.041 55.4628 115.598 27.3662 53.84 37.7524 86.9621
internal_count=3403 2787 1000 1787 160 163 837 396 328 441 372 237 616 282 214 1627 334 210 144 1512 624 285 115 888 170 339 100 161 124 247
is_linear=0
shrinkage=0.03


Tree=25
num_leaves=31
num_cat=0
split_feature=21 12 49 46 55 10 46 38 12 54 54 67 14 11 10 40 34 68 7 11 43 84 2 17 76 24 23 78 3 51
split_gain=23.7741 15.1276 13.7183 12.6886 18.022 21.7507 23.0827 16.5821 12.2304 11.8782 14.7735 17.3637 16.078 14.7922 13.9948 10.7295 10.7136 10.6291 10.4809 10.446 10.023 9.84598 9.69525 9.68545 9.92893 9.26567 14.3579 9.1032 8.4298 10.1087
threshold=0.0059794558870834569 0.20299782468731256 0.33861447580172688 7.3748401365650133e-05 1.4833297458822456 -0.0068163158120378422 0.0011778704584579365 0.010619103773584866 0.080959276769492231 0.003065134299596553 0.0011496072442464321 0.0005298730620276875 5.7930253399465874 0.076756960870997051 -0.011531781220833258 0.00091821195433734347 14.245683646734539 0.0019322338094914242 0.052090816806855685 0.090601372239635061 0.0066800365432023731 0.58566195637542473 0.074375836834572176 0.9270068671560493 0.91707065361743312 0.055871392674137661 0.043468389769946943 0.0011231135454328192 0.05546527707082017 0.92857142857142028
decision_type=2 2 2 2 2 2 2 2 2 2 2 2 2 2 2 2 2 2 2 2 2 2 2 2 2 2 2 2 2 2
left_child=1 3 18 7 5 6 -5 -1 -4 10 11 20 -12 -14 -13 -16 19 -11 -2 21 -6 -10 -20 24 -7 26 -21 -8 -27 -30
right_child=2 -3 8 4 9 23 27 -9 16 17 12 14 13 -15 15 -17 -18 -19 22 25 -22 -23 -24 -25 -26 28 -28 -29 29 -31
leaf_value=0.0022890697380264996 0.013146556632332451 0.027186371477584348 -0.0058858718711587736 -0.022831904910240616 0.032852208630151147 0.0015675046523032103 0.001903538721830164 0.039741164854592372 0.028504000435868999 -0.019331795756516865 -0.00044948310218436923 0.014202255627835995 0.0022608476623673726 0.037318762126058308 0.0037596847204617438 -0.022655038946526297 -0.004575948499939632 0.0077576599539058589 -0.024543008254660163 0.016523625478259207 0.00097244470544155287 0.0066518834876414402 0.0080833405617967841 -0.03672905481599234 -0.026620349798755803 -0.00067813442277336942 -0.016196877570318267 0.028759775487306165 0.018214033691165647 0.0014567949367167102
leaf_weight=26.729661837220192 23.360214903950691 21.370562061667442 25.137018367648125 18.300441861152649 18.200011193752289 23.761225834488869 22.723126322031021 15.970140337944029 91.266091883182526 27.771126329898834 27.384686499834061 20.497798889875412 15.271502614021299 37.671048045158386 20.399468898773193 37.956398084759712 23.02274589240551 21.676105812191963 19.555910751223568 22.810423105955124 16.056778863072395 24.985172465443611 11.954340964555739 20.79701828956604 19.003424137830734 27.79330863058567 21.506134986877441 21.338292837142944 306.97599324584007 36.602041482925415
leaf_count=96 71 59 89 75 52 85 78 43 250 107 95 65 53 102 71 153 77 70 76 66 57 79 38 92 79 89 76 60 882 118
internal_value=0.00914335 0.00369792 0.0128324 0.00235252 0.00052013 -0.00860892 0.00395836 0.0174479 0.0141843 0.00528473 0.00862684 0.00156106 0.0182967 0.0276566 -0.00620231 -0.0136026 0.0151113 -0.0076167 -0.00145681 0.0159773 0.0187875 0.0239994 -0.0124215 -0.0206836 -0.0115881 0.0136297 0.000631138 0.0155936 0.0151692 0.0164476
internal_weight=1067.85 432.879 634.969 411.508 368.808 125.924 62.3619 42.6998 580.099 242.885 193.438 113.11 80.3272 52.9426 78.8537 58.3559 554.962 49.4472 54.8705 531.939 34.2568 116.251 31.5103 63.5617 42.7646 415.688 44.3166 44.0614 371.371 343.578
internal_count=3403 1492 1911 1433 1294 469 213 139 1726 825 648 398 250 155 289 224 1637 177 185 1560 109 329 114 256 164 1231 142 138 1089 1000
is_linear=0
shrinkage=0.03


Tree=26
num_leaves=31
num_cat=0
split_feature=21 56 20 88 13 20 10 13 69 79 76 70 40 25 12 29 88 14 33 20 12 6 10 87 6 11 15 84 15 32
split_gain=22.8212 14.9369 13.9441 15.1728 13.1559 12.5882 13.8672 10.9092 12.5027 13.4781 11.9177 11.9898 11.0184 10.6944 10.182 10.1543 13.1396 12.9963 17.7753 11.9783 10.0724 10.8611 10.2052 11.4315 10.0182 11.6187 10.0592 9.88382 9.79336 9.26699
threshold=0.004647460356162765 0.71157540000141661 0.0048250198788135712 0.054342667299477933 3.0255418697339533 0.0030943793686763654 -0.0025950378469873909 3.661497895763826 1.9496324954633424 0.072172619047623718 2.031308362347708 0.37013581918250754 0.0018420916570694081 0.0070699905375585246 0.11163848333084016 0.010684234984629783 0.036167429692609554 6.0112000154665912 0.0022544177259731599 0.0026152416183812689 0.094739148484708671 0.053062068728221397 -0.0053017019589366434 0.11579414374445432 0.12830228191844209 0.11136475045882434 0.47781320304633829 0.4845579495972252 0.37252671836699081 0.003442120334645899
decision_type=2 2 2 2 2 2 2 2 2 2 2 2 2 2 2 2 2 2 2 2 2 2 2 2 2 2 2 2 2 2
left_child=15 2 3 5 -5 7 24 28 9 -9 11 27 -12 14 -4 16 17 -1 -19 -17 -13 -22 23 -23 25 26 -7 -11 -2 -15
right_child=1 -3 13 4 -6 6 -8 8 -10 10 12 20 -14 29 -16 19 -18 18 -20 -21 21 22 -24 -25 -26 -27 -28 -29 -30 -31
leaf_value=0.012642756343740251 -0.0021715823575816609 -0.011539799254554209 0.013523760722941461 -0.024367998630965886 0.0067350272997207918 0.01722707881800355 -0.023018495376777533 -0.017884392871146362 0.019232517503947062 0.009477540338025137 0.006284350172987339 0.026221738336233407 -0.028370391830073095 0.0021059901168067022 0.034454750241591094 -0.0071942118108156332 -0.034407507663565283 -0.036876995651051424 0.0022078996058667055 0.022117088959219759 -0.0068379665861155832 0.030056672191526586 0.0017587954389142707 0.007528235061087879 0.024133453682401294 -0.01644912943396561 -0.010605591445558494 -0.020150910839245161 0.022156693845791064 0.017160029974153897
leaf_weight=25.556745946407318 16.578058645129204 25.419662728905678 42.360700622200966 20.557248905301094 25.31775127351284 33.963730856776237 16.568636670708656 17.821259766817093 84.247096851468086 18.692518323659897 17.138931736350063 39.868318974971771 12.964478924870489 55.346206068992615 49.213095963001251 23.228168711066246 13.446904823184012 15.662237599492071 25.210053578019142 23.516525492072105 28.990606993436813 41.599529668688774 46.839205041527748 41.215896904468536 18.094836831092834 23.3155607432127 15.696787074208258 18.100505039095879 119.9287211149931 111.63008204102516
leaf_count=86 55 93 128 88 85 102 64 66 248 59 55 116 51 177 125 89 63 71 92 75 98 111 157 128 49 82 56 69 342 323
internal_value=0.00887252 0.0104782 0.011113 0.00874479 -0.00763842 0.0099945 0.000665653 0.0119764 0.00919864 0.00610013 0.00783232 0.0101081 -0.00947788 0.0170222 0.0252684 -0.0030438 -0.00945759 -0.00354908 -0.013791 0.00785428 0.0130048 0.00939823 0.0130774 0.0192865 0.00537659 0.000206015 0.00835967 -0.00538574 0.0192135 0.0122542
internal_weight=1068.09 941.469 916.05 657.5 45.875 611.625 107.64 503.985 367.478 283.231 265.41 235.307 30.1034 258.55 91.5738 126.621 79.8759 66.429 40.8723 46.7447 198.514 158.645 129.655 82.8154 91.0709 72.9761 49.6605 36.793 136.507 166.976
internal_count=3403 2927 2834 2081 173 1908 353 1555 1158 910 844 738 106 753 253 476 312 249 163 164 610 494 396 239 289 240 158 128 397 500
is_linear=0
shrinkage=0.03


Tree=27
num_leaves=31
num_cat=0
split_feature=21 68 10 44 79 15 15 49 5 75 39 32 38 15 53 89 90 65 14 85 47 7 45 22 68 7 71 89 56 84
split_gain=21.5505 14.1337 23.171 14.2757 15.5755 17.1249 16.0799 12.1302 11.0195 10.6206 12.9057 11.6734 13.4544 12.8648 12.7401 9.78963 9.61424 10.3787 17.4574 10.3408 9.73615 10.5068 9.53533 9.39825 13.0663 12.9232 10.8462 10.6061 10.3887 9.87246
