tree
version=v4
num_class=1
num_tree_per_iteration=1
label_index=0
max_feature_idx=114
objective=binary sigmoid:1
feature_names=ret_1 ret_2 ret_3 ret_6 ret_12 ret_24 ret_48 ret_96 dd_8 dd_24 dd_96 runup_24 runup_96 volr_20 volr_48 tsell tsell_ma8 close_pos body uwick lwick retstd_20 atr_14 dist_ema8 dist_ema21 ema_spread accel new_high_96 consec r_ret_1 r_cpos_1 r_body_1 r_uw_1 r_lw_1 r_volr_1 r_ts_1 r_ret_2 r_cpos_2 r_body_2 r_uw_2 r_lw_2 r_volr_2 r_ts_2 r_ret_3 r_cpos_3 r_body_3 r_uw_3 r_lw_3 r_volr_3 r_ts_3 r_ret_4 r_cpos_4 r_body_4 r_uw_4 r_lw_4 r_volr_4 r_ts_4 r_ret_5 r_cpos_5 r_body_5 r_uw_5 r_lw_5 r_volr_5 r_ts_5 r_ret_6 r_cpos_6 r_body_6 r_uw_6 r_lw_6 r_volr_6 r_ts_6 r_ret_7 r_cpos_7 r_body_7 r_uw_7 r_lw_7 r_volr_7 r_ts_7 r_ret_8 r_cpos_8 r_body_8 r_uw_8 r_lw_8 r_volr_8 r_ts_8 ctx_bars_since_entry ctx_hours_since_entry ctx_ret_since_entry ctx_high_since_entry ctx_low_since_entry ctx_drawdown_from_entry_high ctx_qv_sum_ratio ctx_qv_recent_ratio ctx_taker_sell_mean ctx_red_bar_share ctx_new_high_since_entry behavior_acceleration behavior_climax_risk behavior_distribution behavior_breakdown behavior_pullback_risk behavior_trend_hold behavior_neutral_watch slow_noise slow_amp slow_ret slow_drawdown slow_drawdown_over_amp slow_drawdown_over_noise slow_hours_log slow_sell_pressure slow_range_pressure slow_ret6_over_noise slow_dist21_over_noise slow_maturity
feature_infos=[-0.17474317733734557:0.32515337423312873] [-0.18718362950996226:0.64601006470165334] [-0.18524501884760369:0.64553686934023302] [-0.20382842963488135:0.72881601857225786] [-0.19919135993589154:1.0187304890738815] [-0.20914569301666086:1.903715937241949] [-0.19288135593220335:2.6245763488137768] [-0.18652009371057843:2.9312920089619117] [-0.21620806381338609:0] [-0.21965722280517663:0] [-0.21989408243149888:-0.00046468401486987609] [0:1.9270404128688559] [0:3.0167810831426394] [0.057014817793548528:15.06534374640691] [0.044485026986503209:28.717730610925319] [0.10829505313523657:0.87667279423358813] [0.34995223115139618:0.69183747170519105] [0:1] [-0.17480026285753814:0.32699663846064692] [0:0.17207313476850494] [0:0.18114269517330736] [0.0012898792169650653:0.14113681959928351] [0.002507268586645712:0.25607349386773021] [-0.10999638736697692:0.38844223271927181] [-0.1232155434517147:0.57857722467854877] [-0.056068354367249662:0.24254830204724809] [-0.65674541499032457:0.63537279209324593] none [-3:3] [-0.21949614846898213:0.45251721796488509] [0:1] [-0.21947475190525786:0.45220730855768504] [0:0.18043478260869567] [0:0.18114269517330736] [0.057014817793548528:15.06534374640691] [0.10829505313523657:0.88328204402557542] [-0.16975517381306637:0.45251721796488509] [0:1] [-0.16963162380443461:0.45220730855768504] [0:0.28649015614392409] [0:0.22606924643584519] [0.057014817793548528:15.06534374640691] [0.10829505313523657:0.88328204402557542] [-0.17474317733734557:0.45251721796488509] [0:1] [-0.17480026285753814:0.45220730855768504] [0:0.18043478260869567] [0:0.17954153968464298] [0.057014817793548528:17.263256542394771] [0.10829505313523657:0.88328204402557542] [-0.21949614846898213:0.45251721796488509] [0:1] [-0.21947475190525786:0.45220730855768504] [0:0.28649015614392409] [0:0.22606924643584519] [0.057014817793548528:15.06534374640691] [0.10829505313523657:0.88328204402557542] [-0.21949614846898213:0.45251721796488509] [0:1] [-0.21947475190525786:0.45220730855768504] [0:0.17207313476850494] [0:0.18114269517330736] [0.057014817793548528:15.06534374640691] [0.10829505313523657:0.88328204402557542] [-0.21949614846898213:0.45251721796488509] [0:1] [-0.21947475190525786:0.45220730855768504] [0:0.18043478260869567] [0:0.18114269517330736] [0.057014817793548528:15.06534374640691] [0.10829505313523657:0.88328204402557542] [-0.21949614846898213:0.45251721796488509] [0:1] [-0.21947475190525786:0.45220730855768504] [0:0.28649015614392409] [0:0.22606924643584519] [0.057014817793548528:17.263256542394771] [0.10829505313523657:0.84541651046295274] [-0.21949614846898213:0.45251721796488509] [0:1] [-0.21947475190525786:0.45220730855768504] [0:0.18043478260869567] [0:0.18114269517330736] [0.057014817793548528:15.06534374640691] [0.10829505313523657:0.84541651046295274] [72:288] [18:72] [-0.059727971614429332:2.8935226264418814] [0.1007338225483656:3.2413487133984029] [-0.47395833333333326:-0.014890710382513772] [-0.21989408243149888:-0.035015060240963791] [0.1628822316994129:178.16188928308455] [0.028048537922148561:244.89818324791054] [0.47067552480936337:0.54527778597394028] [0.34254143646408841:0.5864661654135338] none [0:1] [0:1] [0:1] [0:1] [0:1] [0:1] [0:1] [0.0060000000000000001:0.10000000000000001] [0.1007338225483656:3.2413487133984029] [-0.059727971614429332:2.8935226264418814] [0.035015060240963791:0.21989408243149888] [0.017309525906056267:1.4331584422960766] [0.42952726060885726:36.287831995058674] [2.9444389791664403:4.290459441148391] [0:0.15298799073769204] [0:0.13234755677120927] [-5.1029729716761461:8.7009629526853605] [-4.360143199408399:6.4485816393378652] [2.0766538712648748:15.043011342034962]
tree_sizes=2687 2714 2734 2724 2724 2727 2725 2737 2736 2733 2751 2730 2735 2739 2745 2750 2741 2732 2736 2740 2732 2740 2737 2739 2743 2732 2745 2745 2743 2730 2744 2732 2730 2748 2743 2746 2745 2747 2753 2738 2742 2737 2737 2739 2744 2744 2741 2746 2747 2735 2737 2747 2737 2753 2748 2740 2760 2733 2745 2740 2736 2727 2732 2747 2747 2722 2740 2734 2741 2742 2751 2741 2743 2746 2742 2742 2741 2737 2749 2758 2730 2744 2742 2746 2724 2750 2756 2742 2750 2740 2742 2738 2750 2743 2737 2757 2721 2749 2759 2734 2745 2733 2744 2743 2745 2739 2733 2741 2730 2736 2738 2729 2756 2727 2762 2747 2747 2748 2732 2751 2760 2734 2750 2744 2770 2751 2737 2743 2755 2745 2754 2731 2714 2725 2753 2762 2747 2722 2741 2750 2742 2732 2756 2738 2742 2740 2746 2756 2741 2743 2740 2745 2743 2737 2755 2770 2753 2752 2756 2754 2743 2756 2748 2750 2751 2728 2746 2745 2753 2765 2728 2754 2747 2746 2752 2721 2754 2763 2752 2770 2750 2740 2725 2762 2743 2732 2759 2766 2742 2722 2756 2754 2751 2742 2741 2761 2729 2741 2748 2737 2735 2755 2745 2757 2744 2759 2757 2735 2743 2739 2748 2758 2740 2757 2756 2744 2733 2744 2742 2739 2762 2762 2743 2739 2741 2739 2751 2759 2755 2754 2733 2763 2753 2739 2759 2720 2749 2750 2743 2755 2728 2735 2730 2757 2749 2733 2745 2746 2755 2745 2770 2736 2749 2740 2727 2750 2759 2753 2762 2760 2736 2723 2746 2740 2762 2740 2743 2755 2763 2744 2775 2748 2725 2748 2752 2742 2764 2760 2736 2743 2770 2743 2760 2752 2750 2751 2743 2747 2750 2760 2744 2756 2752 2746 2761 2747 2751 2761 2738 2723 2759 2751 2757 2740 2748 2724 2774 2759 2750 2742 2758 2739 2775 2744 2746 2737 2760 2768 2774 2747 2734 2741 2741 2746 2742 2779 2759 2734 2747 2742 2739 2762 2742 2722 2749 2739 2746 2762 2732 2755 2748 2760 2742 2754 2746 2751 2728 2747 2756 2744 2742 2739 2755 2748 2757 2747 2736 2761 2750 2733 2754 2739 2723 2750 2745 2768 2768 2741 2732 2772 2739 2760 2748 2741 2749 2766 2739 2757 2767 2762 2751 2754 2768 2744 2745 2741 2773 2760 2756 2777 2760 2748 2750 2747 2751 2733 2745 2738 2773 2726 2736 2746 2754 2758 2750 2749 2755 2746 2760 2766 2732 2744 2741 2772 2749 2737 2740 2751 2761 2756 2757 2739 2752 2756 2766 2771 2751 2739 2745 2747 2748 2751 2758 2720 2748 2732 2765 2753 2739 2732 2755 2773 2729 2749 2747 2762 2742 2758 2759 2723 2761 2753 2738 2763 2727 2737 2770 2741 2741 2715 2734 2750 2727 2737 2758 2748 2755 2751 2782 2735 2731 2747 2766 2738 2758 2763 2757 2745 2769 2748 2764 2777 2767 2757 2757 2778 2740 2748 2751 2755 2747 2752 2751 2764 2751 2744 2762 2764 2763 2755 2768 2740 2742 2742 2762 2764 2749 2777 2743 2736 2753 2740 2756 2748 2739 2768 2751 2761 2766 2766

Tree=0
num_leaves=24
num_cat=0
split_feature=89 91 111 106 93 90 10 89 91 85 89 89 94 93 93 107 93 85 92 12 91 10 92
split_gain=1821.25 1437.07 692.987 366.564 389.163 279.51 232.994 203.05 200.202 193.541 219.79 283.24 192.752 188.203 179.385 206.164 187.062 229.3 165.703 143.648 135.312 130.318 129.763
threshold=-0.087474943096760502 9.0831075746303807 0.015633386948055248 0.1250461303262291 0.49717592897888191 -0.075815921527709926 -0.03381792428481805 -0.036829142203850744 3.4150949034834608 177.50000000000003 -0.064600701791023382 -0.076018086091585765 0.48054242577210776 0.48741636855000153 0.52193176677568809 0.22142832394331627 0.49512586181097595 238.50000000000003 2.7953861338884702 0.16118342190337234 5.3514593018931906 -0.17510371125065574 6.2527103269650466
decision_type=2 2 2 2 2 2 2 2 2 2 2 2 2 2 2 2 2 2 2 2 2 2 2
left_child=14 2 3 4 7 -3 -6 12 -5 13 11 -11 18 20 15 16 -1 -18 -2 -16 -4 -12 -7
right_child=1 5 9 8 6 22 -8 -9 -10 10 21 -13 -14 -15 19 -17 17 -19 -20 -21 -22 -23 -24
leaf_value=-0.48476503308448471 -0.46661414868941259 -0.47329037358737402 -0.47616547294712669 -0.42982369421311473 -0.40561740208727159 -0.47997362110149239 -0.43746993949113866 -0.38984916355025656 -0.46639935353678647 -0.41579932503820749 -0.47561313140990791 -0.47883280038767329 -0.42115177506146573 -0.46744823555613346 -0.48327370322496743 -0.47910909463310219 -0.46212262785121938 -0.40406890755472391 -0.42717666493317091 -0.4003183172640023 -0.39242477407024062 -0.41089983355942067 -0.43499894300727143
leaf_weight=73.86094942688942 177.15123727917671 508.78705403208733 15.280529916286467 419.64446473121643 1500.8818756937981 45.230823487043381 162.01111072301865 58.431258052587509 117.70460680127144 69.648858845233917 19.5925632417202 112.29242280125618 226.37047505378723 301.00396731495857 16.776462763547897 686.28093186020851 100.11252531409264 69.77279007434845 102.6416103541851 37.512186676263809 36.659898459911346 190.8537372648716 238.15583211183548
leaf_count=305 682 2007 62 1389 4442 184 554 157 453 215 79 453 720 1162 70 2765 379 203 335 106 99 578 806
internal_value=-0.438893 -0.431875 -0.425015 -0.419253 -0.414783 -0.462255 -0.408692 -0.432849 -0.437879 -0.44643 -0.434404 -0.454531 -0.438141 -0.459822 -0.469529 -0.472121 -0.452336 -0.437887 -0.452052 -0.426325 -0.417115 -0.417192 -0.44241
internal_weight=5286.66 4302.34 3510.17 2764.84 2227.49 792.174 1662.89 564.595 537.349 745.332 392.388 181.941 506.163 352.944 984.316 930.027 243.746 169.885 279.793 54.2886 51.9404 210.446 283.387
internal_count=18205 14377 11380 8732 6890 2997 4996 1894 1842 2648 1325 668 1737 1323 3828 3652 887 582 1017 176 161 657 990
is_linear=0
shrinkage=1


Tree=1
num_leaves=24
num_cat=0
split_feature=89 91 111 106 93 93 10 106 91 89 85 89 88 94 94 114 93 107 93 85 92 12 92
split_gain=1727.77 1358.14 662.598 349.825 370.392 252.34 217.522 210.536 196.316 191.499 188.916 206.949 270.807 184.537 181.093 191.801 171.351 198.319 179.145 216.294 151.76 136.223 127.529
threshold=-0.087474943096760502 9.5977193844104409 0.015633386948055248 0.1250461303262291 0.49717592897888191 0.51667504513778495 -0.03381792428481805 0.069590096581148633 3.4150949034834608 -0.036829142203850744 177.50000000000003 -0.064600701791023382 0.17167140488036006 0.48054242577210776 0.55400544429321419 3.3298660022713853 0.52193176677568809 0.22142832394331627 0.49512586181097595 238.50000000000003 2.7953861338884702 0.16118342190337234 17.137175556631984
decision_type=2 2 2 2 2 2 2 2 2 2 2 2 2 2 2 2 2 2 2 2 2 2 2
left_child=16 2 3 4 9 7 -6 22 -5 13 14 12 -12 20 -4 -16 17 18 -1 -20 -2 -18 -3
right_child=1 5 10 8 6 -7 -8 -9 -10 -11 11 -13 -14 -15 15 -17 21 -19 19 -21 -22 -23 -24
leaf_value=-0.033664816440936211 -0.015741196619880538 -0.015621165640231451 -0.017425384596339445 0.020105647234467856 0.043425902837000117 0.044453545206858285 0.012707624280111039 -0.024383650544677907 -0.015920750219639561 0.05852894246443633 0.045606855175477828 0.032282712141006149 -0.02207681938464862 0.028477581522062298 -0.03486096378878295 0.057135517345655952 -0.032252218534422263 -0.028047366439974242 -0.011335929251067117 0.044922893313321131 0.021719686197478827 0.048571580074497099 0.021445134693177381
leaf_weight=73.282602429389954 176.51047313213348 104.21593232452869 296.02023713290691 421.53120365738869 1522.2191931754351 43.982900053262711 162.47408965229988 502.63027311861515 119.17669059336185 59.170049577951431 47.587692096829414 211.94588503241539 134.14846341311932 227.8019210100174 18.218377411365509 42.307568281888962 16.650993511080742 681.81825722754002 99.852665826678276 70.45842182636261 105.42329037189484 37.909006237983704 123.62426400184631
leaf_count=305 682 401 1151 1389 4462 129 554 2007 461 157 137 657 531 720 77 113 70 2765 379 203 344 106 405
internal_value=0.0113235 0.0181224 0.0246719 0.0302676 0.0345996 -0.0118334 0.0404912 -0.0153905 0.0121211 0.0170319 0.00379276 0.015676 -0.003901 0.0119007 -0.00934946 0.0291059 -0.0186049 -0.0211559 -0.00176 0.0123133 -0.00165228 0.0235098 0.00450804
internal_weight=5298.96 4318.99 3544.54 2794.31 2253.6 774.453 1684.69 730.47 540.708 568.906 750.228 393.682 181.736 509.736 356.546 60.5259 979.972 925.412 243.594 170.311 281.934 54.56 227.84
internal_count=18205 14377 11435 8769 6919 2942 5016 2813 1850 1903 2666 1325 668 1746 1341 190 3828 3652 887 582 1026 176 806
is_linear=0
shrinkage=0.025


Tree=2
num_leaves=24
num_cat=0
split_feature=89 91 106 93 111 89 92 106 89 85 89 93 10 91 89 91 93 107 93 85 94 111 12
split_gain=1640.22 1283.59 627.019 316.37 316.884 304.09 258.616 241.483 215.435 229.198 211.041 203.364 202.948 199.56 187.815 288.645 163.743 190.786 171.642 204.29 130.387 156.195 129.357
threshold=-0.087474943096760502 9.5977193844104409 0.1250461303262291 0.49769724265513121 0.015388849939386299 -0.048700328199771485 0.97048710264979288 0.10591708186545669 -0.075391990122505956 183.50000000000003 -0.080123096114911793 0.51667504513778495 -0.03381792428481805 0.98566492498359748 -0.036531300107862479 2.4713539330322445 0.52193176677568809 0.22142832394331627 0.49512586181097595 238.50000000000003 0.56012048192771091 0.00065492963806134525 0.16118342190337234
decision_type=2 2 2 2 2 2 2 2 2 2 2 2 2 2 2 2 2 2 2 2 2 2 2
left_child=16 2 3 5 12 10 8 11 -4 13 -2 -3 -5 -10 15 -6 17 18 -1 -20 21 -8 -18
right_child=1 7 6 4 14 -7 20 -9 9 -11 -12 -13 -14 -15 -16 -17 22 -19 19 -21 -22 -23 -24
leaf_value=-0.033121659007487619 0.048583192708706931 -0.0044476088607519884 -0.021635605195317487 0.042395085589910356 0.035990650165563638 0.038929123945683215 0.027217828017788215 -0.027634846630226403 0.03492140463897165 0.043402519348792454 -0.0020588182166867137 0.057423380127710623 0.012407581611363216 -0.035293702171044015 0.041161825667245626 -0.02228135543928135 -0.031783316652405379 -0.027536808103346952 -0.011089153013775405 0.043486299101365429 0.045156314520271627 -0.014370660825778772 0.047045873821378703
leaf_weight=72.679037824273109 55.538301005959511 408.69625927507877 59.009030863642693 1491.4028791934252 81.535181924700737 230.76371794939041 62.243848070502281 330.35331158339977 44.268900588154793 220.59855981171131 421.93547911942005 33.116254687309265 159.12496942281723 51.449076995253563 93.353906601667404 140.00121912360191 16.520135000348091 677.2121192663908 99.592975363135338 71.05763652920723 26.615413546562195 422.98492835462093 38.252711787819862
leaf_count=305 158 1509 231 4327 247 686 197 1345 134 647 1530 88 541 213 276 555 70 2765 379 203 74 1619 106
internal_value=0.0110215 0.0176137 0.0239468 0.0299846 0.0351497 0.0155635 0.00571077 -0.0115708 0.0213893 0.0295435 0.00409827 0.000545968 0.0395318 -0.00274533 0.012024 -0.000640363 -0.0182296 -0.0207404 -0.00172043 0.0119943 -0.00584364 -0.00890134 0.0228543
internal_weight=5308.31 4332.99 3560.83 2673.66 1965.42 708.237 887.17 772.166 375.326 316.317 477.474 441.813 1650.53 95.718 314.89 221.536 975.315 920.542 243.33 170.651 511.844 485.229 54.7728
internal_count=18205 14377 11435 8320 5946 2374 3115 2942 1225 994 1688 1597 4868 347 1078 802 3828 3652 887 582 1890 1816 176
is_linear=0
shrinkage=0.025


Tree=3
num_leaves=24
num_cat=0
split_feature=111 91 93 106 10 12 10 106 6 91 87 10 92 107 88 91 88 114 22 85 94 88 88
split_gain=1059.58 682.354 360.448 365.362 277.899 219.39 199.785 162.574 162.498 152.795 206.245 217.476 143.096 149.826 136.12 189.515 131.884 198.745 188.875 129.906 164.58 199.255 143.106
threshold=0.015388849939386299 10.041470357392251 0.49782429986836901 0.1497685733756958 -0.073455152526938836 0.036023773048507908 -0.03381792428481805 0.069590096581148633 0.063845166394256317 1.0238159356206746 0.051298765140933462 -0.086631343237551436 0.16767027090502432 0.82361167310977546 0.42820903426675244 4.8971913518578125 0.18676701743539162 3.2799201759147301 0.016291754436943879 246.50000000000003 0.55400544429321419 0.18706973039126121 0.11727326475272239
decision_type=2 2 2 2 2 2 2 2 2 2 2 2 2 2 2 2 2 2 2 2 2 2 2
left_child=1 2 12 6 19 -6 9 8 -3 -4 11 -11 -1 16 -12 -16 17 -14 -18 20 22 -22 -2
right_child=4 7 3 -5 5 -7 -8 -9 -10 10 14 -13 13 -15 15 -17 18 -19 -20 -21 21 -23 -24
leaf_value=0.05390979670990316 0.052393008928782993 -0.031065731764638078 0.049597593633179345 -0.007621250606704974 0.043927293151738434 0.0018472462059663849 0.0052165316899001751 -0.028111404006683133 0.02368470730584735 0.027256981161466826 0.036301401576179941 -0.018581533843956523 -0.00060661554920121014 -0.031660096008041809 -0.014994065996921907 0.040469913251185402 -0.027611173322062966 0.04347022590203297 0.0095097642580542676 0.0033733312406425218 -0.03103639052767386 0.051669621072168707 -0.02152283682283046
leaf_weight=40.294303044676781 13.934634193778036 47.472889885306358 287.83846397697926 170.62568713724613 90.874591335654259 443.90599845349789 182.58365775644779 212.24335694313049 100.3740398734808 161.64190484583378 1212.1862477660179 103.88799068331718 110.70409168303013 54.924827456474304 80.873630821704865 68.558250218629837 98.394730523228645 148.08613704144955 550.60206104815006 249.23781310021877 27.729473873972893 42.612831473350525 815.80948555469513
leaf_count=108 38 196 800 632 261 1599 641 871 325 505 3606 397 398 224 307 197 395 430 1903 890 116 114 3252
internal_value=0.0107332 0.0183298 0.0219249 0.0274404 -0.00565033 0.00920301 0.0302993 -0.0142399 0.00583642 0.0326789 0.0296003 0.00931553 0.00940735 0.00738302 0.0335268 0.0107481 0.00984179 0.0248244 0.00378069 -0.0125676 -0.0169782 0.0191304 -0.0200972
internal_weight=5315.4 3631.29 3271.2 2268.2 1684.1 534.781 2097.57 360.09 147.847 1914.99 1627.15 265.53 1003.01 962.712 1361.62 149.432 907.787 258.79 648.997 1149.32 900.086 70.3423 829.744
internal_count=18205 11935 10543 7085 6270 1860 6453 1392 521 5812 5012 902 3458 3350 4110 504 3126 828 2298 4410 3520 230 3290
is_linear=0
shrinkage=0.025


Tree=4
num_leaves=24
num_cat=0
split_feature=89 91 106 93 89 111 92 90 89 85 89 93 91 89 88 89 91 93 107 93 85 93 88
split_gain=1532 1158.75 564.904 280.468 284.998 277.274 239.326 229.2 198.635 211.395 192.245 192.093 186.149 180.014 507.216 173.893 271.04 155.885 182.943 163.78 191.688 153.722 150.605
threshold=-0.087474943096760502 9.5977193844104409 0.1250461303262291 0.49769724265513121 -0.048700328199771485 0.015388849939386299 0.97048710264979288 -0.10662723614115892 -0.075391990122505956 183.50000000000003 -0.080123096114911793 0.51667504513778495 0.98566492498359748 -0.037477655405400982 0.16143679170824912 -0.036531300107862479 2.4713539330322445 0.52193176677568809 0.22142832394331627 0.49512586181097595 238.50000000000003 0.51082006285002601 0.47258618561790361
decision_type=2 2 2 2 2 2 2 2 2 2 2 2 2 2 2 2 2 2 2 2 2 2 2
left_child=17 2 3 4 10 13 8 -3 -4 12 -2 -9 -10 22 -15 16 -7 18 19 -1 -21 -16 -5
right_child=1 7 6 5 -6 15 -8 11 9 -11 -12 -13 -14 14 21 -17 -18 -19 -20 20 -22 -23 -24
leaf_value=-0.032601838972289618 0.045877109815269268 -0.027000623620005767 -0.021038783795012752 0.043537218547453925 0.037382560624990728 0.0346592679650959 -0.0057133276638083397 -0.0042437848752222614 0.033178624783591452 0.041386050094842204 -0.0021388383245170544 0.055608641875888855 -0.034600774181793456 -0.01844139307427576 0.048436708111273513 0.039502736235305036 -0.021736389873016945 0.0221076148324778 -0.027066880872562656 -0.010870158465009503 0.041897994156021467 -0.022129143341494448 0.0013125831607996355
leaf_weight=72.051231950521469 56.420920133590698 322.53206621110439 58.60730816423893 1242.5382393747568 232.77315211296082 82.216891124844551 510.78176541626453 411.44784134626389 44.75686015188694 223.15172572433949 422.09597657620907 33.46295952796936 50.938825711607933 127.39100386202335 224.76750428974628 94.258208125829697 139.04523262381554 54.954095363616943 672.60299248993397 99.343504756689072 71.659176602959633 19.378166005015373 55.329170942306519
leaf_count=305 158 1330 231 3508 686 247 1890 1524 134 647 1530 88 213 480 615 276 555 176 2765 379 203 74 191
internal_value=0.0104523 0.0167858 0.0227518 0.0284434 0.0148828 0.0332731 0.00543757 -0.0110595 0.0204533 0.028205 0.00377318 0.000600182 -0.00285543 0.0373333 0.0217135 0.0116412 -0.000597495 -0.0179091 -0.0203751 -0.00175258 0.0115836 0.0426352 0.0417443
internal_weight=5322.5 4351.89 3584.45 2696.21 711.29 1984.92 888.236 767.443 377.455 318.847 478.517 444.911 95.6957 1669.4 371.537 315.52 221.262 970.611 915.657 243.054 171.003 244.146 1297.87
internal_count=18205 14377 11435 8320 2374 5946 3115 2942 1225 994 1688 1612 347 4868 1169 1078 802 3828 3652 887 582 689 3699
is_linear=0
shrinkage=0.025


Tree=5
num_leaves=24
num_cat=0
split_feature=89 91 90 93 111 89 90 88 114 89 93 10 89 91 91 89 93 107 93 85 88 7 89
split_gain=1456.24 1097.49 515.196 253.659 259.685 246.792 237.676 222.089 232.394 182.84 177.291 175.795 173.232 254.656 162.251 272.465 149.137 176.007 157.059 181.501 130.155 178.244 149.544
threshold=-0.087474943096760502 9.0831075746303807 -0.12469913994051927 0.49744885262644883 0.015388849939386299 -0.048700328199771485 -0.10662723614115892 0.14496097324272764 3.8662963946768545 -0.080123096114911793 0.51667504513778495 -0.03381792428481805 -0.036531300107862479 2.4713539330322445 2.0354763450093292 -0.072147439770430075 0.52193176677568809 0.22142832394331627 0.49512586181097595 238.50000000000003 0.2957362611942766 0.5907762420003978 -0.042222127629934318
decision_type=2 2 2 2 2 2 2 2 2 2 2 2 2 2 2 2 2 2 2 2 2 2 2
left_child=16 2 7 5 11 9 -3 -2 -9 -4 -8 -5 13 -6 15 -10 17 18 -1 -20 22 -22 -16
right_child=1 6 3 4 12 -7 10 8 14 -11 -12 -13 -14 -15 20 -17 -18 -19 19 -21 21 -23 -24
leaf_value=-0.032099377107179236 0.042553579792222407 -0.026657029699457019 0.044824920494449888 0.038706653301915535 0.032813827487181806 0.035727914256320985 -0.0033521239389944614 -0.026688819902082935 -0.037127628042363019 -0.0020583368460258232 0.053881751194587948 0.011038317074647563 0.038780941978183152 -0.021612346918903624 0.021533646631177586 0.037979209491402155 0.021502194992361754 -0.026586084599735684 -0.010633570801143336 0.040656390368807228 -0.022825132333452271 0.052168525144365346 -0.027196326759667377
leaf_weight=71.404704555869102 88.711549744009972 326.3869001865387 56.592068612575531 1520.3633680939674 83.659139528870583 225.34383262693882 420.57918168604374 146.30847449600697 33.718471884727478 405.798961982131 33.764208823442459 161.67775957286358 96.192669317126274 138.40741623938084 191.34322959184647 178.27912443876266 55.170520484447479 667.76297728717327 99.085008591413498 72.087357878684998 187.14931696653366 19.262708872556686 46.628320083022118
leaf_count=305 255 1356 157 4340 251 662 1553 591 143 1472 88 545 279 556 619 524 176 2765 379 203 745 52 189
internal_value=0.0101859 0.0163369 0.0221916 0.027649 0.0321551 0.01446 -0.0104876 0.00569744 0.00148089 0.00393167 0.00122672 0.0360716 0.0113125 -0.00094429 0.00785283 0.025682 -0.0175561 -0.019986 -0.0017147 0.0112949 -0.000767932 -0.0151795 0.0117657
internal_weight=5325.68 4360.17 3579.44 2688.04 2000.3 687.735 780.73 891.401 802.69 462.391 454.343 1682.04 318.259 222.067 656.381 211.998 965.511 910.34 242.577 171.172 444.384 206.412 237.972
internal_count=18205 14377 11380 8262 5971 2291 2997 3118 2863 1629 1641 4885 1086 807 2272 667 3828 3652 887 582 1605 797 808
is_linear=0
shrinkage=0.025


Tree=6
num_leaves=24
num_cat=0
split_feature=111 91 93 106 10 12 10 108 91 91 88 110 92 90 114 94 88 85 88 12 11 88 88
split_gain=899.78 585.829 299.431 320.308 252.592 191.787 176.041 168.721 140.506 125.08 198.87 132.781 124.248 122.799 121.308 119.678 173.121 152.357 132.148 110.406 104.056 111.674 185.25
threshold=0.015388849939386299 10.041470357392251 0.49782429986836901 0.1497685733756958 -0.073455152526938836 0.036023773048507908 -0.03381792428481805 2.7560952272435149 1.0238159356206746 4.3037791693100145 0.42820903426675244 0.050013388226003187 0.16767027090502432 -0.073055853709618299 5.6253675835166712 0.56012048192771091 0.18706973039126121 246.50000000000003 0.11727326475272239 0.25481673869741633 0.033830642663392647 0.13669818585183938 0.11727326475272239
decision_type=2 2 2 2 2 2 2 2 2 2 2 2 2 2 2 2 2 2 2 2 2 2 2
left_child=1 2 12 6 15 -6 8 -3 19 10 14 -11 -1 -7 20 17 -17 18 -2 -4 21 22 -10
right_child=4 7 3 -5 5 13 -8 -9 9 11 -12 -13 -14 -15 -16 16 -18 -19 -20 -21 -22 -23 -24
leaf_value=0.049834261236466219 0.05034874121626013 0.0056670541064259283 0.050388542761386469 -0.007698950406989067 0.0410939571675017 -0.025761925427625523 0.0043365330876190787 -0.028733468425365595 0.030857537463842111 0.041589667840748641 -0.017282180067979176 -0.023998303498279916 0.0068624651969131341 0.0081196418634579236 0.047221504636203393 -0.033982571896106754 0.052689921924230811 0.0033645857214007653 -0.020267742300629471 -0.0075345731198551355 0.010913295183796128 0.032266760025810644 -0.037510214871295945
leaf_weight=41.100366801023483 14.126422435045241 158.85637448728085 270.68755865097046 170.40813112258911 92.150086671113968 78.776234000921249 183.69598367810249 197.53260941803455 57.785930544137955 415.54110677540302 70.615721091628075 18.364774018526077 964.49916382133961 363.76054833829403 138.88265800476074 19.825734198093414 37.484675258398056 248.62094041705132 818.1179601252079 21.454026475548744 342.99602319300175 562.42719219624996 38.824158743023872
leaf_count=108 38 563 720 632 261 321 641 829 171 1161 271 70 3350 1278 380 86 97 890 3299 80 1137 1659 163
internal_value=0.00993111 0.0168795 0.0201702 0.0251583 -0.00524775 0.00889243 0.0278049 -0.0134805 0.0300198 0.0270858 0.0228524 0.038668 0.00876179 0.00195551 0.0253753 -0.0118964 0.0225078 -0.0137778 -0.0188926 0.0461015 0.0222155 0.0280216 0.00308072
internal_weight=5326.53 3653.67 3297.28 2291.68 1672.86 534.687 2121.28 356.389 1937.58 1645.44 1211.53 433.906 1005.6 442.537 1140.92 1138.18 57.3104 1080.87 832.244 292.142 1002.03 659.037 96.6101
internal_count=18205 11935 10543 7085 6270 1860 6453 1392 5812 5012 3781 1231 3458 1599 3510 4410 183 4227 3337 800 3130 1993 334
is_linear=0
shrinkage=0.025


Tree=7
num_leaves=24
num_cat=0
split_feature=89 106 88 92 89 89 88 89 25 89 89 85 88 89 94 94 88 89 110 107 7 106 88
split_gain=1360.88 769.265 492.175 416.021 266.405 448.602 297.861 522.738 226.749 184.405 177.301 190.128 148.056 307.833 262.28 146.495 144.884 142.278 133.423 131.097 124.027 120.52 115.694
threshold=-0.087474943096760502 0.1250461303262291 0.47258618561790361 0.97048710264979288 -0.074876596716763541 -0.073865791078736961 0.16017081507527833 -0.040460567324996081 0.0070500893370084592 -0.048962967667657613 -0.075391990122505956 183.50000000000003 0.19084011544491045 -0.061485719173718416 0.46888959479044656 0.56012048192771091 0.1255434543770764 -0.040554328972556057 0.0056998336782679024 0.1369185270491444 0.69675700664521367 0.081152708779293883 0.29622967737142475
decision_type=2 2 2 2 2 2 2 2 2 2 2 2 2 2 2 2 2 2 2 2 2 2 2
left_child=19 2 4 10 -2 -6 7 -7 9 12 -3 17 -8 22 18 20 -9 -12 -15 -1 -5 -10 -14
right_child=1 3 -4 15 5 6 8 16 21 -11 11 -13 13 14 -16 -17 -18 -19 -20 -21 -22 -23 -24
leaf_value=0.0049710116924687568 0.045505283885275596 -0.020410975526171202 -0.00021035123453135205 -0.017163902123914911 -0.038284275677492645 0.032718516777800126 0.039562395359812062 0.010631043782300289 0.021797342033303919 0.044150161964696247 -0.025126579069039409 0.038594164653216849 0.050874832108813842 -0.028915069197116769 -0.03031537726329462 0.041203834540169529 -0.033689745060795494 0.036666200633340945 0.040923981639518929 -0.021051415976419696 0.03954507870214867 -0.0066488803866192247 0.0098810785875889356
leaf_weight=140.68247784674168 379.78205679357052 58.10467067360878 532.04696449637413 696.04201765358448 70.108592584729195 229.04747484624386 270.47787041962147 63.232367366552353 359.20035395026207 654.39168052375317 62.561471194028854 226.1274680942297 132.25404173135757 19.795189291238785 116.11687412858009 27.089079439640045 156.03447289764881 33.137847796082497 72.00674994289875 819.25087986886501 22.197065830230713 123.69705091416836 65.609823822975159
leaf_count=499 1048 231 1926 2758 296 676 763 209 1128 1799 252 647 352 81 469 74 635 95 203 3329 65 450 220
internal_value=0.00968045 0.0156017 0.0217753 -0.0022057 0.0260843 0.0228671 0.0248107 0.00651107 0.0293162 0.034643 0.0189942 0.0262315 0.0252889 0.0155543 -0.00569234 -0.0130452 -0.0209375 -0.00326545 0.0254262 -0.0172341 -0.0152541 0.0145146 0.0376323
internal_weight=5328.99 4369.06 3243.8 1125.26 2711.75 2331.97 2261.86 448.314 1813.55 1330.65 379.931 321.827 676.261 405.783 207.919 745.328 219.267 95.6993 91.8019 959.933 718.239 482.897 197.864
internal_count=18205 14377 10255 4122 8329 7281 6985 1520 5465 3887 1225 994 2088 1325 753 2897 844 347 284 3828 2823 1578 572
is_linear=0
shrinkage=0.025


Tree=8
num_leaves=24
num_cat=0
split_feature=89 91 106 93 111 89 92 93 89 85 91 89 106 89 88 89 89 93 93 107 93 85 88
split_gain=1294.67 958.478 462.279 225.12 230.933 228.699 199.715 197.464 168.427 179.288 168.998 167.146 155.937 151.771 459.374 149.331 222.598 144.509 143.169 164.653 150.662 168.672 139.121
threshold=-0.087474943096760502 10.041470357392251 0.1250461303262291 0.49717592897888191 0.015388849939386299 -0.048700328199771485 0.97048710264979288 0.51667504513778495 -0.075391990122505956 183.50000000000003 0.98566492498359748 -0.080123096114911793 0.069590096581148633 -0.039160275710649166 0.16143679170824912 -0.036531300107862479 -0.076018086091585765 0.51082006285002601 0.52193176677568809 0.22142832394331627 0.49512586181097595 238.50000000000003 0.47258618561790361
decision_type=2 2 2 2 2 2 2 2 2 2 2 2 2 2 2 2 2 2 2 2 2 2 2
left_child=18 2 3 5 13 11 8 12 -4 10 -10 -2 -3 22 -15 16 -6 -16 19 20 -1 -22 -5
right_child=1 7 6 4 15 -7 -8 -9 9 -11 -12 -13 -14 14 17 -17 -18 -19 -20 -21 21 -23 -24
leaf_value=-0.031567029814759819 0.041699526617716122 0.0035106229286825164 -0.020021660764673738 0.038982392351959549 0.041595710799038482 0.033788181088022333 -0.0053361008195575389 0.039524522171450749 0.030798897883034304 0.037469280906726139 -0.03380981400904251 -0.0028432573947269326 -0.021865021984511752 -0.018551439536386331 0.044113785656381278 0.035409420863791702 -0.015166988973880162 -0.023689691223194198 0.021363411573449759 -0.02574615515216095 -0.010173641305447276 0.039252263799807757 -0.00084164098360210097
leaf_weight=70.655772671103477 57.512612879276276 219.48590536415577 57.815628409385681 1290.7624547034502 54.4229576587677 220.60213986039162 512.3743005245924 43.18881893157959 45.254579424858093 227.16954979300499 50.231602609157562 403.14805701375008 479.30591358244419 130.75117541849613 234.6464916318655 98.417142435908318 171.09361770749092 19.568274691700935 55.168108373880386 658.47973249852657 98.550184085965157 72.492448225617409 57.120519518852234
leaf_count=305 158 780 231 3599 151 642 1910 123 134 647 213 1461 1978 493 631 284 671 74 176 2765 379 203 197
internal_value=0.00944155 0.015201 0.0204896 0.0255792 0.0297071 0.0130413 0.00484794 -0.0106566 0.0184971 0.02552 -0.00318382 0.00295165 -0.0139138 0.0333272 0.019248 0.0102137 -0.00110245 0.0386792 -0.0168862 -0.0192936 -0.00161415 0.0110899 0.0372966
internal_weight=5328.22 4372.87 3630.89 2738.05 2056.78 681.263 892.846 741.981 380.471 322.656 95.4862 460.661 698.792 1732.85 384.966 323.934 225.517 254.215 955.346 900.178 241.698 171.043 1347.88
internal_count=18205 14377 11496 8361 6100 2261 3135 2881 1225 994 347 1619 2758 4994 1198 1106 822 705 3828 3652 887 582 3796
is_linear=0
shrinkage=0.025


Tree=9
num_leaves=24
num_cat=0
split_feature=89 91 111 90 90 110 89 89 87 91 85 93 93 89 93 108 93 85 88 108 92 7 88
split_gain=1232.56 909.825 422.698 250.847 213.78 211.06 190.225 292.581 258.258 237.973 168.596 156.209 148.386 185.051 137.035 139.957 193.237 187.767 133.869 154.947 115.756 109.973 123.306
threshold=-0.087474943096760502 9.0831075746303807 0.020235419426680668 -0.12469913994051927 -0.10662723614115892 0.0014065789060678793 -0.074876596716763541 -0.073865791078736961 0.051298765140933462 1.0238159356206746 183.50000000000003 0.51667504513778495 0.49717592897888191 -0.048700328199771485 0.52193176677568809 3.8533918411765229 0.49512586181097595 239.50000000000003 0.1458221596116637 7.559736926345086 2.7426469270545231 -0.065153503567245794 0.14728861696665488
decision_type=2 2 2 2 2 2 2 2 2 2 2 2 2 2 2 2 2 2 2 2 2 2 2
left_child=14 2 3 10 -3 20 -7 -8 9 -9 18 -6 13 -10 15 16 -1 -18 -2 -20 -5 -12 -23
right_child=1 4 -4 5 11 6 7 8 12 -11 21 -13 -14 -15 -16 -17 17 -19 19 -21 -22 22 -24
leaf_value=-0.033514543345704716 0.028913334126053365 -0.025350461747993394 -0.0026641474012631143 -0.013823148917833539 -0.003058673392073503 0.046522004722487381 -0.03748941835758287 0.04005890275926257 -0.0087000026949141523 -0.012470050886442756 0.036511459634474365 0.05034908151632838 0.034694255047477987 0.031040385886021035 0.0207866911469387 -0.030609132977552259 -0.011260972962650662 0.028783619434168364 0.010654258790365924 -0.034005492644791122 0.021619990284924746 0.050051186068165103 0.0024565094043860064
leaf_weight=155.94829335808754 49.311710596084595 319.03596077859402 446.21114556491375 113.51426464319229 418.85164695978165 339.93145374953747 41.723723411560059 74.806221544742584 121.24038475751877 172.61007109284401 145.71807473897934 34.252186238765717 1344.0687513500452 177.91154037415981 55.361981198191643 372.08287161588669 269.32650217413902 97.078282371163368 79.575337365269661 117.12645977735519 111.01320049166679 36.995063960552216 230.19735522568226
leaf_count=681 151 1356 1638 429 1553 910 174 207 449 629 421 88 3828 520 176 1601 1067 303 272 494 352 95 811
internal_value=0.00921447 0.0148193 0.0200956 0.0233133 -0.00977689 0.0269334 0.0292158 0.0261039 0.0275645 0.0037017 0.00953567 0.00128328 0.0311442 0.0150079 -0.0165627 -0.0189363 -0.0104941 -0.000503638 -0.00679752 -0.0160498 0.00375502 0.0192459 0.00952896
internal_weight=5323.89 4374.09 3601.95 3155.74 772.14 2496.82 2272.29 1932.36 1890.64 247.416 658.924 453.104 1643.22 299.152 949.798 894.436 522.353 366.405 246.014 196.702 224.527 412.91 267.192
internal_count=18205 14377 11380 9742 2997 7498 6717 5807 5633 836 2244 1641 4797 969 3828 3652 2051 1370 917 766 781 1327 906
is_linear=0
shrinkage=0.025


Tree=10
num_leaves=24
num_cat=0
split_feature=89 91 106 93 111 89 90 89 88 114 93 89 10 89 94 89 89 111 87 93 93 108 85
split_gain=1173.61 864.633 416.705 210.668 220.467 209.945 184.185 178.743 178.016 183.922 177.814 167.924 152.698 152.247 152.438 139.392 214.799 135.839 135.362 277.555 132.722 199.985 135.781
threshold=-0.087474943096760502 10.041470357392251 0.12574152555686682 0.49578499142926652 0.015388849939386299 -0.046519990804140314 -0.11406366047745352 -0.080123096114911793 0.14496097324272764 3.9497231439029408 0.50511992509961623 -0.05154707177312317 -0.03381792428481805 -0.032774078370383257 0.49336270190895748 -0.036531300107862479 -0.074876596716763541 0.00065492963806134525 0.40494671634195084 0.49133090913262428 0.49512586181097595 3.7710362997652127 239.50000000000003
decision_type=2 2 2 2 2 2 2 2 2 2 2 2 2 2 2 2 2 2 2 2 2 2 2
left_child=20 2 3 5 12 7 -3 -2 -4 -10 18 -12 -5 14 17 16 -6 -11 -8 -20 -1 22 -22
right_child=1 6 8 4 15 -7 10 -9 9 13 11 -13 -14 -15 -16 -17 -18 -19 19 -21 21 -23 -24
leaf_value=-0.034122892952458704 0.039580617567405219 -0.026607998817473125 0.038324054890097409 0.033615271619221412 0.035474256636357331 0.03151236911546642 -0.028373891989782542 -0.0068263635587258332 -0.022022110569696916 0.026046063782983915 0.049594645772536292 -0.0099443890471815413 0.0090245202191975796 -0.037063850242084716 0.02101141398731746 0.033293583598288164 -0.016550171765834006 -0.016212437472888527 0.046531657159964358 -0.01545454206503818 -0.0072617492488875768 -0.024296078500963884 0.026791884784089851
leaf_weight=201.46254688501358 58.263319358229637 268.3424026966095 84.232275515794754 1652.2803636938334 66.81189176440239 201.55458910763264 140.62158450484276 335.4291042983532 171.23336102068424 61.964314684271812 69.435362502932549 48.620668858289719 177.38580173254013 42.549463227391243 343.05706284940243 100.45475335419178 168.36999543011189 174.84348201751709 61.372550338506699 148.2593804448843 279.22669281065464 367.91112887859344 95.809622094035149
leaf_count=892 159 1159 239 4691 190 585 581 1236 689 194 191 189 591 183 1098 290 668 683 180 581 1088 1549 299
internal_value=0.00899293 0.0144482 0.0194467 0.0242137 0.0278353 0.0109664 -0.0102186 0.000288889 0.0044249 0.000696307 -0.000717822 0.0254351 0.0312499 0.00702206 0.0104311 0.00910918 -0.0015101 -0.00496736 -0.00967403 0.00309322 -0.016245 -0.0112794 0.00158143
internal_weight=5319.49 4375.08 3638.43 2760.55 2165.3 595.247 736.652 393.692 877.88 793.648 468.31 118.056 1829.67 622.414 579.865 335.637 235.182 236.808 350.254 209.632 944.41 742.947 375.036
internal_count=18205 14377 11496 8410 6430 1980 2881 1395 3086 2847 1722 380 5282 2158 1975 1148 858 877 1342 761 3828 2936 1387
is_linear=0
shrinkage=0.025


Tree=11
num_leaves=24
num_cat=0
split_feature=89 106 93 92 10 89 85 104 104 93 111 114 94 93 107 93 85 93 89 89 104 104 89
split_gain=1117.83 629.441 463.641 350.921 203.139 155.328 160.23 150.63 142.84 240.351 167.76 140.382 135.715 132.032 153.477 135.579 151.15 129.944 127.212 120.051 475.711 145.087 330.247
threshold=-0.087474943096760502 0.1250461303262291 0.49717592897888191 0.97048710264979288 -0.035357628545525148 -0.075391990122505956 183.50000000000003 0.47258618561790361 0.28681081584627316 0.48918562053971387 0.035535393122550128 3.262731639924723 0.56012048192771091 0.52193176677568809 0.22142832394331627 0.49512586181097595 238.50000000000003 0.50363310390060934 -0.040554328972556057 -0.037477655405400982 0.16143679170824912 0.19084011544491045 -0.073865791078736961
decision_type=2 2 2 2 2 2 2 2 2 2 2 2 2 2 2 2 2 2 2 2 2 2 2
left_child=13 2 8 5 7 -3 18 19 11 10 -10 -2 -5 14 15 -1 -17 -6 -7 21 -21 -4 -23
right_child=1 3 4 12 17 6 -8 -9 9 -11 -12 -13 -14 -15 -16 16 -18 -19 -20 20 -22 22 -24
leaf_value=-0.030135237441264142 -0.0050003581067478353 -0.019794111130542698 0.042156210157577201 -0.014335272797279459 0.021366555968181038 -0.024200540890715189 0.035205961170191931 0.002576529089859011 0.033971119982368091 -0.01236365707992889 -0.027932574706288973 0.026994994857789001 0.039920276749001803 0.020700058365897556 -0.024607468239921389 -0.009507455515072611 0.037288448072082606 -0.015756013807756035 0.034248513957871207 -0.021391812629995961 0.034903357826027888 -0.023106503250068119 0.03145474861613437
leaf_weight=68.431377738714218 123.57759046554565 57.565842777490616 683.66924574971199 708.40033753216267 119.68918432295322 61.643316611647606 228.73978918790817 132.62516337633133 140.63592208921909 426.90128393471241 31.390588521957397 270.67392310500145 27.194876462221146 55.391637623310089 644.7532109618187 97.766604870557785 72.913044080138206 110.51021960377693 33.38737590610981 129.48744048178196 322.32841709256172 74.874105721712112 690.83630277216434
leaf_count=305 445 231 1845 2823 375 252 647 467 429 1630 132 819 74 176 2765 379 203 416 95 498 901 296 2002
internal_value=0.00877897 0.0140922 0.0196412 -0.00209936 0.0258823 0.0172807 0.0239937 0.0283986 0.00537915 -0.00231971 0.0223901 0.0170041 -0.0121755 -0.0159307 -0.0182886 -0.00115631 0.0107822 0.00357195 -0.00324582 0.030193 0.0187349 0.0337187 0.0260502
internal_weight=5313.39 4374.13 3257.2 1116.93 2264.02 381.336 323.77 2033.82 993.179 598.928 172.027 394.252 735.595 939.256 883.864 239.111 170.68 230.199 95.0307 1901.2 451.816 1449.38 765.71
internal_count=18205 14377 10255 4122 6800 1225 994 6009 3455 2191 561 1264 2897 3828 3652 887 582 791 347 5542 1399 4143 2298
is_linear=0
shrinkage=0.025


Tree=12
num_leaves=24
num_cat=0
split_feature=111 91 93 90 10 12 91 87 10 108 11 91 94 90 85 94 104 104 11 92 107 104 22
split_gain=678.209 453.754 222.473 258.701 213.938 157.575 157.489 175.352 190.614 150.219 136.771 151.126 130.366 114.686 104.205 132.768 163.969 122.289 100.357 99.1212 129.718 97.2752 177.97
threshold=0.015388849939386299 10.041470357392251 0.49782429986836901 -0.15044464517969944 -0.073455152526938836 0.036023773048507908 0.9211191008952474 0.053306855952833361 -0.082771299977476495 2.7560952272435149 0.034346277098915586 4.6579455921159987 0.47276531000380378 -0.073055853709618299 246.50000000000003 0.55400544429321419 0.18706973039126121 0.11727326475272239 0.12269903342987766 0.16767027090502432 0.82361167310977546 0.18676701743539162 0.016291754436943879
decision_type=2 2 2 2 2 2 2 2 2 2 2 2 2 2 2 2 2 2 2 2 2 2 2
left_child=1 2 19 -4 14 -6 18 8 -8 -3 -9 -12 -13 -7 15 17 -17 -2 -5 -1 21 -21 -23
right_child=4 9 3 6 5 13 7 10 -10 -11 11 12 -14 -15 -16 16 -18 -19 -20 20 -22 22 -24
leaf_value=0.044042873742110786 0.048542450323225586 0.0055477933616598207 -0.0084927327833247291 0.046103935449056076 0.037304343767221283 -0.025116199256644767 0.020560379429866799 0.031596740225119969 -0.018233499538052172 -0.027146488544489068 0.0092492671356107347 0.043426783614131478 -0.014274921930673441 0.007873040502869284 0.0033747024957669273 -0.029296593325765782 0.046187527435439281 -0.019273647056070042 -0.014424429734714845 0.020889817122789669 -0.03081678204577705 -0.027742323520854623 0.0084532569897885195
leaf_weight=41.644616678357124 14.193822979927061 158.61154302954674 163.13489933311939 247.74726203083992 92.967439234256744 77.399027451872826 188.14175882935524 855.80330008268356 132.23724633455276 191.47037163376808 504.49368587136269 165.7344636619091 27.139981925487518 361.61764031648636 246.55857983231544 26.74999725818634 43.477564916014671 785.7382185459137 17.037656679749489 262.75329038500786 53.781851947307587 97.32393978536129 550.10470202565193
leaf_count=108 38 563 611 653 261 321 587 2454 508 829 1670 439 97 1278 890 116 114 3252 66 828 224 395 1903
internal_value=0.00857252 0.0145701 0.0174351 0.0217192 -0.00473366 0.00828311 0.0240328 0.0214174 0.0045275 -0.0124124 0.0248859 0.0165503 0.0352131 0.00192602 -0.0109402 -0.014994 0.017413 -0.0178935 0.0420913 0.00759492 0.00588856 0.00815156 0.00290934
internal_weight=5305.86 3657.16 3307.08 2301.47 1648.7 531.984 2138.34 1873.55 320.379 350.082 1553.17 697.368 192.874 439.017 1116.72 870.16 70.2276 799.932 264.785 1005.61 963.964 910.182 647.429
internal_count=18205 11935 10543 7085 6270 1860 6474 5755 1095 1392 4660 2206 536 1599 4410 3520 230 3290 719 3458 3350 3126 2298
is_linear=0
shrinkage=0.025


Tree=13
num_leaves=24
num_cat=0
split_feature=89 91 111 106 106 85 88 91 89 88 107 88 88 89 110 93 88 93 107 93 85 85 89
split_gain=1047.56 764.246 350.04 225.436 202.672 226.131 163.414 158.816 149.754 193.695 147.798 143.49 173.588 201.582 240.603 231.01 137.712 126.808 146.565 129.67 142.575 122.813 137.504
threshold=-0.087474943096760502 8.4206494944270656 0.020446431943361206 0.10965081622976371 0.080572250465138842 175.50000000000003 0.11452986972177261 0.97176679712429981 -0.05154707177312317 0.31535794452461136 0.58426867660037429 0.13434101084717168 0.18914658991023917 -0.048962967667657613 0.054537025257335205 0.49976257035629051 0.12255980094728948 0.52193176677568809 0.22142832394331627 0.49512586181097595 238.50000000000003 122.50000000000001 -0.05885946067094832
decision_type=2 2 2 2 2 2 2 2 2 2 2 2 2 2 2 2 2 2 2 2 2 2 2
left_child=17 2 4 8 11 6 -6 -8 9 -3 21 16 -13 14 15 -14 -2 18 19 -1 -21 -9 -23
right_child=1 3 -4 -5 5 -7 7 10 -10 -11 -12 12 13 -15 -16 -17 -18 -19 -20 20 -22 22 -24
leaf_value=-0.029736313279532703 0.022171174073977642 0.042704288108712754 -0.0029507939752411545 -0.025106520407251195 0.048293002406643026 0.022457614450495871 0.028211863786101011 0.025151289655636427 -0.010465054485912135 -0.0039145162210644929 -0.021873531805631247 0.04205117936911984 -0.0046629809411889208 0.035427774895146556 -0.03755645879809396 0.036840995033104625 -0.031690743246032986 0.020207635105761207 -0.024188988833752739 -0.0093292719583700206 0.036114041062792479 -0.033463933002744944 0.010964677526995412
leaf_weight=67.725914195179939 76.664254188537598 98.468882456421852 420.63499787449837 310.58802036941051 44.550807237625122 1076.9578016549349 101.13670274615288 117.23937983810902 268.42110826075077 122.48682042956352 204.30903269350529 513.06736989319324 151.69595597684383 407.96723487973213 53.754132002592087 182.65980596840382 44.285131126642227 55.511069178581238 639.11807568371296 97.531390190124512 73.076655179262161 71.644157737493515 101.97871169447899
leaf_count=305 236 272 1554 1358 114 3307 296 361 1035 459 804 1381 548 1130 220 503 178 176 2765 379 203 291 330
internal_value=0.0083667 0.013502 0.0184503 -0.00855779 0.02131 0.0154754 0.00369185 0.000134582 0.00203401 0.0171549 -0.00573545 0.0282715 0.0306734 0.0232102 0.0101942 0.0181368 0.00216015 -0.0156453 -0.0179746 -0.00121648 0.0104232 0.00570793 -0.00762545
internal_weight=5301.47 4368.51 3568.55 799.965 3147.91 1717.82 640.859 596.308 489.377 220.956 495.171 1430.09 1309.14 796.077 388.11 334.356 120.949 932.963 877.452 238.334 170.608 290.862 173.623
internal_count=18205 14377 11253 3124 9699 5503 2196 2082 1766 731 1786 4196 3782 2401 1271 1051 414 3828 3652 887 582 982 621
is_linear=0
shrinkage=0.025


Tree=14
num_leaves=24
num_cat=0
split_feature=89 91 111 106 106 85 88 91 89 88 88 88 89 110 93 88 87 93 87 88 93 85 87
split_gain=998.252 726.099 332.618 216.777 193.187 213.877 155.718 151.102 142.548 183.602 136.495 164.665 191.487 229.891 219.692 131.658 129.99 124.837 187.045 131.903 126.311 171.364 169.633
threshold=-0.087474943096760502 8.4206494944270656 0.020446431943361206 0.10965081622976371 0.080572250465138842 175.50000000000003 0.11452986972177261 0.97176679712429981 -0.05154707177312317 0.31535794452461136 0.13434101084717168 0.18914658991023917 -0.048962967667657613 0.054537025257335205 0.49976257035629051 0.11966360446518766 0.055675974642357635 0.49512586181097595 0.065098540048924472 0.14871115114128478 0.52193176677568809 239.50000000000003 0.30382534952027634
decision_type=2 2 2 2 2 2 2 2 2 2 2 2 2 2 2 2 2 2 2 2 2 2 2
left_child=17 2 4 8 10 6 -6 -8 9 -3 15 -12 13 14 -13 -2 -9 -1 -19 -20 21 -21 -23
right_child=1 3 -4 -5 5 -7 7 16 -10 -11 11 12 -14 -15 -16 -17 -18 18 19 20 -22 22 -24
leaf_value=-0.032976521181854353 0.030857621391334657 0.041536098086845108 -0.0028793765414911934 -0.024701393889564435 0.047130223596272731 0.021861622703696338 0.02749640437622421 -0.020670724788236471 -0.010233297557139994 -0.0038226433943668392 0.040996424068451588 -0.0045525063365430343 0.034549460174982623 -0.036874265113152373 0.035930129491701948 -0.02046651992280777 0.0051967859890207748 -0.030634283477827925 0.043999251595422791 -0.021314707388043686 0.032586758574470472 -0.0087410986328571548 0.043990901981399655
leaf_weight=195.48123390972614 52.664491772651672 98.787429541349411 420.36917918920517 307.87347911298275 44.582201451063156 1078.7185200601816 101.25060024857521 205.26879866421223 267.7145721912384 122.36850540339947 513.18557950854301 151.56713853776455 407.95596106350422 53.439335525035858 182.68364605307579 68.213099360466003 288.9648571908474 204.54694381356239 32.472590610384941 290.43767915666103 45.295295938849449 101.38622188568115 57.373930960893631
leaf_count=892 154 272 1554 1358 114 3307 296 807 1035 459 1381 548 1130 220 503 260 979 918 105 1226 132 404 151
internal_value=0.00817224 0.0131751 0.0179899 -0.00837855 0.0207763 0.0150828 0.00360972 0.000131547 0.00198896 0.0167232 0.0275751 0.0299176 0.0226447 0.00994858 0.0176959 0.00210038 -0.0056066 -0.0153547 -0.0105302 -0.00259739 -0.0059042 -0.00997591 0.010778
internal_weight=5292.6 4365.61 3568.86 796.744 3148.49 1718.78 640.066 595.484 488.871 221.156 1429.71 1308.83 795.646 387.69 334.251 120.878 494.234 926.994 731.513 526.966 494.493 449.198 158.76
internal_count=18205 14377 11253 3124 9699 5503 2196 2082 1766 731 4196 3782 2401 1271 1051 414 1786 3828 2936 2018 1913 1781 555
is_linear=0
shrinkage=0.025


Tree=15
num_leaves=24
num_cat=0
split_feature=89 90 88 92 89 89 88 89 24 89 89 85 89 114 94 94 114 89 107 7 90 88 114
split_gain=951.429 532.714 330.415 304.332 221.489 360.903 236.173 428.103 192.487 156.413 144.308 141.843 145.077 134.983 123.574 119.137 120.27 159.437 117.168 111.753 105.664 102.808 141.306
threshold=-0.087474943096760502 -0.12469913994051927 0.47258618561790361 0.97048710264979288 -0.074876596716763541 -0.073865791078736961 0.16017081507527833 -0.040460567324996081 0.011715872278554198 -0.048962967667657613 -0.075391990122505956 199.50000000000003 -0.040554328972556057 2.9398984003551023 0.56012048192771091 0.51900924182033215 4.8714692974184706 -0.061485719173718416 0.52144322163154999 0.69675700664521367 -0.071381111606361056 0.39277456444004127 5.6569919553818737
decision_type=2 2 2 2 2 2 2 2 2 2 2 2 2 2 2 2 2 2 2 2 2 2 2
left_child=18 3 4 10 -3 -6 7 -7 9 15 -2 12 -12 -9 19 16 -8 -18 -1 21 -10 22 -5
right_child=1 2 -4 14 5 6 8 13 20 -11 11 -13 -14 -15 -16 -17 17 -19 -20 -21 -22 -23 -24
leaf_value=-0.0099971100960901116 -0.019364026307928467 0.039153315670120759 -0.00013307130550027925 -0.013778292365514703 -0.037054553462536909 0.027592371021094159 0.03071236930251375 0.0012443958038694215 -0.0054783444760395442 0.037621039033714158 -0.022513578398877281 0.033988739463241456 0.035111014985026605 -0.038162541187309773 0.038171410320673942 -0.011501865556071394 0.029460841680812502 -0.016438234121476429 -0.030889867828957709 0.038357860724029351 0.019354181545307509 -0.027069864990656719 0.025588011075780012
leaf_weight=700.85515694320202 59.033784285187721 381.17256484925747 526.87212070822716 340.98599226772785 68.076896101236343 230.01983168721199 451.17891709506512 95.973706886172295 169.81096321344376 668.9167778044939 69.259257555007935 216.51028519868851 40.89456644654274 121.64225426316261 27.272868782281876 64.134415045380592 91.650902256369591 91.793160527944565 219.95327135920525 22.265339463949203 282.01848192512989 276.6773212403059 65.452499285340309
leaf_count=2827 236 1040 1917 1358 295 674 1298 334 601 1831 282 606 114 509 74 237 262 355 1001 65 869 1209 211
internal_value=0.0079851 0.0128598 0.0179863 -0.00201551 0.021497 0.0185685 0.0202855 0.00398563 0.0242824 0.0289531 0.0158839 0.022372 -0.000756772 -0.0210026 -0.0114648 0.0205299 0.0238059 0.00659856 -0.0150719 -0.0135375 0.0100468 -0.0153892 -0.00729774
internal_weight=5282.42 4361.61 3243.26 1118.35 2716.39 2335.22 2267.14 447.636 1819.5 1367.67 385.698 326.664 110.154 217.616 732.654 698.757 634.623 183.444 920.808 705.381 451.829 683.116 406.438
internal_count=18205 14377 10222 4155 8305 7265 6970 1517 5453 3983 1238 1002 396 843 2917 2152 1915 617 3828 2843 1470 2778 1569
is_linear=0
shrinkage=0.025


Tree=16
num_leaves=24
num_cat=0
split_feature=89 91 111 106 90 85 88 91 110 107 88 88 89 110 93 88 93 108 88 94 10 91 91
split_gain=907.048 665.096 305.662 202.277 181.552 196.967 145.126 142.488 133.785 133.67 123.585 153.139 175.265 215.193 196.52 126.907 122.787 182.737 115.842 125.652 134.112 122.745 186.245
threshold=-0.087474943096760502 8.4206494944270656 0.020446431943361206 0.10965081622976371 -0.080684333146046269 175.50000000000003 0.11452986972177261 0.97176679712429981 0.06760960487151875 0.58426867660037429 0.13434101084717168 0.18914658991023917 -0.048962967667657613 0.056409275130850929 0.49976257035629051 0.12255980094728948 0.49512586181097595 3.7710362997652127 0.37090454152410673 0.54219544846050882 -0.078667494129940771 0.98566492498359748 2.2918419354868749
decision_type=2 2 2 2 2 2 2 2 2 2 2 2 2 2 2 2 2 2 2 2 2 2 2
left_child=16 2 4 8 5 6 -2 -8 -3 -9 15 -12 13 14 -13 -6 -1 -18 19 20 -7 -22 -23
right_child=1 3 -4 -5 10 18 7 9 -10 -11 11 12 -14 -15 -16 -17 17 -19 -20 -21 21 22 -24
leaf_value=-0.032404138075926098 0.045517380899457401 -0.002216062729632855 -0.0028699109942220951 -0.024071248160727209 0.021201470880606921 0.034592106216678707 0.026502240440320363 0.0052045062504869587 0.043710338597660874 -0.021110789819233311 0.039345381518909331 -0.0041969500769756781 0.033046439736839003 -0.038581370906197114 0.033732341963874035 -0.03061663379720251 0.0023443428640079322 -0.022708654020357766 0.005574414341449143 -0.03262622070076867 0.045335013872425764 -0.015998170501597863 0.027173256948032
leaf_weight=192.20377761125565 44.096558779478073 447.73673026263714 419.34274898469448 303.33116456866264 77.333937421441078 511.2721299380064 101.19026775658131 290.4774539321661 40.471266865730286 202.24993966519833 512.46714939177036 155.14190673828125 407.54385396838188 47.892520010471344 185.24632157385349 43.731481805443764 369.16236011683941 354.87158267199993 243.89488060772419 20.425843253731728 57.336786806583405 123.34920230507851 120.68855410814285
leaf_count=892 113 1661 1554 1358 237 1440 296 981 105 804 1382 560 1131 201 514 178 1387 1549 822 83 147 461 349
internal_value=0.00780277 0.012559 0.0171609 -0.00814622 0.0198325 0.0143053 0.00327513 -7.42273e-05 0.00183483 -0.00565953 0.0264204 0.0286519 0.021644 0.00951433 0.0165593 0.00219591 -0.0147728 -0.00997795 0.0208125 0.0252376 0.0268067 0.0133882 0.00542292
internal_weight=5271.46 4355.22 3563.68 791.539 3144.34 1714.98 638.014 593.918 488.208 492.727 1429.36 1308.29 795.825 388.281 340.388 121.065 916.238 724.034 1076.97 833.073 812.647 301.375 244.038
internal_count=18205 14377 11253 3124 9699 5496 2194 2081 1766 1785 4203 3788 2406 1275 1074 415 3828 2936 3302 2480 2397 957 810
is_linear=0
shrinkage=0.025


Tree=17
num_leaves=24
num_cat=0
split_feature=89 91 111 90 90 85 88 91 107 4 88 85 89 107 88 88 94 10 91 91 92 91 88
split_gain=865.097 632.831 291.15 197.382 173.345 187.076 138.678 135.663 127.774 118.331 141.301 114.601 129.006 113.34 112.695 110.426 120.061 126.912 117.402 177.425 101.131 97.6043 150.763
threshold=-0.087474943096760502 8.4206494944270656 0.020446431943361206 -0.075815921527709926 -0.080684333146046269 175.50000000000003 0.11452986972177261 0.97176679712429981 0.58426867660037429 0.032935105789275394 0.12892303505525229 122.50000000000001 -0.05885946067094832 0.52144322163154999 0.12255980094728948 0.37090454152410673 0.54219544846050882 -0.078667494129940771 0.98566492498359748 2.2918419354868749 24.40242080275765 1.2092594231053204 0.33124201171373285
decision_type=2 2 2 2 2 2 2 2 2 2 2 2 2 2 2 2 2 2 2 2 2 2 2
left_child=13 2 4 -3 5 6 -2 -8 11 10 14 -9 -13 20 -6 16 17 -7 -19 -20 21 22 -1
right_child=1 3 -4 -5 9 15 7 8 -10 -11 -12 12 -14 -15 -16 -17 -18 18 19 -21 -22 -23 -24
leaf_value=0.023455334548125553 0.044536708342047593 -0.017674994242245012 -0.0028004111049420633 0.0080354318253709339 0.018110215658481948 0.033727453838091045 0.025854558781684401 0.023790052749882929 -0.020687760268291711 0.0097736195928615349 0.031723866882500111 -0.032987090972642484 0.010154084857116075 -0.030212089961369842 -0.036896794265696024 0.0054332293825831027 -0.032073694961292032 0.044378859241898633 -0.015643135087775425 0.02652154088641347 0.025287117448434107 -0.017100955493392977 -0.031555455502708052
leaf_weight=96.748073160648346 44.007945626974106 490.74871681630611 419.08392022550106 297.7712494879961 71.639252677559853 511.34518896043301 101.20691952109337 117.71618774533272 201.29935897886753 243.27706111967564 1081.0863669514656 71.151404276490211 101.76521927118301 215.77365352213383 30.830549284815788 244.05270346999168 20.311386793851852 57.174407243728638 123.06667998433113 120.63717360794544 45.909354746341705 510.51707665622234 42.351823553442955
leaf_count=330 113 2094 1554 1030 222 1440 296 361 804 785 3065 291 329 1001 131 822 83 147 461 349 150 2152 195
internal_value=0.00762651 0.012268 0.0167545 -0.00797223 0.0193641 0.0139629 0.00320381 -7.15805e-05 -0.00552984 0.0258086 0.0290714 0.005073 -0.00785738 -0.0144875 0.000981268 0.0203037 0.0246277 0.0261585 0.0130889 0.00529773 -0.00950047 -0.0120639 0.00639358
internal_weight=5259.47 4348.17 3559.65 788.52 3140.57 1713.73 637.147 593.139 491.932 1426.83 1183.56 290.633 172.917 911.3 102.47 1076.59 832.535 812.223 300.878 243.704 695.526 649.617 139.1
internal_count=18205 14377 11253 3124 9699 5496 2194 2081 1785 4203 3418 981 620 3828 353 3302 2480 2397 957 810 2827 2677 525
is_linear=0
shrinkage=0.025


Tree=18
num_leaves=24
num_cat=0
split_feature=89 91 90 104 114 25 104 104 104 89 90 93 92 104 7 93 105 93 108 111 86 10 10
split_gain=824.84 602.721 303.425 219.897 177.873 158.6 163.135 216.498 165.535 148.996 145.061 150.564 156.429 130.83 155.681 128.893 241.156 119.306 172.585 116.232 110.474 104.927 132.34
threshold=-0.087474943096760502 10.041470357392251 -0.11838692234435781 0.14496097324272764 3.8540659380921172 0.0062490493265323641 0.13434101084717168 0.12255980094728948 0.50245717391621181 -0.032774078370383257 -0.11640835158810008 0.50511992509961623 4.84846611070168 0.39277456444004127 0.64160250294006715 0.49133090913262428 0.41963326946440599 0.49512586181097595 3.7710362997652127 0.015633386948055248 59.875000000000007 -0.17510371125065574 -0.11090797682709451
decision_type=2 2 2 2 2 2 2 2 2 2 2 2 2 2 2 2 2 2 2 2 2 2 2
left_child=17 2 3 -2 -5 6 7 -4 -8 13 -3 15 -13 21 -15 16 -12 -1 20 -7 -19 -6 -23
right_child=1 10 5 4 9 19 8 -9 -10 -11 11 12 -14 14 -16 -17 -18 18 -20 -21 -22 22 -24
leaf_value=-0.031780614733519896 0.036221081787828888 -0.024498380748241611 0.02119906831208794 -0.02158077764259244 -0.015824849971878097 0.014583619635257958 0.028606425332206111 -0.035575861388091316 -0.016117726773055435 -0.034178710581773755 -0.016759228570603329 -0.027903492998822652 0.038347473789352882 -0.022145902796010988 0.048064115697911629 -0.019663661785295241 0.054029694179493631 -0.00568459174371665 -0.021995150654506586 -0.01549926539456566 0.02514180069146453 0.028341736672059227 0.0018581333216562527
leaf_weight=188.35875533521175 120.26313461363316 243.25236999988556 122.45675726234913 178.00892704725266 61.107933506369591 647.51311421394348 1597.0346392244101 60.097236782312393 51.633128985762596 50.783092722296715 72.155222594738007 26.687460780143738 92.240118786692619 127.69218108057976 20.364113345742226 235.30106136202812 47.379175573587418 272.82643984258175 349.37698678672314 89.08280511200428 95.680853620171547 308.47025507688522 190.49809683859348
leaf_count=892 338 1119 370 730 236 2031 4615 256 195 218 292 116 267 513 53 958 129 1088 1549 347 299 931 663
internal_value=0.00745254 0.0119802 0.0161209 0.00483076 0.000698762 0.020758 0.0247001 0.00223562 0.027179 0.00598898 -0.00893369 -0.000838172 0.0231599 0.0090016 -0.0117262 -0.00900817 0.0119348 -0.0142086 -0.00948492 0.0108973 0.0024577 0.0145143 0.0183023
internal_weight=5248.26 4342.02 3625.01 1057.19 936.925 2567.82 1831.22 182.554 1648.67 758.916 717.015 473.763 118.928 708.133 148.056 354.835 119.534 906.243 717.884 736.596 368.507 560.076 498.968
internal_count=18205 14377 11496 3682 3344 7814 5436 626 4810 2614 2881 1762 383 2396 566 1379 421 3828 2936 2378 1387 1830 1594
is_linear=0
shrinkage=0.025


Tree=19
num_leaves=24
num_cat=0
split_feature=89 91 111 106 106 93 91 89 89 89 88 89 87 89 85 10 85 88 6 93 87 88 107
split_gain=786.582 573.54 267.74 183.906 167.406 168.487 156.391 146.88 161.55 145.666 157.273 141.962 352.389 221.853 128.901 119.675 119.622 118.082 119.145 116.123 169.028 122.305 127.561
threshold=-0.087474943096760502 8.4206494944270656 0.019770139488874749 0.11629645012893509 0.14870184297650471 0.49578499142926652 1.0903246614717521 -0.042222127629934318 -0.080123096114911793 -0.05154707177312317 0.31535794452461136 -0.074876596716763541 0.051298765140933462 -0.073865791078736961 207.50000000000003 -0.03381792428481805 178.50000000000003 0.47258618561790361 0.14164402695626757 0.49512586181097595 0.065098540048924472 0.14871115114128478 0.1369185270491444
decision_type=2 2 2 2 2 2 2 2 2 2 2 2 2 2 2 2 2 2 2 2 2 2 2
left_child=19 2 4 9 5 7 -7 8 -2 10 -3 -8 -13 -14 -10 17 -6 -15 -19 -1 -21 -22 -23
right_child=1 3 -4 -5 16 6 11 -9 14 -11 -12 12 13 15 -16 -17 -18 18 -20 20 21 22 -24
leaf_value=-0.031404377914102208 0.037745533668133241 0.038260563500132412 -0.0020496937642543902 -0.024572234292005807 -0.022843377351998324 0.040044079283446221 0.038018228573181184 0.033939010933286218 -0.012855442181706101 -0.01100749315648312 -0.0025669652321839618 -0.01516625720007566 -0.036505428468440064 0.028445708783374962 0.01456029956439216 0.0014539772328917859 0.011006512719883883 -0.028927976762891262 0.028062693454431388 -0.028943655140886895 0.042821140429367112 0.020105275814814017 -0.011453112887877835
leaf_weight=185.91671879589558 70.159813851118088 102.30486568808556 449.73119239509106 262.70661772787571 89.25418746471405 318.09066435694695 261.50240759551525 117.8944385945797 275.52279578149319 284.2106761932373 133.22373256087303 174.98518413305283 36.517119660973549 1147.1879305243492 171.29558080434799 134.33080765604973 219.94246126711369 45.190420925617218 40.745104044675827 195.025201395154 32.814175456762314 97.68805904686451 389.38712920248508
leaf_count=892 191 284 1662 1218 372 849 710 327 1018 1118 504 658 154 3285 562 454 715 177 119 918 105 316 1597
internal_value=0.00728273 0.0116999 0.0159655 -0.00765315 0.0185763 0.0205064 0.0238361 0.00912683 0.00330537 0.00099069 0.0154252 0.0209742 0.0180847 0.0222524 -0.00231813 0.023898 0.00110963 0.0263335 -0.00187153 -0.0139412 -0.00928754 -0.00179022 -0.00503942
internal_weight=5235.63 4334.8 3552.35 782.446 3102.62 2793.42 2158.55 634.873 516.978 519.739 235.529 1840.46 1578.96 1403.97 446.818 1367.45 309.197 1233.12 85.9355 900.831 714.915 519.889 487.075
internal_count=18205 14377 11253 3124 9591 8504 6406 2098 1771 1906 788 5557 4847 4189 1580 4035 1087 3581 296 3828 2936 2018 1913
is_linear=0
shrinkage=0.025


Tree=20
num_leaves=24
num_cat=0
split_feature=89 91 111 90 90 85 88 91 93 107 107 110 88 93 85 85 89 88 93 88 10 108 85
split_gain=750.448 546.051 255.372 179.239 158.007 171.011 130.273 123.545 116.704 131.093 114.823 110.527 132.611 108.532 123.68 107.731 120.06 105.41 101.79 99.3213 105.707 107.562 99.102
threshold=-0.087474943096760502 8.4206494944270656 0.020446431943361206 -0.075815921527709926 -0.080684333146046269 175.50000000000003 0.11452986972177261 0.97176679712429981 0.52193176677568809 0.22142832394331627 0.58426867660037429 0.00098968751879852123 0.13434101084717168 0.49512586181097595 238.50000000000003 122.50000000000001 -0.05885946067094832 0.11966360446518766 0.48786545462951575 0.37090454152410673 -0.080102321851903399 20.622681557236241 227.50000000000003
decision_type=2 2 2 2 2 2 2 2 2 2 2 2 2 2 2 2 2 2 2 2 2 2 2
left_child=8 2 4 -3 5 6 -2 18 9 13 15 -6 17 -1 -15 -9 -17 -13 -8 20 21 -7 -10
right_child=1 3 -4 -5 11 19 7 10 22 -11 -12 12 -14 14 -16 16 -18 -19 -20 -21 -22 -23 -24
leaf_value=-0.027290574014023402 0.042756675021985761 -0.016876596268039386 -0.0027363028704291896 0.0077237497013290871 0.0022120043992486507 0.032447879086523669 -0.036989677714435842 0.022337476216111846 0.0396637275600559 -0.022077234371891238 -0.020256776454463402 0.027167671490202092 0.02895273167348188 -0.0081867278153400745 0.034286396183121626 -0.032699726712744882 0.0090310293390638147 -0.019439171104614572 0.03363177462665734 0.004859652754855206 0.011390709638347638 -0.02048708203952767 -0.032118111343119767
leaf_weight=62.890051171183586 43.732323110103607 481.72429560124874 418.17329995334148 297.20307409763336 130.27456332743168 495.09567040205002 12.287505820393561 117.98457930982113 41.166690289974213 608.21685698628426 199.75583353638649 51.043229907751083 1172.7797175198793 96.06905871629715 73.065389797091484 70.615507274866104 101.59802120923996 66.127173990011215 88.463487595319748 244.06942482292652 311.17856121063232 23.262653708457947 13.969634443521498
leaf_count=305 113 2094 1554 1030 446 1392 50 361 115 2765 804 149 3353 379 203 291 329 255 246 822 998 90 61
internal_value=0.00712201 0.0114343 0.0155951 -0.00749661 0.0180458 0.0128839 0.00257508 -0.000600751 -0.0136785 -0.016004 -0.0058165 0.0242135 0.0264252 -5.1937e-06 0.0104393 0.00422892 -0.00834741 0.00103564 0.0241983 0.0189517 0.0230654 0.0299681 0.0207578
internal_weight=5220.75 4325.37 3546.44 778.927 3128.27 1708.04 634.437 590.705 895.378 840.241 489.954 1420.22 1289.95 232.024 169.134 290.198 172.214 117.17 100.751 1073.61 829.537 518.358 55.1363
internal_count=18205 14377 11253 3124 9699 5496 2194 2081 3828 3652 1785 4203 3757 887 582 981 620 404 296 3302 2480 1482 176
is_linear=0
shrinkage=0.025


Tree=21
num_leaves=24
num_cat=0
split_feature=89 106 93 88 10 85 111 88 93 7 93 88 85 89 89 87 89 89 88 93 107 12 93
split_gain=715.952 424.898 328.456 195.995 174.847 140.744 173.779 199.775 142.824 133.67 125.454 183.641 128.178 116.989 309.82 147.229 147.79 145.685 129.342 111.665 126.157 110.302 109.014
threshold=-0.087474943096760502 0.1250461303262291 0.49717592897888191 0.14496097324272764 -0.035357628545525148 181.50000000000003 0.030368389543011302 0.16430219544309135 0.48440733576707912 -0.065153503567245794 0.48918562053971387 0.28681081584627316 155.50000000000003 -0.074876596716763541 -0.073865791078736961 0.050006346788525009 -0.040460567324996081 -0.031386975663776566 0.47258618561790361 0.52193176677568809 0.22142832394331627 0.15482561200934178 0.50363310390060934
decision_type=2 2 2 2 2 2 2 2 2 2 2 2 2 2 2 2 2 2 2 2 2 2 2
left_child=19 2 10 -3 13 8 7 -7 -5 -9 12 21 -2 -4 -15 16 -16 -18 -17 20 -1 -12 -6
right_child=1 3 4 5 22 6 -8 9 -10 -11 11 -13 -14 14 15 18 17 -19 -20 -21 -22 -23 -24
leaf_value=-6.6846642918360739e-06 -0.0013135381591235682 0.033169235807869554 0.039696132889509225 0.038187666614778487 0.016642535620946079 -0.031200710269564214 -0.026745919439513523 0.035052371273167814 -0.019831855781933524 0.0050554211049439373 0.0020879825874172411 -0.012339831461284773 0.032014197357598827 -0.035719412823113049 0.021587918148186672 0.027957783795716951 -0.036526066223537157 0.038604016396474254 0.0019895033058569675 0.02023364500527057 -0.021718431969019986 0.03495917944701548 -0.017348348277423629
leaf_weight=231.04446479678154 127.67644453048706 86.429937988519669 242.91152873635292 25.615120485424995 120.3254571557045 63.613482594490051 100.12302830815315 139.93206557631493 407.08340154588223 268.54017275571823 180.93583157658577 423.17425028979778 162.08707766234875 55.496268719434738 114.30929529666901 1371.8863199800253 71.496755540370941 17.949797764420509 131.85119037330151 55.172540754079819 602.92499563097954 95.904204964637756 110.00889340043068
leaf_count=887 451 248 648 69 375 262 457 394 1746 946 615 1630 489 244 344 3959 300 47 467 176 2765 270 416
internal_value=0.00696346 0.0111705 0.0157285 -0.00230943 0.0210301 -0.00545052 0.00268833 0.00906041 -0.0161579 0.0155122 0.00372312 -0.00201597 0.0174663 0.0233956 0.021086 0.0229917 0.00299937 -0.0206858 0.0256893 -0.0134331 -0.015725 0.0137281 0.000393987
internal_weight=5206.49 4317.35 3226.01 1091.34 2236.24 1004.91 572.209 472.086 432.699 408.472 989.778 700.014 289.764 2005.9 1762.99 1707.49 203.756 89.4466 1503.74 889.142 833.969 276.84 230.334
internal_count=18205 14377 10255 4122 6800 3874 2059 1602 1815 1340 3455 2515 940 6009 5361 5117 691 347 4426 3828 3652 885 791
is_linear=0
shrinkage=0.025


Tree=22
num_leaves=24
num_cat=0
split_feature=89 91 111 90 106 91 88 87 89 114 10 88 89 89 110 85 108 88 12 87 88 92 108
split_gain=683.092 506.427 234.977 168.12 152.195 157.398 176.016 181.281 269.62 153.24 136.245 113.849 186.438 207.865 121.289 106.341 105.756 103.019 159.764 102.983 156.369 93.497 91.8238
threshold=-0.087474943096760502 8.4206494944270656 0.019770139488874749 -0.075815921527709926 0.14870184297650471 1.0903246614717521 0.47258618561790361 0.053306855952833361 -0.074433018392278436 8.8534227964264023 -0.028916111362327631 0.18914658991023917 -0.050641501650412361 -0.054805271983086927 0.064270297781204314 178.50000000000003 12.553963538863249 0.2480496206426426 0.14948451057975135 0.065098540048924472 0.14871115114128478 4.6747252290985646 20.622681557236241
decision_type=2 2 2 2 2 2 2 2 2 2 2 2 2 2 2 2 2 2 2 2 2 2 2
left_child=19 2 4 -3 5 -2 7 8 16 -8 11 -9 13 14 17 -6 -7 -13 -19 -1 -21 -5 -4
right_child=1 3 22 21 15 6 9 10 -10 -11 -12 12 -14 -15 -16 -17 -18 18 -20 20 -22 -23 -24
leaf_value=-0.028551065442458973 0.033004927775063288 -0.016509178405389312 -0.0051788179863948153 -0.033574019592361587 -0.022090832044275029 0.037106851903823838 -0.025345857352904996 0.034577480626360783 -0.013592362979476108 0.015400012806066107 -0.00040412416215532157 0.02952344063911776 0.028974794276805584 -0.042540906921672443 -0.036244316146378762 0.0099902644680077042 -0.0095292544256257057 -0.02266457712474397 0.02291188480785411 0.042394424584231684 -0.011186146035059706 0.012001551157051038 0.037265890347411838
leaf_weight=205.82889503240585 437.45116147398949 477.51883992552757 416.68677872419357 28.473636284470558 87.908298179507256 137.39395800232887 108.65993741154671 494.30379091203213 234.2644148170948 116.49142940342426 148.81285089254379 195.48972646892071 604.93882125616074 43.350863337516785 26.037098318338394 219.97460770606995 37.428122088313103 80.177941769361496 111.00133886933327 33.010907992720604 645.17784014344215 269.05337916314602 31.479882806539536
leaf_count=1001 1221 2094 1570 126 372 382 424 1365 881 383 504 558 1720 176 113 715 141 301 335 106 2721 904 92
internal_value=0.00681145 0.0109201 0.0149339 -0.00735767 0.01739 0.0192379 0.0166234 0.0188598 0.00388109 -0.00433899 0.0224424 0.024625 0.0199038 0.00776081 0.0133134 0.000705524 0.0271301 0.0169038 0.0037429 -0.0131748 -0.00840288 0.00734831 -0.00196947
internal_weight=5190.91 4306.9 3531.85 775.046 3083.68 2775.8 2338.35 2113.2 409.086 225.151 1704.11 1555.3 1061 456.057 412.706 307.883 174.822 386.669 191.179 884.018 678.189 297.527 448.167
internal_count=18205 14377 11253 3124 9591 8504 7283 6476 1404 807 5072 4568 3203 1483 1307 1087 523 1194 636 3828 2827 1030 1662
is_linear=0
shrinkage=0.025


Tree=23
num_leaves=24
num_cat=0
split_feature=89 91 90 25 91 94 85 94 93 93 87 93 7 93 87 87 89 89 93 108 12 111 85
split_gain=651.547 484.108 252.551 145.487 142.038 143.137 131.459 130.883 129.657 136.152 171.797 124.378 115.887 121.485 113.933 121.255 183.113 201.108 113.037 158.545 111.913 100.406 100.155
threshold=-0.087474943096760502 10.041470357392251 -0.11838692234435781 0.0059455121960486643 0.97176679712429981 0.54219544846050882 183.50000000000003 0.56012048192771091 0.51667504513778495 0.48822460673957585 0.41963326946440599 0.48689463828011692 -0.065153503567245794 0.50675262378421249 0.44835251772929424 0.062093026966771998 -0.037477655405400982 -0.031386975663776566 0.49512586181097595 3.7710362997652127 0.082847885927555112 0.015633386948055248 239.50000000000003
decision_type=2 2 2 2 2 2 2 2 2 2 2 2 2 2 2 2 2 2 2 2 2 2 2
left_child=18 2 4 14 5 -2 7 -6 9 10 11 -3 13 -8 15 16 20 -18 -1 22 -4 -5 -20
right_child=1 8 3 21 6 -7 12 -9 -10 -11 -12 -13 -14 -15 -16 -17 17 -19 19 -21 -22 -23 -24
leaf_value=-0.03046715862001044 0.035433623370015876 -0.030657484475774752 0.035528574563175618 0.012793783405730489 -0.014848543223204261 -0.020700780103659916 0.039286444033971205 0.037339761673207988 0.032564456572228964 -0.016383805211009916 0.052913281748253743 0.031691574027618116 0.0015854611597029011 -0.032636862855109833 -0.014355286762039954 0.027204955382383902 -0.029626756287512868 0.041277665043259595 -0.0047088285380363108 -0.020588980535820187 0.0021547166688758541 -0.014754289640051103 0.024765591457363581
leaf_weight=179.39960907399654 140.37873533368111 52.715496212244034 166.55228114128113 665.01469977200031 366.73104019463062 33.278673231601715 104.07887849211693 29.837251782417297 42.707404643297195 540.2328537851572 40.312857389450073 28.323766767978668 360.74789932370186 14.688464805483816 48.98634235560894 1338.8181101828814 100.45129306614399 30.132977023720741 268.41596496105194 336.55495312809944 100.3867916315794 91.826805576682091 95.159833997488022
leaf_count=892 383 231 463 2096 1488 129 281 81 123 2318 107 102 1259 61 185 3886 408 78 1088 1549 339 359 299
internal_value=0.00666102 0.0106743 0.0143888 0.018645 0.00405775 0.0245075 -6.56043e-05 -0.0106711 -0.00825027 -0.0110201 0.0126771 -0.00851266 0.00871716 0.0298065 0.0225391 0.0236029 0.0113588 -0.0127056 -0.0129121 -0.00830309 0.0231412 0.00940635 0.00314515
internal_weight=5175.73 4296.2 3591.91 2542.17 1049.74 173.657 876.084 396.568 704.292 661.585 121.352 81.0393 479.515 118.767 1785.33 1736.34 397.523 130.584 879.53 700.131 266.939 756.842 363.576
internal_count=18205 14377 11496 7814 3682 512 3170 1569 2881 2758 440 333 1601 342 5359 5174 1288 486 3828 2936 802 2455 1387
is_linear=0
shrinkage=0.025


Tree=24
num_leaves=24
num_cat=0
split_feature=89 91 90 88 114 24 88 88 89 90 110 88 7 7 91 90 114 110 10 10 90 89 89
split_gain=621.923 460.949 240.477 185.981 153.72 143.247 137.174 188.972 134.217 124.024 124.976 114.411 150.89 104.072 111.53 134.317 126.1 101.553 93.629 121.309 116.142 92.6872 265.48
threshold=-0.087474943096760502 10.041470357392251 -0.11838692234435781 0.14496097324272764 3.8540659380921172 0.013091349849733926 0.13434101084717168 0.12255980094728948 -0.032774078370383257 -0.11640835158810008 0.0669289092081813 0.39277456444004127 0.23132473727609451 0.19756454198789922 1.2092594231053204 -0.10734214578836086 9.2209147589520306 0.00098968751879852123 -0.17510371125065574 -0.11090797682709451 -0.19079922646514627 -0.074876596716763541 -0.073865791078736961
decision_type=2 2 2 2 2 2 2 2 2 2 2 2 2 2 2 2 2 2 2 2 2 2 2
left_child=13 2 3 -2 -5 6 7 -4 11 -3 -11 18 -13 14 15 -1 -16 -8 -6 -20 -21 -19 -23
right_child=1 9 5 4 8 -7 17 -9 -10 10 -12 12 -14 -15 16 -17 -18 21 19 20 -22 22 -24
leaf_value=-0.03146174301673698 0.033061815726623596 -0.022885118195230716 0.018979023682321034 -0.020776105882838649 -0.015725576757901857 0.0074240123902066585 -0.0021686401065087011 -0.03292388073989521 -0.033417945168600541 -0.0044813539760785127 0.042102152247304118 -0.028166638080109482 0.025460457627753987 -0.00012419855316060362 -0.026839781890633154 0.019402406411179286 0.043846861252201087 0.039802757073688327 0.026280426635953265 0.032513126903158829 -0.010835422878000366 -0.034896207757137469 0.024582281184057187
leaf_weight=47.386907905340195 118.45066832005978 232.26014973223209 125.05992494523525 174.50988747179508 60.439077436923981 593.88154071569443 89.684735715389252 63.669649288058281 49.796226114034653 432.87015819549561 36.235684126615524 101.80711744725704 45.013577669858932 280.91504764556885 443.96184270083904 88.155111730098724 13.733597502112387 232.32923957705498 307.47900886833668 49.943491503596306 139.89826101064682 46.004086494445801 1386.2740232646465
leaf_count=232 338 1119 381 730 236 1943 315 274 218 1668 94 426 140 1137 2108 315 36 624 931 143 520 203 4074
internal_value=0.00651636 0.0104362 0.0140616 0.00396859 0.000164159 0.0182188 0.0215016 0.00122792 0.00507138 -0.00807157 -0.000638377 0.00792176 -0.0115446 -0.0126712 -0.018582 0.00132356 -0.024447 0.0236769 0.0130803 0.0166543 0.000897085 0.0250708 0.0226029
internal_weight=5159.76 4285.61 3584.24 1047.34 928.887 2536.9 1943.02 188.73 754.377 701.366 469.106 704.581 146.821 874.153 593.237 135.542 457.695 1754.29 557.76 497.321 189.842 1664.61 1432.28
internal_count=18205 14377 11496 3682 3344 7814 5871 655 2614 2881 1762 2396 566 3828 2691 547 2144 5216 1830 1594 663 4901 4277
is_linear=0
shrinkage=0.025


Tree=25
num_leaves=24
num_cat=0
split_feature=89 91 90 85 88 94 114 91 94 25 90 110 88 88 7 91 90 114 7 89 107 7 110
split_gain=593.41 439.103 232.868 227.545 147.78 130.761 141.782 120.768 122.481 120.716 119.68 119.73 112.11 100.601 100.39 107.736 128.749 121.436 96.9272 91.3462 90.0087 87.162 86.7624
threshold=-0.087474943096760502 10.041470357392251 -0.080684333146046269 175.50000000000003 0.11452986972177261 0.54219544846050882 6.4692902221396382 0.97176679712429981 0.56012048192771091 0.0059455121960486643 -0.11640835158810008 0.0669289092081813 0.12892303505525229 0.12255980094728948 0.19756454198789922 1.2092594231053204 -0.10734214578836086 9.2209147589520306 0.32798551553268523 -0.048470277098269114 1.1937972930375473 0.13552136982304966 0.043449999651999811
decision_type=2 2 2 2 2 2 2 2 2 2 2 2 2 2 2 2 2 2 2 2 2 2 2
left_child=14 2 3 4 -2 6 -5 -6 22 12 -3 21 13 -4 15 16 -1 20 19 -8 -17 -12 -9
right_child=1 10 9 5 7 -7 18 8 -10 -11 11 -13 -14 -15 -16 17 -18 -19 -20 -21 -22 -23 -24
leaf_value=-0.031122720549797242 0.040992653792116994 -0.022549969315920168 0.01821719679385515 0.021118730083483962 0.021281183784212458 -0.033576053286600599 -0.023312308079699959 -0.0018704656108321151 0.030266491840326711 0.011861041599561114 -0.01865476841879124 0.041315092004868964 0.02949123842735378 -0.034771439983015205 -0.00012113145809913261 -0.028119813825747103 0.01883841878767635 0.04283446030964308 0.030600291956279203 0.010190900369608685 0.045267593423654759 0.0043486080399576599 -0.019842377631766495
leaf_weight=46.746273130178452 45.316238164901733 229.89387418329716 65.634633302688599 927.05295619368553 100.4934898763895 30.613741427659988 107.40098521113396 355.98815649747849 46.893810823559761 555.56040298938751 162.67263069748878 36.062128514051437 854.9288545101881 30.239687457680702 280.90421305596828 430.96553079783916 88.608412221074104 13.777061447501181 48.074743270874023 91.886159762740135 8.1102037876844388 269.67644540965557 315.91592670977116
leaf_count=232 119 1119 200 2813 301 129 424 1270 136 1771 675 94 2450 135 1137 2079 315 36 142 301 29 993 1305
internal_value=0.0063739 0.0102029 0.0137423 0.00828064 -0.00150568 0.0152886 0.0166447 -0.00399731 -0.0076052 0.0212149 -0.00790343 -0.000617224 0.026626 0.000956151 -0.0124277 -0.0182744 0.00128307 -0.0240899 -0.000175044 -0.0079428 -0.0264663 -0.00437539 -0.0103711
internal_weight=5143.42 4274.3 3576 2069.64 864.608 1205.03 1174.41 819.291 718.798 1506.36 698.305 468.411 950.803 95.8743 869.112 588.207 135.355 452.853 247.362 199.287 439.076 432.349 671.904
internal_count=18205 14377 11496 6940 3131 3809 3680 3012 2711 4556 2881 1762 2785 335 3828 2691 547 2144 867 725 2108 1668 2575
is_linear=0
shrinkage=0.025


Tree=26
num_leaves=24
num_cat=0
split_feature=89 106 93 92 89 89 87 89 89 89 93 89 85 93 87 85 94 12 7 111 89 85 89
split_gain=566.071 349.008 288.576 198.757 141.365 323.015 134.626 153.797 145.603 117.765 116.683 126.276 120.891 111.608 150.1 108.651 102.06 99.21 98.3994 94.6028 93.5377 102.106 127.791
threshold=-0.087474943096760502 0.1250461303262291 0.49717592897888191 0.97048710264979288 -0.074876596716763541 -0.073865791078736961 0.051298765140933462 -0.040460567324996081 -0.031386975663776566 -0.075391990122505956 0.48918562053971387 -0.035261177258199765 155.50000000000003 0.49512586181097595 0.065098540048924472 183.50000000000003 0.56012048192771091 0.29562897580550834 0.69675700664521367 0.03802365173463388 -0.072518453086299658 226.50000000000003 -0.042222127629934318
decision_type=2 2 2 2 2 2 2 2 2 2 2 2 2 2 2 2 2 2 2 2 2 2 2
left_child=13 2 10 9 -4 -6 7 -7 -9 -3 12 20 -2 -1 -15 -11 18 -16 -5 -14 -12 -22 -23
right_child=1 3 4 16 5 6 -8 8 -10 15 11 -13 19 14 17 -17 -18 -19 -20 -21 21 22 -24
leaf_value=-0.029869640793708463 -0.0021075473125579708 -0.020146753101844009 0.036163516030395436 -0.013994437741904725 -0.03619990300806978 0.019467548778519993 0.021154705580998443 -0.035708339707465744 0.036864413534565335 -0.0046671012881902259 0.012809102695181053 0.038962141239279185 0.036342299337129728 -0.026905063524935238 -0.0077549836142896556 0.027417949298109423 0.034915165090779292 0.016227305183286703 0.036538841849038189 -0.026283552026862791 -0.017886842856483242 -0.0068087120403917296 0.04230327809820375
leaf_weight=174.78762368857861 127.21802206337452 56.677499264478683 267.30515822768211 650.26651856303215 66.787851601839066 119.80703864991665 1646.7967617362738 83.866989627480507 18.974705532193184 91.525414273142815 137.21105483174324 39.786317497491837 146.89936749637127 181.49036704003811 356.76222692430019 226.17064338922501 27.20222170650959 150.94277420639992 22.192084580659866 14.618242949247358 349.64569760859013 129.27072837948799 41.239926293492317
leaf_count=892 451 231 734 2758 296 366 4995 359 50 347 445 105 423 918 1490 647 74 528 65 66 1366 484 115
internal_value=0.00623571 0.00997501 0.0141225 -0.00234642 0.0191471 0.0167456 0.0186921 0.000438561 -0.021653 0.0122953 0.00286825 -0.00267626 0.0161454 -0.0121871 -0.00759265 0.0182173 -0.0101999 -0.000571512 -0.0121719 0.0302984 -0.00536192 -0.0102012 0.00559563
internal_weight=5127.45 4263.46 3189.43 1074.03 2203.54 1936.23 1869.45 222.649 102.842 374.374 985.889 697.154 288.736 863.983 689.195 317.696 699.661 507.705 672.459 161.518 657.367 520.156 170.511
internal_count=18205 14377 10255 4122 6800 6066 5770 775 409 1225 3455 2515 940 3828 2936 994 2897 2018 2823 489 2410 1965 599
is_linear=0
shrinkage=0.025


Tree=27
num_leaves=24
num_cat=0
split_feature=89 91 111 90 93 90 89 85 91 89 87 89 93 108 85 6 10 10 88 93 92 6 88
split_gain=540.577 410.031 200.859 148.212 123.33 169.954 140.326 176.373 111.755 119.633 244.444 139.906 108.715 145.218 98.3792 97.3888 149.466 94.1736 91.9803 101.035 89.1313 88.3998 87.6156
threshold=-0.087474943096760502 8.4206494944270656 0.015388849939386299 -0.075815921527709926 0.49782429986836901 -0.15381416721442345 -0.036829142203850744 223.50000000000003 1.0903246614717521 -0.074876596716763541 0.050006346788525009 -0.073865791078736961 0.49512586181097595 3.8802979022752866 239.50000000000003 0.015711368430501364 -0.07120028151883516 -0.03381792428481805 0.12080795938801815 0.52344966792889625 4.6747252290985646 -0.047507912122684841 0.44734012419332642
decision_type=2 2 2 2 2 2 2 2 2 2 2 2 2 2 2 2 2 2 2 2 2 2 2
left_child=12 2 4 -3 6 -6 7 -2 -7 -10 21 -12 -1 14 -14 16 -4 22 -15 -20 -5 -11 -13
right_child=1 3 15 20 5 8 -8 -9 9 10 11 17 13 18 -16 -17 -18 -19 19 -21 -22 -23 -24
leaf_value=-0.029552477198328233 -0.0045778285519854391 -0.015599763055734839 -0.00028687885940040963 -0.033261939479462987 -0.0087112287629128159 0.036112466142049361 0.038138986339483399 0.020631965558409588 0.036649658675486842 0.012390759905633018 -0.036435286239451352 0.025705489040186852 -0.0046880644770010841 0.051411820687028986 0.023971803216571545 -0.01261121649809511 0.030092771363974469 -0.001057937967328129 -0.026982784187799775 0.019520181117115565 0.011477962029868101 -0.027965585174172993 -0.0013145178130966166
leaf_weight=172.3103392124176 466.40537747740746 465.47635199129581 396.29021853208542 28.103456497192383 119.79944376647472 289.44409883022308 85.310614123940468 272.37193991243839 207.60696937143803 49.63535663485527 24.224635064601898 955.07254542410374 271.48023597896099 8.2097915410995466 99.996878460049629 207.75189825892448 132.91251292824745 106.53151032328606 276.37107525765896 30.457351833581924 268.07410085201263 95.358285710215569 81.067435085773468
leaf_count=892 1646 2094 1465 126 449 797 230 842 573 160 100 2770 1116 28 317 807 389 359 1374 101 904 392 274
internal_value=0.00610184 0.00975634 0.0133816 -0.0068414 0.016482 0.019941 0.00834335 0.00476236 0.0218498 0.0190671 0.0162074 0.0200098 -0.01196 -0.00743502 0.00315704 0.00178065 0.00746978 0.0212987 -0.0198366 -0.0222224 0.00694175 -0.0141794 0.0235938
internal_weight=5110.26 4251.44 3489.78 761.654 2752.83 1928.74 824.088 738.777 1808.94 1519.5 1311.89 1166.9 858.826 686.515 371.477 736.955 529.203 1142.67 315.038 306.828 296.178 144.994 1036.14
internal_count=18205 14377 11253 3124 8592 5874 2718 2488 5425 4628 4055 3503 3828 2936 1433 2661 1854 3403 1503 1475 1030 552 3044
is_linear=0
shrinkage=0.025


Tree=28
num_leaves=24
num_cat=0
split_feature=106 93 91 104 10 104 7 111 91 106 11 104 94 93 91 87 111 93 93 11 92 104 114
split_gain=355.957 288.555 226.14 165.879 158.911 120.638 120.78 184.836 120.074 122.895 144.337 121.569 108.894 87.5429 149.349 113.232 139.518 87.6141 85.9091 105.333 85.3185 107.809 99.366
threshold=0.12574152555686682 0.49744885262644883 6.8301678707762488 0.14496097324272764 -0.035357628545525148 0.16430219544309135 -0.0060671434909020929 0.00065492963806134525 1.0238159356206746 0.072119718993592055 0.032638603965604814 0.15829497330286826 0.48232691306611147 0.48918562053971387 4.7914705254108325 0.34103456715547403 0.033584053022038131 0.48786545462951575 0.50363310390060934 0.05901427415680028 2.7953861338884702 0.18676701743539162 3.262731639924723
decision_type=2 2 2 2 2 2 2 2 2 2 2 2 2 2 2 2 2 2 2 2 2 2 2
left_child=1 13 3 -2 8 -5 12 -8 -3 -10 11 -11 -7 15 20 17 -17 -1 19 -6 21 22 -15
right_child=2 4 -4 5 18 6 7 -9 9 10 -12 -13 -14 14 -16 16 -18 -19 -20 -21 -22 -23 -24
leaf_value=-0.012396350930223815 0.031931187035088626 0.032751107659473699 -0.024513247957176926 -0.026932186521671866 0.026468828831130969 -0.026396365910426978 0.028834300973426291 -0.018680401059871059 0.021181450465696069 -0.0056672951800629976 -0.0017985149834813933 0.021123018299489496 0.014024371453673549 -0.0065144209012481542 -0.020668530946942321 0.039759285243795579 -0.019168626764546094 0.026624606402840902 -0.019316117219701927 -0.018313474750389892 0.015969366502769318 -0.013844913839811623 0.029469400406169879
leaf_weight=136.05387224256992 90.901261389255524 251.83317017555237 296.54686293005943 111.7142890393734 82.771499246358871 44.062839701771736 59.399527907371521 285.7142648845911 943.23985204100609 128.61060445010662 464.10808058083057 567.84370893239975 372.69660040736198 99.050838857889175 248.09141094982624 112.75800344347954 30.096373111009598 45.528233334422112 120.84115079045296 50.525284960865974 190.25210562348366 270.84949138760567 88.41961532831192
leaf_count=539 274 727 1458 482 247 184 184 1258 2946 506 1731 1755 1249 364 1063 324 130 134 471 193 639 1090 257
internal_value=0.00597221 0.00976279 -0.00553895 0.000352915 0.0144516 -0.003031 0.000565544 -0.0103244 0.016476 0.0144839 0.00899992 0.0161727 0.00959269 -0.000269089 -0.00429685 0.0108 0.0272055 -0.00233888 -0.004286 0.00946491 0.00203196 -0.00381979 0.010654
internal_weight=5091.91 3830.87 1261.04 964.489 2609.77 873.588 761.873 345.114 2355.64 2103.8 1160.56 696.454 416.759 1221.1 896.663 324.436 142.854 181.582 254.138 133.297 648.572 458.32 187.47
internal_count=18205 13116 5089 3631 8576 3357 2875 1442 7665 6938 3992 2261 1433 4540 3413 1127 454 673 911 440 2350 1711 621
is_linear=0
shrinkage=0.025


Tree=29
num_leaves=24
num_cat=0
split_feature=89 91 90 104 114 85 104 89 89 12 104 91 104 104 89 104 104 7 93 114 87 104 89
split_gain=509.334 376.813 210.499 166.543 133.28 131.069 187.761 157.54 184.238 225.304 132.176 195.234 129.06 186.066 128.325 124.05 110.703 139.859 104.005 172.91 150.737 156.874 124.402
threshold=-0.087474943096760502 11.318495955915742 -0.11838692234435781 0.14496097324272764 3.8540659380921172 209.50000000000003 0.48410453452292851 -0.074876596716763541 -0.05885946067094832 0.13577281216335627 0.16062900171902653 1.6809055992073367 0.24760641522787621 0.30783334173729465 -0.032774078370383257 0.14664794007490636 0.39277456444004127 0.23132473727609451 0.48822460673957585 5.204810602533521 0.41963326946440599 0.58428811092895649 -0.040634868587979482
decision_type=2 2 2 2 2 2 2 2 2 2 2 2 2 2 2 2 2 2 2 2 2 2 2
left_child=-1 2 3 -2 -5 6 7 -4 9 -9 11 15 -12 -14 16 -10 -6 -18 20 22 21 -3 -20
right_child=1 18 5 4 14 -7 -8 8 10 -11 12 -13 13 -15 -16 -17 17 -19 19 -21 -22 -23 -24
leaf_value=-0.011764255937162953 0.030899827351408227 -0.025820485184928937 0.033837623522337129 -0.02015586834776785 0.012047419536112028 0.023861159346866705 -0.029777914220385157 -0.024784086098142297 0.031575130294448368 0.014169570963715229 0.029891694341626165 -0.024642331262147505 -0.019753423037580691 0.022379222513047609 -0.032802564317407988 -0.034852033162695709 -0.027637953605155738 0.0236476556634365 0.026759198177660471 -0.020674627655109495 0.049816928913247092 0.054841232563626711 -0.033034831734578399
leaf_weight=852.20208820700645 116.3736020475626 63.09616519510746 208.87474046647549 171.71146328747272 554.63137537240982 939.12363985180855 61.675308018922806 175.03675682842731 104.25898550450802 191.01163473725319 443.65823569893837 106.67574766278267 95.788483828306198 192.49443823099136 51.856202125549316 18.433029770851135 104.75641931593418 45.390823125839233 92.724010080099106 406.52340948581696 40.848610311746597 16.563578993082047 25.386348709464073
leaf_count=3828 338 281 593 731 1831 2811 251 684 293 609 1268 434 345 570 234 79 451 141 304 1852 107 52 118
internal_value=0.00583834 0.0093931 0.0125599 0.00310381 -0.000468895 0.0164456 0.0120507 0.0137848 0.01056 -0.00450731 0.0162936 -0.000270839 0.0214643 0.00832044 0.00406084 0.0210016 0.00690072 -0.0119743 -0.00816538 -0.0129692 0.0125551 -0.0076669 0.0134073
internal_weight=5079.1 4226.89 3581.75 1044.72 928.346 2537.03 1597.91 1536.23 1327.36 366.048 961.309 229.368 731.941 288.283 756.635 122.692 704.779 150.147 645.142 524.634 120.508 79.6597 118.11
internal_count=18205 14377 11663 3726 3388 7937 5126 4875 4282 1293 2989 806 2183 915 2657 372 2423 592 2714 2274 440 333 422
is_linear=0
shrinkage=0.025


Tree=30
num_leaves=24
num_cat=0
split_feature=89 91 90 85 6 25 91 88 88 88 94 91 93 105 88 93 85 105 91 105 93 114 105
split_gain=486.068 359.127 203.082 205.023 144.11 119.315 115.212 116.751 112.848 117.431 112.18 122.816 104.491 142.651 108.446 106.712 151.71 129.986 108.169 102.487 99.7768 165.654 142.913
threshold=-0.087474943096760502 11.318495955915742 -0.08933724478131648 197.50000000000003 0.022466348602629419 0.0059455121960486643 0.97176679712429981 0.11727326475272239 0.12892303505525229 0.12255980094728948 0.56012048192771091 5.3514593018931906 0.49512586181097595 0.065098540048924472 0.14871115114128478 0.52193176677568809 239.50000000000003 0.26527706777469112 1.235268375359851 0.013253228440620825 0.48822460673957585 5.204810602533521 0.41963326946440599
decision_type=2 2 2 2 2 2 2 2 2 2 2 2 2 2 2 2 2 2 2 2 2 2 2
left_child=12 2 3 4 6 8 -2 -8 9 -4 11 19 -1 -14 -15 16 -16 18 -18 -9 22 -22 -3
right_child=1 20 5 -5 -6 -7 7 10 -10 -11 -12 -13 13 14 15 -17 17 -19 -20 -21 21 -23 -24
leaf_value=-0.029016491813639897 0.028506889262558018 -0.0074758125656840396 0.017973399520039075 0.015073653076400862 -0.020451402044587331 0.0094735562797189192 0.0389728972061033 -0.019973730097941227 0.025685417423124281 -0.034931808071978494 0.035268384251305115 -0.027971227330160678 -0.026242177730045953 0.041423166205641682 -0.018501489139868359 0.031809151676303077 0.048937037537131446 0.037062952552787673 -0.021461814374959132 0.0072307137183056924 0.013067860065892717 -0.020323321348049331 0.048449991389566183
leaf_weight=167.94564768671989 95.769147172570229 79.415079444646835 69.529570192098618 874.24801658093929 199.0313658863306 623.75690656900406 40.68807265162468 115.05658856034279 1028.9592573195696 38.073810830712318 40.690411448478699 123.91565297544003 176.39149260520935 33.205941677093506 273.00034189224243 45.259831875562668 13.849590286612509 68.961610093712807 69.826770842075348 321.31101275980473 118.09638734161854 403.30445583164692 41.033222198486328
leaf_count=892 280 333 213 2781 776 2022 109 486 3052 173 112 560 918 105 1226 132 41 196 318 1099 422 1852 107
internal_value=0.0057129 0.0091897 0.0122832 0.00638891 -0.0017411 0.0183249 0.00337118 -0.000495571 0.023145 -0.00118604 -0.00334804 -0.00632544 -0.0115225 -0.00709659 -0.000281725 -0.00346621 -0.00741355 0.0123921 -0.00851934 -2.96571e-05 -0.0079983 -0.0127288 0.0122909
internal_weight=5061.32 4212.88 3571.03 1810.71 936.462 1760.32 737.431 641.662 1136.56 107.603 600.974 560.283 848.441 680.496 504.104 470.898 425.638 152.638 83.6764 436.368 641.849 521.401 120.448
internal_count=18205 14377 11663 6203 3422 5460 2646 2366 3438 386 2257 2145 3828 2936 2018 1913 1781 555 359 1585 2714 2274 440
is_linear=0
shrinkage=0.025


Tree=31
num_leaves=24
num_cat=0
split_feature=90 93 91 88 10 88 91 87 10 90 12 7 108 111 85 11 93 93 11 92 93 91 94
split_gain=320.379 261.892 201.904 152.638 151.394 115.682 113.399 113.405 134.338 132.373 114.578 111.452 116.335 141.473 99.3767 96.7314 86.698 80.8767 98.0933 78.3989 77.784 133.099 105.454
threshold=-0.1260397712211275 0.49744885262644883 6.8301678707762488 0.14496097324272764 -0.035357628545525148 0.16430219544309135 1.0238159356206746 0.051298765140933462 -0.09114161700368599 -0.10203435108447177 0.095371684801088055 -0.055238604530892348 21.600725306136201 0.00065492963806134525 181.50000000000003 0.052277218828602263 0.48999200354769218 0.50363310390060934 0.05901427415680028 1.3558143461085288 0.48918562053971387 4.7914705254108325 0.50421948440393116
decision_type=2 2 2 2 2 2 2 2 2 2 2 2 2 2 2 2 2 2 2 2 2 2 2
left_child=2 20 3 -1 6 -5 -3 8 -8 10 -9 14 13 -13 16 -11 -7 18 -6 -16 22 -22 -2
right_child=1 4 -4 5 17 11 7 9 -10 15 -12 12 -14 -15 19 -17 -18 -19 -20 -21 21 -23 -24
leaf_value=0.030731207176893788 0.017777155227118643 0.031586260386938771 -0.023693800628486996 -0.026918790530068099 0.02521702815022377 0.03863361501191822 0.014748310012232238 0.015506113778100289 -0.017858006857429075 0.023945643616397585 -0.015238127078431869 0.023840765069758144 0.030934315737819174 -0.015637334183269989 0.03143409756394213 0.010501051518651106 -0.0196946573715754 -0.01926593610046317 -0.018130840193920528 -0.024822731590999375 0.0017460300872774452 -0.019816396252840596 -0.015629725378462609
leaf_weight=89.042484194040298 249.79876509308815 248.19098587334156 287.37534631788731 108.33966569602489 82.16216316819191 17.443732678890228 169.50821135938168 156.75461427867413 142.64900875091553 955.4009860008955 141.11022621393204 63.339400067925453 44.686113059520721 398.32007186114788 143.49625378847122 525.31931997835636 69.992599725723267 120.34140528738499 50.205508470535278 15.085506305098532 645.82561556994915 244.26409311592579 74.515554711222649
leaf_count=271 827 728 1452 474 247 45 579 489 607 2935 571 200 128 1711 405 1778 308 471 193 63 2352 1065 306
internal_value=0.00559214 0.0091829 -0.00545044 0.000126883 0.0136676 -0.00313498 0.015652 0.0137179 -0.000180216 0.0161534 0.00093465 0.00038318 -0.00631959 -0.010102 0.0140885 0.0192067 -0.00716249 -0.00466707 0.00873825 0.025721 -0.000397993 -0.00421796 0.0100286
internal_weight=5043.17 3806.05 1237.12 949.746 2591.64 860.703 2338.93 2090.74 312.157 1778.59 297.865 752.364 506.346 461.659 246.018 1480.72 87.4363 252.709 132.368 158.582 1214.4 890.09 324.314
internal_count=18205 13148 5057 3605 8598 3334 7687 6959 1186 5773 1060 2860 2039 1911 821 4713 353 911 440 468 4550 3417 1133
is_linear=0
shrinkage=0.025


Tree=32
num_leaves=24
num_cat=0
split_feature=89 91 90 85 88 94 88 24 88 93 93 87 93 87 88 93 85 87 91 94 91 88 88
split_gain=459.377 329.295 187.489 186.717 128.624 114.997 124.156 103.357 108.84 100.46 109.725 137.628 100.382 135.767 101.465 101.024 145.514 125.936 98.1129 108.587 97.1926 93.9851 92.8357
threshold=-0.087474943096760502 10.041470357392251 -0.080684333146046269 175.50000000000003 0.11452986972177261 0.54219544846050882 0.37090454152410673 0.014069912938742048 0.12892303505525229 0.51667504513778495 0.48822460673957585 0.38192069973554627 0.49512586181097595 0.065098540048924472 0.14871115114128478 0.52193176677568809 238.50000000000003 0.29325385665133302 0.97176679712429981 0.55400544429321419 1.235268375359851 0.12255980094728948 0.18706973039126121
decision_type=2 2 2 2 2 2 2 2 2 2 2 2 2 2 2 2 2 2 2 2 2 2 2
left_child=12 2 3 4 -2 6 -5 8 21 10 11 -3 -1 -14 -15 16 -16 20 -6 -20 -18 -4 -21
right_child=1 9 7 5 18 -7 -8 -9 -10 -11 -12 -13 13 14 15 -17 17 -19 19 22 -22 -23 -24
leaf_value=-0.028674287775201368 0.038322084632283489 -0.02412416701895595 0.014691743580778051 0.01923942177072438 0.018840212651850582 -0.032720939612003813 -1.0237374267351759e-05 0.0076734417135943898 0.025291164880311953 0.02931308252882811 -0.014553723567142757 0.030633703482892891 -0.025883952941815249 0.03964064197611894 -0.018383826526236182 0.030768553985403055 0.047518459745157296 0.039073578753018687 -0.010360558273212195 -0.030733957175773291 -0.017532738551813844 -0.034654675468234808 0.042780335934006888
leaf_weight=165.02302055060863 43.891465336084366 41.388700440526009 69.923519968986511 881.96359297633171 97.774934083223343 30.142800211906433 274.32191210985184 392.97501607239246 976.63671518862247 41.560539036989212 516.76563996076584 79.181391313672066 173.59159941971302 33.705159157514572 269.39906750619411 45.35244607925415 14.425705686211584 60.440386116504669 653.9798568636179 11.750609353184698 79.366970643401146 33.054550066590309 41.653493642807007
leaf_count=892 119 192 217 2723 301 129 957 1281 2907 123 2318 248 918 105 1218 132 42 162 2551 52 359 151 108
internal_value=0.00546952 0.0088568 0.0119398 0.00700756 -0.00194135 0.0134005 0.0146843 0.0187292 0.022721 -0.00705626 -0.00955412 0.0117074 -0.0113597 -0.0070267 -0.000399888 -0.00351121 -0.00737162 0.0118472 -0.00427034 -0.00753076 -0.0063649 -0.0016804 0.0258305
internal_weight=5028.27 4186.96 3508.07 2035.48 849.05 1186.43 1156.29 1472.59 1079.61 678.896 637.336 120.57 841.304 676.281 502.69 468.985 423.632 154.233 805.159 707.384 93.7927 102.978 53.4041
internal_count=18205 14377 11496 6940 3131 3809 3680 4556 3275 2881 2758 440 3828 2936 2018 1913 1781 563 3012 2711 401 368 160
is_linear=0
shrinkage=0.025


Tree=33
num_leaves=24
num_cat=0
split_feature=89 88 87 85 89 89 85 87 88 94 94 110 89 93 7 92 93 108 94 89 88 93 108
split_gain=438.565 288.922 223.16 167.096 163.215 198.576 188.489 183.252 148.346 147.984 196.514 144.676 121.979 109.878 103.024 100.052 97.7686 131.707 93.2605 92.9077 84.9557 85.7244 84.8766
threshold=-0.087474943096760502 0.24760641522787621 0.062093026966771998 175.50000000000003 -0.048962967667657613 -0.048470277098269114 202.50000000000003 0.16959521584311113 0.11727326475272239 0.55652061187451396 0.49679474008629548 0.0072895073590211476 -0.039160275710649166 0.49993401938706539 0.11495730103402603 0.31632872440570198 0.49512586181097595 3.7710362997652127 0.54219544846050882 -0.051698695615564776 0.12080795938801815 0.52344966792889625 10.354579269258055
decision_type=2 2 2 2 2 2 2 2 2 2 2 2 2 2 2 2 2 2 2 2 2 2 2
left_child=16 2 3 8 9 -6 7 -7 -2 10 14 -8 18 -14 -3 -10 -1 -18 -5 -16 -19 -22 -13
right_child=1 4 -4 12 5 6 11 -9 15 -11 -12 22 13 -15 19 -17 17 20 -20 -21 21 -23 -24
leaf_value=-0.028388769940889565 0.02829086749987636 -0.015064052758630804 0.022506262380573263 0.023204218057847906 0.037871382353735508 -0.03648342289012662 -0.021829546317969316 0.0022267722190953739 0.021326144714527488 0.041675487950407417 -0.033782118395861836 0.025155864672483569 0.029955982645204268 -0.027941060666131324 0.008750692640935618 -0.01456859818127737 0.0034967547721231843 0.048900367805258783 -0.029477834858360488 -0.015205392014264012 -0.025377363790009169 0.017146846467321883 -0.027100099240671124
leaf_weight=162.57669197022915 72.046871215105057 271.07190151512623 1146.6409599035978 454.07545013725758 127.58918765187263 98.794115781784058 51.004508703947067 305.55535650253296 53.219849199056625 37.651445388793945 143.27374121546745 336.54195056855679 26.702544420957565 64.032775685191154 457.48925949633121 364.4374126791954 357.41804008185863 8.5109824389219266 19.527122288942337 126.77859577536583 275.02392794191837 31.067682981491089 18.214341223239899
